{"learner":{"attributes":{"scikit_learn":"{\"_estimator_type\": \"classifier\"}"},"feature_names":[],"feature_types":[],"gradient_booster":{"model":{"gbtree_model_param":{"num_parallel_tree":"1","num_trees":"100"},"iteration_indptr":[0,1,2,3,4,5,6,7,8,9,10,11,12,13,14,15,16,17,18,19,20,21,22,23,24,25,26,27,28,29,30,31,32,33,34,35,36,37,38,39,40,41,42,43,44,45,46,47,48,49,50,51,52,53,54,55,56,57,58,59,60,61,62,63,64,65,66,67,68,69,70,71,72,73,74,75,76,77,78,79,80,81,82,83,84,85,86,87,88,89,90,91,92,93,94,95,96,97,98,99,100],"tree_info":[0,0,0,0,0,0,0,0,0,0,0,0,0,0,0,0,0,0,0,0,0,0,0,0,0,0,0,0,0,0,0,0,0,0,0,0,0,0,0,0,0,0,0,0,0,0,0,0,0,0,0,0,0,0,0,0,0,0,0,0,0,0,0,0,0,0,0,0,0,0,0,0,0,0,0,0,0,0,0,0,0,0,0,0,0,0,0,0,0,0,0,0,0,0,0,0,0,0,0,0],"trees":[{"base_weights":[-0E0,-5.9998554E-1,1.4892662E0,1.588217E0,-1.5818835E0,1.6902692E0,-1.4310002E0,-1.4909644E0,-5.576969E-1,1.8528553E0,-3.2885235E-2,-1.6255798E0,-2.8070176E-1,-1.3930833E0,-1.8337662E0,1.9544151E0,-9.1803765E-1,2.0031755E-1,-1.2525952E0,-1.6637763E0,-1.0539845E0,5.940299E-1,-1.7261146E0,-1.5759754E0,5.8878505E-1,-5.572993E-1,-1.3015873E0,8.905584E-2,5.999866E-1,-2.188861E-1,-4.6248403E-1,-2.1465348E-1,1.2893301E-1,-4.433302E-1,-1.9076924E-1,-4.3049645E-1,-5.279334E-1,-1.9148937E-1,-4.9367088E-1,-7.058824E-2,-5.3979933E-1,-5.1316106E-1,-3.9812276E-1,-1.7142859E-1,-5.0769234E-1],"categories":[],"categories_nodes":[],"categories_segments":[],"categories_sizes":[],"default_left":[0,0,0,0,0,0,0,0,0,0,0,0,0,0,0,0,0,0,0,0,0,0,0,0,0,0,0,0,0,0,0,0,0,0,0,0,0,0,0,0,0,0,0,0,0],"id":0,"left_children":[1,-1,3,5,7,9,11,13,-1,15,17,19,21,23,25,27,29,31,33,35,37,-1,39,41,-1,-1,43,-1,-1,-1,-1,-1,-1,-1,-1,-1,-1,-1,-1,-1,-1,-1,-1,-1,-1],"loss_changes":[2.8937828E5,0E0,1.6925852E4,1.6625594E4,4.1034668E1,1.4620891E4,3.9448218E2,4.15437E1,0E0,1.3421656E4,1.280372E3,3.1192139E1,8.416064E2,6.3308765E2,1.2543945E0,3.4719062E3,1.9705554E2,7.944468E2,9.9388916E1,2.8504639E1,2.2864777E1,0E0,1.6713593E1,3.0351562E1,0E0,0E0,3.5262527E0,0E0,0E0,0E0,0E0,0E0,0E0,0E0,0E0,0E0,0E0,0E0,0E0,0E0,0E0,0E0,0E0,0E0,0E0],"parents":[2147483647,0,0,2,2,3,3,4,4,5,5,6,6,7,7,9,9,10,10,11,11,12,12,13,13,14,14,15,15,16,16,17,17,18,18,19,19,20,20,22,22,23,23,26,26],"right_children":[2,-1,4,6,8,10,12,14,-1,16,18,20,22,24,26,28,30,32,34,36,38,-1,40,42,-1,-1,44,-1,-1,-1,-1,-1,-1,-1,-1,-1,-1,-1,-1,-1,-1,-1,-1,-1,-1],"split_conditions":[0E0,-5.9998554E-1,4.1587577E0,4.151585E0,1E0,1E0,5.014774E0,2.0757926E0,-5.576969E-1,1E0,1E0,2.0601244E0,6.227378E0,1.5605128E-2,1.9968702E0,-6.218914E-1,1E0,-5.303093E-1,1.5605128E-2,-3.0769232E-1,5E-1,5.940299E-1,-7.692308E-1,5E-1,5.8878505E-1,-5.572993E-1,2.3976028E0,8.905584E-2,5.999866E-1,-2.188861E-1,-4.6248403E-1,-2.1465348E-1,1.2893301E-1,-4.433302E-1,-1.9076924E-1,-4.3049645E-1,-5.279334E-1,-1.9148937E-1,-4.9367088E-1,-7.058824E-2,-5.3979933E-1,-5.1316106E-1,-3.9812276E-1,-1.7142859E-1,-5.0769234E-1],"split_indices":[20,0,18,19,4,15,19,19,0,5,4,1,19,19,1,23,10,12,19,6,4,0,6,4,0,0,1,0,0,0,0,0,0,0,0,0,0,0,0,0,0,0,0,0,0],"split_type":[0,0,0,0,0,0,0,0,0,0,0,0,0,0,0,0,0,0,0,0,0,0,0,0,0,0,0,0,0,0,0,0,0,0,0,0,0,0,0,0,0,0,0,0,0],"sum_hessian":[9.7155E4,4.14675E4,5.56875E4,5.394975E4,1.73775E3,5.218625E4,1.7635E3,1.31325E3,4.245E2,4.768675E4,4.4995E3,1.508E3,2.555E2,1.0255E3,2.8775E2,4.6001E4,1.68575E3,3.778E3,7.215E2,1.41175E3,9.625E1,9.95E1,1.56E2,9.73E2,5.25E1,2.73E2,1.475E1,1.23025E3,4.477075E4,1.29625E3,3.895E2,7.565E2,3.0215E3,5.275E2,1.94E2,4.22E2,9.8975E2,5.775E1,3.85E1,7.5E0,1.485E2,6.2775E2,3.4525E2,6E0,8.75E0],"tree_param":{"num_deleted":"0","num_feature":"24","num_nodes":"45","size_leaf_vector":"1"}},{"base_weights":[1.2625627E-4,-4.6463364E-1,1.1395499E0,1.2156284E0,-1.1937466E0,1.2942786E0,-1.0760311E0,-1.1149229E0,-1.4065738E0,1.428136E0,-2.4316698E-2,-1.2197465E0,-2.1282439E-1,-1.1250778E0,4.957739E-1,-1.185493E0,-1.4354473E0,1.5097864E0,-6.5944546E-1,-1.1135013E0,1.460503E-1,-9.428486E-1,-1.2763374E0,4.6057993E-1,-1.310371E0,-1.0308793E0,-1.4329145E0,3.4224325E-1,-1.3267963E0,-4.3963647E-1,-1.1422966E0,6.250205E-2,4.6463445E-1,-2.604745E-1,-3.1072501E-2,-2.3220941E-1,-5.375388E-1,1.1350127E-1,-3.1237593E-1,6.8282604E-1,-3.399856E-1,-3.625431E-1,-4.562885E-1,-5.1967937E-2,-4.110974E-1,-2.8007215E-1,-4.2060718E-1,-4.396907E-1,-3.568451E-1,-4.3807092E-1,-2.922569E-1,-5.8736894E-2,-4.3658382E-1],"categories":[],"categories_nodes":[],"categories_segments":[],"categories_sizes":[],"default_left":[0,0,0,0,0,0,0,0,0,0,0,0,0,0,0,0,0,0,0,0,0,0,0,0,0,0,0,0,0,0,0,0,0,0,0,0,0,0,0,0,0,0,0,0,0,0,0,0,0,0,0,0,0],"id":1,"left_children":[1,-1,3,5,7,9,11,13,15,17,19,21,23,25,-1,27,29,31,33,35,37,39,41,-1,43,45,47,-1,49,-1,51,-1,-1,-1,-1,-1,-1,-1,-1,-1,-1,-1,-1,-1,-1,-1,-1,-1,-1,-1,-1,-1,-1],"loss_changes":[1.5802083E5,0E0,9.159008E3,9.006023E3,2.576709E1,8.525539E3,2.054585E2,3.541211E1,1.085022E0,7.4753906E3,8.263703E2,2.1069336E1,4.5843286E2,3.3033447E1,0E0,1.9978386E1,1.6809692E0,2.141336E3,1.9156506E2,1.3731274E2,1.0625162E3,1.5278078E2,1.770642E1,0E0,9.762512E0,3.1729614E1,4.5733643E-1,0E0,1.0908813E0,0E0,1.1549755E1,0E0,0E0,0E0,0E0,0E0,0E0,0E0,0E0,0E0,0E0,0E0,0E0,0E0,0E0,0E0,0E0,0E0,0E0,0E0,0E0,0E0,0E0],"parents":[2147483647,0,0,2,2,3,3,4,4,5,5,6,6,7,7,8,8,9,9,10,10,11,11,12,12,13,13,15,15,16,16,17,17,18,18,19,19,20,20,21,21,22,22,24,24,25,25,26,26,28,28,30,30],"right_children":[2,-1,4,6,8,10,12,14,16,18,20,22,24,26,-1,28,30,32,34,36,38,40,42,-1,44,46,48,-1,50,-1,52,-1,-1,-1,-1,-1,-1,-1,-1,-1,-1,-1,-1,-1,-1,-1,-1,-1,-1,-1,-1,-1,-1],"split_conditions":[0E0,-4.6463364E-1,4.1587577E0,4.151585E0,1E0,1E0,5.014774E0,6.666667E-1,-6.469139E-1,1E0,-6.3726187E-1,-5.3846157E-1,6.227378E0,1E0,4.957739E-1,-5E-1,1E0,-6.218914E-1,1.7152622E-2,-6.418953E-1,5.77831E-1,5E-1,1.985559E0,4.6057993E-1,-7.692308E-1,2.0757926E0,1.2061324E0,3.4224325E-1,1E0,-4.3963647E-1,-4.6153846E-1,6.250205E-2,4.6463445E-1,-2.604745E-1,-3.1072501E-2,-2.3220941E-1,-5.375388E-1,1.1350127E-1,-3.1237593E-1,6.8282604E-1,-3.399856E-1,-3.625431E-1,-4.562885E-1,-5.1967937E-2,-4.110974E-1,-2.8007215E-1,-4.2060718E-1,-4.396907E-1,-3.568451E-1,-4.3807092E-1,-2.922569E-1,-5.8736894E-2,-4.3658382E-1],"split_indices":[20,0,18,19,10,15,19,8,12,5,13,6,19,4,0,17,16,23,18,13,12,17,18,0,6,19,1,0,4,0,6,0,0,0,0,0,0,0,0,0,0,0,0,0,0,0,0,0,0,0,0,0,0],"split_type":[0,0,0,0,0,0,0,0,0,0,0,0,0,0,0,0,0,0,0,0,0,0,0,0,0,0,0,0,0,0,0,0,0,0,0,0,0,0,0,0,0,0,0,0,0,0,0,0,0,0,0,0,0],"sum_hessian":[8.9535375E4,3.79486E4,5.1586777E4,4.9958332E4,1.628445E3,4.8301066E4,1.6572654E3,1.1928818E3,4.3556305E2,4.3849582E4,4.4514824E3,1.4203739E3,2.3689139E2,1.189112E3,3.7698305E0,5.517265E1,3.803904E2,4.2199344E4,1.6502397E3,6.0135895E2,3.8501235E3,2.4402522E2,1.1763488E3,9.121388E1,1.4567752E2,9.1382776E2,2.752843E2,2.7543159E0,5.2418335E1,3.4144083E2,3.8949596E1,1.227814E3,4.097153E4,1.1992142E3,4.5102548E2,4.0220584E2,1.9915309E2,3.2206987E3,6.294249E2,1.3018737E1,2.3100648E2,9.2553815E2,2.5081055E2,7.4906654E0,1.3818684E2,7.267947E2,1.8703307E2,2.3824014E2,3.7044144E1,3.574847E1,1.6669865E1,1.0082912E1,2.8866684E1],"tree_param":{"num_deleted":"0","num_feature":"24","num_nodes":"53","size_leaf_vector":"1"}},{"base_weights":[5.630341E-4,-4.0344504E-1,9.613956E-1,1.0265496E0,-9.613005E-1,1.1505018E0,-2.5231203E-2,-8.8834065E-1,-1.1995232E0,1.2265655E0,-9.1425794E-1,-7.8678054E-1,1.8513793E-1,-7.9326123E-1,-1.1747408E0,-3.6611146E-1,-9.669165E-1,1.3033834E0,-4.8448828E-1,-1.0105608E0,-2.7819148E-1,-5.8628833E-1,-1.7671369E0,6.2763315E-1,-5.0659055E-1,-1.0174469E0,-5.891447E-1,-1.0369172E0,-3.8255E-1,-1.1218554E0,2.6249474E-1,4.396344E-2,4.0344575E-1,-1.0108385E-1,-3.0196488E-1,-2.4708344E-1,-3.3987603E-1,3.979466E-1,-3.309591E-1,-2.0590627E-1,6.1384857E-1,-5.46113E-1,4.371481E-1,-2.344293E-1,3.5188568E-1,-8.509338E-2,-5.182655E-1,-1.8873934E-1,-3.4762168E-1,2.0966788E-1,-2.0066328E-1,-3.433772E-1,-4.1952163E-2,-3.9102912E-1,-1.8931016E-1,4.9359146E-1,-2.8017414E-1],"categories":[],"categories_nodes":[],"categories_segments":[],"categories_sizes":[],"default_left":[0,0,0,0,0,0,0,0,0,0,0,0,0,0,0,0,0,0,0,0,0,0,0,0,0,0,0,0,0,0,0,0,0,0,0,0,0,0,0,0,0,0,0,0,0,0,0,0,0,0,0,0,0,0,0,0,0],"id":2,"left_children":[1,-1,3,5,7,9,11,13,15,17,19,21,23,25,27,-1,29,31,33,35,37,39,41,43,45,47,49,51,-1,53,55,-1,-1,-1,-1,-1,-1,-1,-1,-1,-1,-1,-1,-1,-1,-1,-1,-1,-1,-1,-1,-1,-1,-1,-1,-1,-1],"loss_changes":[9.813273E4,0E0,5.548754E3,5.584453E3,2.4171875E1,6.019258E3,7.237793E2,2.9442749E1,4.5715332E-1,4.8583867E3,8.315149E1,1.9116547E2,1.0838717E3,3.786255E1,2.4969788E0,0E0,6.5011673E0,1.6952578E3,1.2203009E2,2.6118164E1,2.403994E2,2.1564972E2,3.1067627E1,1.660176E3,3.755996E2,2.1172974E1,4.5893875E1,1.1591461E1,0E0,1.7732811E0,8.910633E0,0E0,0E0,0E0,0E0,0E0,0E0,0E0,0E0,0E0,0E0,0E0,0E0,0E0,0E0,0E0,0E0,0E0,0E0,0E0,0E0,0E0,0E0,0E0,0E0,0E0,0E0],"parents":[2147483647,0,0,2,2,3,3,4,4,5,5,6,6,7,7,8,8,9,9,10,10,11,11,12,12,13,13,14,14,16,16,17,17,18,18,19,19,20,20,21,21,22,22,23,23,24,24,25,25,26,26,27,27,29,29,30,30],"right_children":[2,-1,4,6,8,10,12,14,16,18,20,22,24,26,28,-1,30,32,34,36,38,40,42,44,46,48,50,52,-1,54,56,-1,-1,-1,-1,-1,-1,-1,-1,-1,-1,-1,-1,-1,-1,-1,-1,-1,-1,-1,-1,-1,-1,-1,-1,-1,-1],"split_conditions":[0E0,-4.0344504E-1,4.1587577E0,1E0,1E0,4.151585E0,-5.303093E-1,1E0,6.2381363E0,1E0,5.014774E0,2.0793788E0,1E0,2.0642126E-2,-1.3203324E-1,-3.6611146E-1,1.1245497E0,-6.218914E-1,1E0,-1.5384616E-1,6.227378E0,1.7152622E-2,2.191566E0,-6.3726187E-1,8.4615386E-1,-5E-1,5.2126084E-2,-2.0195292E-1,-3.8255E-1,5.3846157E-1,1.2314987E0,4.396344E-2,4.0344575E-1,-1.0108385E-1,-3.0196488E-1,-2.4708344E-1,-3.3987603E-1,3.979466E-1,-3.309591E-1,-2.0590627E-1,6.1384857E-1,-5.46113E-1,4.371481E-1,-2.344293E-1,3.5188568E-1,-8.509338E-2,-5.182655E-1,-1.8873934E-1,-3.4762168E-1,2.0966788E-1,-2.0066328E-1,-3.433772E-1,-4.1952163E-2,-3.9102912E-1,-1.8931016E-1,4.9359146E-1,-2.8017414E-1],"split_indices":[20,0,18,15,4,19,12,10,18,5,19,18,11,1,1,0,1,23,10,6,19,18,18,13,6,17,1,23,0,6,1,0,0,0,0,0,0,0,0,0,0,0,0,0,0,0,0,0,0,0,0,0,0,0,0,0,0],"split_type":[0,0,0,0,0,0,0,0,0,0,0,0,0,0,0,0,0,0,0,0,0,0,0,0,0,0,0,0,0,0,0,0,0,0,0,0,0,0,0,0,0,0,0,0,0,0,0,0,0,0,0,0,0,0,0,0,0],"sum_hessian":[7.591189E4,3.1626854E4,4.428504E4,4.2834E4,1.4510399E3,3.831812E4,4.515881E3,1.1144495E3,3.365905E2,3.6957066E4,1.3610542E3,9.7685724E2,3.5390237E3,8.3951605E2,2.749334E2,3.0500665E2,3.1583858E1,3.536939E4,1.5876736E3,1.1815712E3,1.79483E2,8.123267E2,1.6453049E2,2.1583992E3,1.3806245E3,3.981904E2,4.4132562E2,1.206624E2,1.5427101E2,2.8126633E1,3.4572258E0,1.2232123E3,3.414618E4,1.2391244E3,3.485491E2,4.7047562E2,7.110956E2,6.0737476E1,1.1874552E2,7.832912E2,2.903555E1,1.6228624E2,2.2442544E0,6.021235E2,1.5562758E3,1.1684917E3,2.1213283E2,1.0768641E2,2.90504E2,2.5273996E1,4.1605164E2,1.07485344E2,1.3177056E1,1.932275E1,8.803884E0,1.4296416E0,2.0275843E0],"tree_param":{"num_deleted":"0","num_feature":"24","num_nodes":"57","size_leaf_vector":"1"}},{"base_weights":[1.1395382E-3,-3.6909673E-1,8.457513E-1,9.6557313E-1,-3.0491104E-2,1.0335205E0,-7.865049E-1,1.1863262E-1,-1.0128881E0,1.1039186E0,-7.621212E-1,-7.081396E-1,-1.0777917E0,2.2662841E-1,-1.3107861E0,-6.818564E-1,-1.4735016E0,1.1820849E0,-3.5874167E-1,-4.6575958E-1,-9.13391E-1,-8.443364E-1,5.5682886E-1,-6.4836484E-1,-3.2721114E-1,3.8422027E-1,-7.513338E-1,-1.0575192E0,-5.758295E-1,-3.5718846E-1,-1.5083638E0,-1.5900342E0,-9.4790435E-1,8.01813E-3,3.681496E-1,-6.366564E-2,-2.7068734E-1,7.1472514E-1,-1.8196961E-1,-2.547554E-1,-3.4626138E-1,-3.365742E-1,-2.3265074E-1,8.404644E-2,-2.941236E-1,1.5258509E-1,-2.5080582E-1,-2.4143852E-1,7.568937E-1,5.6816536E-1,-3.818428E-1,-1.4925116E-1,4.6523347E-1,-7.397575E-2,-4.9095964E-1,-5.1394427E-1,-3.7042055E-1,-1.3006821E-2,-4.58288E-1],"categories":[],"categories_nodes":[],"categories_segments":[],"categories_sizes":[],"default_left":[0,0,0,0,0,0,0,0,0,0,0,0,0,0,0,0,0,0,0,0,0,0,0,0,0,0,0,0,0,0,0,0,0,0,0,0,0,0,0,0,0,0,0,0,0,0,0,0,0,0,0,0,0,0,0,0,0,0,0],"id":3,"left_children":[1,-1,3,5,7,9,11,13,15,17,19,21,23,25,27,29,31,33,35,37,39,41,-1,43,-1,45,47,49,-1,51,53,55,57,-1,-1,-1,-1,-1,-1,-1,-1,-1,-1,-1,-1,-1,-1,-1,-1,-1,-1,-1,-1,-1,-1,-1,-1,-1,-1],"loss_changes":[6.4536348E4,0E0,3.8642754E3,3.8553066E3,6.4887726E2,3.940914E3,2.6841675E1,5.9396045E2,8.800079E1,3.4296172E3,5.231659E1,3.3539285E2,7.0373535E-1,5.514794E2,3.963498E1,9.109941E1,1.3390381E1,1.4829102E3,1.21051895E2,1.617048E2,1.1046936E1,1.6485413E1,0E0,3.3249454E0,0E0,4.6806055E2,8.8971924E1,1.2510312E2,0E0,6.676279E1,1.5122116E1,6.5286255E0,2.4379066E1,0E0,0E0,0E0,0E0,0E0,0E0,0E0,0E0,0E0,0E0,0E0,0E0,0E0,0E0,0E0,0E0,0E0,0E0,0E0,0E0,0E0,0E0,0E0,0E0,0E0,0E0],"parents":[2147483647,0,0,2,2,3,3,4,4,5,5,6,6,7,7,8,8,9,9,10,10,11,11,12,12,13,13,14,14,15,15,16,16,17,17,18,18,19,19,20,20,21,21,23,23,25,25,26,26,27,27,29,29,30,30,31,31,32,32],"right_children":[2,-1,4,6,8,10,12,14,16,18,20,22,24,26,28,30,32,34,36,38,40,42,-1,44,-1,46,48,50,-1,52,54,56,58,-1,-1,-1,-1,-1,-1,-1,-1,-1,-1,-1,-1,-1,-1,-1,-1,-1,-1,-1,-1,-1,-1,-1,-1,-1,-1],"split_conditions":[0E0,-3.6909673E-1,1E0,4.1587577E0,8E-1,4.151585E0,2.0682373E0,6.4847124E-1,1E0,1E0,-3.0769232E-1,1.5605128E-2,-9.3333334E-1,1E0,-3.0769232E-1,5E-1,1E0,-6.235129E-1,1E0,1E0,1.985559E0,-6.3726187E-1,5.5682886E-1,-4E-1,-3.2721114E-1,1E0,5.801777E-1,1E0,-5.758295E-1,3.6039189E-1,-8.666667E-1,1.5605128E-2,-3.0769232E-1,8.01813E-3,3.681496E-1,-6.366564E-2,-2.7068734E-1,7.1472514E-1,-1.8196961E-1,-2.547554E-1,-3.4626138E-1,-3.365742E-1,-2.3265074E-1,8.404644E-2,-2.941236E-1,1.5258509E-1,-2.5080582E-1,-2.4143852E-1,7.568937E-1,5.6816536E-1,-3.818428E-1,-1.4925116E-1,4.6523347E-1,-7.397575E-2,-4.9095964E-1,-5.1394427E-1,-3.7042055E-1,-1.3006821E-2,-4.58288E-1],"split_indices":[20,0,15,18,3,19,19,12,3,5,6,19,9,4,6,17,0,1,4,11,18,13,0,3,0,0,12,11,0,13,9,19,6,0,0,0,0,0,0,0,0,0,0,0,0,0,0,0,0,0,0,0,0,0,0,0,0,0,0],"split_type":[0,0,0,0,0,0,0,0,0,0,0,0,0,0,0,0,0,0,0,0,0,0,0,0,0,0,0,0,0,0,0,0,0,0,0,0,0,0,0,0,0,0,0,0,0,0,0,0,0,0,0,0,0,0,0,0,0,0,0],"sum_hessian":[6.204579E4,2.5241982E4,3.6803805E4,3.2376389E4,4.4274155E3,3.116807E4,1.2083184E3,3.8446875E3,5.8272815E2,2.9992598E4,1.1754735E3,9.548616E2,2.5345673E2,3.5753994E3,2.69288E2,3.4049966E2,2.4222849E2,2.847125E4,1.5213469E3,3.9861066E2,7.7686285E2,9.073399E2,4.7521706E1,8.893473E0,2.4456325E2,3.0797295E3,4.9567E2,1.920927E2,7.719528E1,2.4549623E2,9.500344E1,1.9661156E2,4.561693E1,1.0692484E3,2.7402002E4,1.1994149E3,3.21932E2,1.8027897E1,3.8058276E2,6.169076E2,1.5995528E2,1.7725357E2,7.300863E2,2.3838043E0,6.509669E0,2.795343E3,2.8438647E2,4.8844907E2,7.220922E0,1.2529488E1,1.7956322E2,2.2936739E2,1.6128857E1,9.029967E0,8.597347E1,1.4317789E2,5.3433674E1,1.8236721E1,2.7380209E1],"tree_param":{"num_deleted":"0","num_feature":"24","num_nodes":"59","size_leaf_vector":"1"}},{"base_weights":[1.3633277E-3,-3.47763E-1,7.5495416E-1,8.836511E-1,-2.5744213E-2,9.4807744E-1,-6.6022617E-1,1.0963029E-1,-9.380426E-1,1.0160905E0,-6.234541E-1,-8.114399E-1,-5.041499E-1,1.9629584E-1,-1.4323232E0,-6.084795E-1,-1.3985575E0,1.0998234E0,-2.6348078E-1,-7.12614E-1,-4.8991896E-2,-4.7769386E-1,-9.2316335E-1,-3.9789227E-1,-1.0668266E0,3.7591583E-1,-5.3630686E-1,-1.663614E0,-8.199424E-1,-4.249239E-1,-1.4574983E0,-1.6194814E0,-1.0286636E0,1.5819736E-2,3.4780946E-1,-3.3160585E-1,-4.9878594E-2,-1.6430768E-1,-2.5715935E-1,3.756151E-1,-2.4589752E-1,-1.9589318E-1,8.1710213E-1,-2.8860587E-1,-6.449579E-2,-7.716808E-2,-2.7124688E-1,-1.600127E-1,-3.2558206E-1,1.5760282E-1,-1.7110154E-1,-9.446125E-2,-3.9667943E-1,-5.265308E-1,-4.0709025E-1,4.289177E-1,-4.1612282E-1,-2.3126699E-1,5.1145434E-1,-4.730675E-1,-3.5325474E-1,-5.6808376E-1,-4.6134248E-1,-4.2551875E-1,-1.924014E-1],"categories":[],"categories_nodes":[],"categories_segments":[],"categories_sizes":[],"default_left":[0,0,0,0,0,0,0,0,0,0,0,0,0,0,0,0,0,0,0,0,0,0,0,0,0,0,0,0,0,0,0,0,0,0,0,0,0,0,0,0,0,0,0,0,0,0,0,0,0,0,0,0,0,0,0,0,0,0,0,0,0,0,0,0,0],"id":4,"left_children":[1,-1,3,5,7,9,11,13,15,17,19,21,23,25,27,29,31,33,35,37,39,41,43,45,47,49,51,53,55,57,59,61,63,-1,-1,-1,-1,-1,-1,-1,-1,-1,-1,-1,-1,-1,-1,-1,-1,-1,-1,-1,-1,-1,-1,-1,-1,-1,-1,-1,-1,-1,-1,-1,-1],"loss_changes":[4.3672133E4,0E0,3.0418945E3,2.5858418E3,5.2937274E2,2.667418E3,2.4177032E1,4.9909283E2,8.3207E1,2.5626504E3,5.3008667E1,1.9227142E1,3.038295E1,4.65361E2,2.6786621E1,4.996663E1,1.7150421E1,1.3993906E3,1.2010296E2,2.0905396E1,1.4161375E2,7.717575E1,1.063797E1,3.0746681E1,2.2072601E-1,4.01788E2,1.20793274E2,1.6383972E0,7.401712E1,1.990105E2,5.8288574E-2,2.765808E-1,1.2501213E1,0E0,0E0,0E0,0E0,0E0,0E0,0E0,0E0,0E0,0E0,0E0,0E0,0E0,0E0,0E0,0E0,0E0,0E0,0E0,0E0,0E0,0E0,0E0,0E0,0E0,0E0,0E0,0E0,0E0,0E0,0E0,0E0],"parents":[2147483647,0,0,2,2,3,3,4,4,5,5,6,6,7,7,8,8,9,9,10,10,11,11,12,12,13,13,14,14,15,15,16,16,17,17,18,18,19,19,20,20,21,21,22,22,23,23,24,24,25,25,26,26,27,27,28,28,29,29,30,30,31,31,32,32],"right_children":[2,-1,4,6,8,10,12,14,16,18,20,22,24,26,28,30,32,34,36,38,40,42,44,46,48,50,52,54,56,58,60,62,64,-1,-1,-1,-1,-1,-1,-1,-1,-1,-1,-1,-1,-1,-1,-1,-1,-1,-1,-1,-1,-1,-1,-1,-1,-1,-1,-1,-1,-1,-1,-1,-1],"split_conditions":[0E0,-3.47763E-1,1E0,4.1587577E0,1E0,4.151585E0,2.0642126E-2,1E0,1.25E0,1E0,5.014774E0,-5E-1,6.923077E-1,1E0,1.5605128E-2,2.0757926E0,1E0,-6.218914E-1,-7.1039325E-1,-7.692308E-2,6.227378E0,-3.5647422E-1,9.3333334E-1,1E0,5.2126084E-2,2.0793788E0,6E-1,1E0,2.018598E0,1.5605128E-2,2.6666668E-1,-7.692308E-2,5E-1,1.5819736E-2,3.4780946E-1,-3.3160585E-1,-4.9878594E-2,-1.6430768E-1,-2.5715935E-1,3.756151E-1,-2.4589752E-1,-1.9589318E-1,8.1710213E-1,-2.8860587E-1,-6.449579E-2,-7.716808E-2,-2.7124688E-1,-1.600127E-1,-3.2558206E-1,1.5760282E-1,-1.7110154E-1,-9.446125E-2,-3.9667943E-1,-5.265308E-1,-4.0709025E-1,4.289177E-1,-4.1612282E-1,-2.3126699E-1,5.1145434E-1,-4.730675E-1,-3.5325474E-1,-5.6808376E-1,-4.6134248E-1,-4.2551875E-1,-1.924014E-1],"split_indices":[20,0,15,18,2,19,1,16,2,5,19,17,6,10,19,19,11,23,13,6,19,13,9,10,1,18,3,4,19,19,9,6,4,0,0,0,0,0,0,0,0,0,0,0,0,0,0,0,0,0,0,0,0,0,0,0,0,0,0,0,0,0,0,0,0],"split_type":[0,0,0,0,0,0,0,0,0,0,0,0,0,0,0,0,0,0,0,0,0,0,0,0,0,0,0,0,0,0,0,0,0,0,0,0,0,0,0,0,0,0,0,0,0,0,0,0,0,0,0,0,0,0,0,0,0,0,0,0,0,0,0,0,0],"sum_hessian":[4.9931984E4,1.9657604E4,3.027438E4,2.5989861E4,4.284519E3,2.4949115E4,1.0407471E3,3.7316633E3,5.528557E2,2.3914492E4,1.0346223E3,5.264753E2,5.1427185E2,3.5339124E3,1.9775098E2,3.235975E2,2.292582E2,2.2445816E4,1.468675E3,8.9540906E2,1.392132E2,1.3336284E2,3.9311243E2,4.3401767E2,8.025415E1,2.8384631E3,6.954492E2,1.4229192E2,5.5459064E1,2.6730695E2,5.6290554E1,1.4141687E2,8.7841324E1,1.2077787E3,2.123804E4,1.5097021E2,1.3177048E3,4.205222E2,4.748869E2,5.1554333E1,8.765887E1,1.27194626E2,6.168213E0,3.7232532E2,2.0787123E1,3.4082703E2,9.3190636E1,3.6823254E0,7.657182E1,2.451743E3,3.8672003E2,5.4367474E2,1.517745E2,1.05956184E2,3.6335728E1,1.0859871E1,4.4599194E1,2.3050166E2,3.6805286E1,3.6215168E1,2.0075386E1,2.7369078E1,1.1404779E2,4.2457764E1,4.538356E1],"tree_param":{"num_deleted":"0","num_feature":"24","num_nodes":"65","size_leaf_vector":"1"}},{"base_weights":[1.6104815E-3,-3.3372378E-1,6.7623496E-1,8.16309E-1,-2.2364048E-2,8.793072E-1,-5.409629E-1,-2.5605133E-1,4.5090786E-1,9.455869E-1,-5.171386E-1,-4.524359E-1,-8.673247E-1,-5.8118287E-2,-7.783449E-1,1.669572E0,-7.0389825E-1,1.0384187E0,-1.9276763E-1,3.8319483E-2,-5.897142E-1,-6.3972E-1,-1.375565E-1,-7.460702E-1,-9.847279E-1,-5.1554674E-1,5.122939E-1,-1.1948997E0,-4.722919E-1,1.6232727E0,2.1263497E0,-1.0418317E0,5.211583E-1,1.1104364E-2,3.3375573E-1,-1.32749695E-2,-2.2958729E-1,7.531763E-1,-1.0727762E-1,-1.5065624E-1,-2.845757E-1,1.6397594E-2,-2.0746018E-1,-8.422506E-2,2.365187E-1,-2.8842527E-1,-1.6184914E-1,-3.0036384E-1,-9.290451E-2,-8.35332E-2,-3.89424E-1,-1.5403102E-1,3.009601E-1,3.534067E-1,-3.7027967E-1,5.0817037E-1,-2.052622E-1,5.8865505E-1,4.7371504E-1,5.459593E-1,7.355716E-1,-2.13941E-1,-3.689968E-1,4.7830874E-1,-7.434312E-2],"categories":[],"categories_nodes":[],"categories_segments":[],"categories_sizes":[],"default_left":[0,0,0,0,0,0,0,0,0,0,0,0,0,0,0,0,0,0,0,0,0,0,0,0,0,0,0,0,0,0,0,0,0,0,0,0,0,0,0,0,0,0,0,0,0,0,0,0,0,0,0,0,0,0,0,0,0,0,0,0,0,0,0,0,0],"id":5,"left_children":[1,-1,3,5,7,9,11,13,15,17,19,21,23,25,27,29,31,33,35,37,39,41,43,45,47,49,51,53,55,57,59,61,63,-1,-1,-1,-1,-1,-1,-1,-1,-1,-1,-1,-1,-1,-1,-1,-1,-1,-1,-1,-1,-1,-1,-1,-1,-1,-1,-1,-1,-1,-1,-1,-1],"loss_changes":[3.0041791E4,0E0,2.4362842E3,1.7737246E3,4.601087E2,1.8348457E3,2.6202515E1,2.8786328E2,1.9364996E3,1.9997051E3,3.6251144E1,4.273622E1,2.0458527E0,5.275076E2,9.700049E1,1.0705078E1,2.9314722E2,1.2981406E3,1.21346725E2,1.0346757E2,2.4492035E1,1.6410645E1,3.63E1,3.9391975E0,7.5946045E-1,2.077973E2,4.5359082E2,3.1670593E1,2.0443158E2,6.0740967E0,1.3627625E0,3.340509E1,1.2705804E2,0E0,0E0,0E0,0E0,0E0,0E0,0E0,0E0,0E0,0E0,0E0,0E0,0E0,0E0,0E0,0E0,0E0,0E0,0E0,0E0,0E0,0E0,0E0,0E0,0E0,0E0,0E0,0E0,0E0,0E0,0E0,0E0],"parents":[2147483647,0,0,2,2,3,3,4,4,5,5,6,6,7,7,8,8,9,9,10,10,11,11,12,12,13,13,14,14,15,15,16,16,17,17,18,18,19,19,20,20,21,21,22,22,23,23,24,24,25,25,26,26,27,27,28,28,29,29,30,30,31,31,32,32],"right_children":[2,-1,4,6,8,10,12,14,16,18,20,22,24,26,28,30,32,34,36,38,40,42,44,46,48,50,52,54,56,58,60,62,64,-1,-1,-1,-1,-1,-1,-1,-1,-1,-1,-1,-1,-1,-1,-1,-1,-1,-1,-1,-1,-1,-1,-1,-1,-1,-1,-1,-1,-1,-1,-1,-1],"split_conditions":[0E0,-3.3372378E-1,1E0,4.1587577E0,1.5605128E-2,4.151585E0,1E0,5E-1,2.0757926E0,1E0,-6.923077E-1,5E-1,3.3333334E-1,-1.820624E-1,-3.1713724E-2,1E0,2.1314118E0,-6.218914E-1,2.0793788E0,7.0212287E-1,2.0793788E0,-5.786855E-1,1.2127165E0,-6.7348517E-3,2.1314118E0,4.654585E-1,-6.4083815E-1,5.105802E-1,1.4847122E-1,-5.303093E-1,1E0,0E0,4.151585E0,1.1104364E-2,3.3375573E-1,-1.32749695E-2,-2.2958729E-1,7.531763E-1,-1.0727762E-1,-1.5065624E-1,-2.845757E-1,1.6397594E-2,-2.0746018E-1,-8.422506E-2,2.365187E-1,-2.8842527E-1,-1.6184914E-1,-3.0036384E-1,-9.290451E-2,-8.35332E-2,-3.89424E-1,-1.5403102E-1,3.009601E-1,3.534067E-1,-3.7027967E-1,5.0817037E-1,-2.052622E-1,5.8865505E-1,4.7371504E-1,5.459593E-1,7.355716E-1,-2.13941E-1,-3.689968E-1,4.7830874E-1,-7.434312E-2],"split_indices":[20,0,15,18,19,19,4,17,19,5,6,4,0,13,12,4,19,23,18,13,18,1,23,23,19,12,12,13,12,12,11,0,19,0,0,0,0,0,0,0,0,0,0,0,0,0,0,0,0,0,0,0,0,0,0,0,0,0,0,0,0,0,0,0,0],"split_type":[0,0,0,0,0,0,0,0,0,0,0,0,0,0,0,0,0,0,0,0,0,0,0,0,0,0,0,0,0,0,0,0,0,0,0,0,0,0,0,0,0,0,0,0,0,0,0,0,0,0,0,0,0,0,0,0,0,0,0,0,0,0,0,0,0],"sum_hessian":[3.9971258E4,1.5075722E4,2.4895537E4,2.0737377E4,4.1581597E3,1.9817877E4,9.195014E2,2.7839758E3,1.3741837E3,1.8920188E4,8.976884E2,7.251798E2,1.943216E2,2.019688E3,7.642878E2,6.6838885E2,7.0579486E2,1.7493682E4,1.4265052E3,1.0379145E2,7.93897E2,4.5407388E2,2.711059E2,9.921092E1,9.511067E1,1.1209028E3,8.9878516E2,3.224761E2,4.4181168E2,6.110102E2,5.7378643E1,5.533125E2,1.5248239E2,1.2053877E3,1.6288295E4,1.1335337E3,2.9297165E2,1.3589651E1,9.02018E1,6.401639E2,1.5373311E2,3.1526037E1,4.2254785E2,2.353994E2,3.5706497E1,4.67848E1,5.242612E1,9.237176E1,2.7389176E0,8.6129236E2,2.5961047E2,2.9090472E2,6.0788043E2,4.790429E0,3.1768567E2,3.8747066E1,4.030646E2,6.5519035E1,5.4549115E2,3.2949368E1,2.4429276E1,2.0317441E2,3.501381E2,6.320188E1,8.928051E1],"tree_param":{"num_deleted":"0","num_feature":"24","num_nodes":"65","size_leaf_vector":"1"}},{"base_weights":[2.8501502E-3,-3.2414225E-1,6.0725707E-1,7.5319093E-1,-1.1865896E-2,8.396455E-1,-1.5553384E-1,7.115882E-2,-1.0381626E0,9.1064566E-1,-4.2629832E-1,-3.6784887E-1,3.6386004E-1,-9.858264E-1,1.6978008E-1,-8.7005126E-1,-1.3970635E0,9.870191E-1,-4.0923733E-1,-3.353228E-1,-8.1056297E-1,-1.1008586E0,-2.7911866E-1,8.089899E-1,-6.0752404E-1,2.1331838E-1,-1.2250549E0,4.2183116E-1,-3.5940462E-1,-1.0950012E0,4.8799795E-1,-4.3287915E-1,-7.8881145E-1,7.7896058E-3,3.2416528E-1,-1.4581656E-1,2.6501358E-2,-1.4413169E-1,4.931002E-1,-9.469755E-2,-2.487465E-1,-3.400179E-1,-1.8265471E-1,-2.5805816E-1,-4.0551603E-2,2.2305359E-1,-2.0923086E-1,-4.296714E-1,2.65192E-1,4.5590332E-1,-3.7600058E-1,-8.289003E-2,3.8559908E-1,-3.734373E-2,-2.8011695E-1,-2.0172714E-1,-3.5975248E-1,-3.0340967E-1,-5.9103902E-2],"categories":[],"categories_nodes":[],"categories_segments":[],"categories_sizes":[],"default_left":[0,0,0,0,0,0,0,0,0,0,0,0,0,0,0,0,0,0,0,0,0,0,0,0,0,0,0,0,0,0,0,0,0,0,0,0,0,0,0,0,0,0,0,0,0,0,0,0,0,0,0,0,0,0,0,0,0,0,0],"id":6,"left_children":[1,-1,3,5,7,9,11,13,15,17,19,21,23,25,27,29,31,33,35,37,39,41,43,-1,45,47,49,51,53,55,-1,-1,57,-1,-1,-1,-1,-1,-1,-1,-1,-1,-1,-1,-1,-1,-1,-1,-1,-1,-1,-1,-1,-1,-1,-1,-1,-1,-1],"loss_changes":[2.092802E4,0E0,1.8536616E3,1.3044951E3,3.3361337E2,1.3630508E3,1.592803E2,3.7776926E2,1.646457E1,1.4475205E3,2.789795E1,6.635347E1,9.516879E2,8.898636E1,4.421913E2,1.1534793E2,1.423523E0,1.2198359E3,3.008397E1,1.8839275E2,1.1511307E0,1.0759888E0,7.646696E1,0E0,3.65744E1,5.8975452E1,2.1930756E1,1.3539182E3,1.442196E2,7.3857117E0,0E0,0E0,9.392948E-1,0E0,0E0,0E0,0E0,0E0,0E0,0E0,0E0,0E0,0E0,0E0,0E0,0E0,0E0,0E0,0E0,0E0,0E0,0E0,0E0,0E0,0E0,0E0,0E0,0E0,0E0],"parents":[2147483647,0,0,2,2,3,3,4,4,5,5,6,6,7,7,8,8,9,9,10,10,11,11,12,12,13,13,14,14,15,15,16,16,17,17,18,18,19,19,20,20,21,21,22,22,24,24,25,25,26,26,27,27,28,28,29,29,32,32],"right_children":[2,-1,4,6,8,10,12,14,16,18,20,22,24,26,28,30,32,34,36,38,40,42,44,-1,46,48,50,52,54,56,-1,-1,58,-1,-1,-1,-1,-1,-1,-1,-1,-1,-1,-1,-1,-1,-1,-1,-1,-1,-1,-1,-1,-1,-1,-1,-1,-1,-1],"split_conditions":[0E0,-3.2414225E-1,1E0,1E0,6.4847124E-1,4.1587577E0,1.7152622E-2,-7.1600604E-1,6.725653E-1,4.151585E0,2.0682373E0,-7.1600604E-1,2.0793788E0,2.1946156E0,5E-1,6.531878E-1,1.25E0,-6.218914E-1,5.014774E0,1.5605128E-2,-9.3333334E-1,8.666667E-1,-6.3726187E-1,8.089899E-1,-5.9922814E-1,-6.666667E-2,-5E-1,-3.5647422E-1,7.0212287E-1,-5E-1,4.8799795E-1,-4.3287915E-1,6.666667E-1,7.7896058E-3,3.2416528E-1,-1.4581656E-1,2.6501358E-2,-1.4413169E-1,4.931002E-1,-9.469755E-2,-2.487465E-1,-3.400179E-1,-1.8265471E-1,-2.5805816E-1,-4.0551603E-2,2.2305359E-1,-2.0923086E-1,-4.296714E-1,2.65192E-1,4.5590332E-1,-3.7600058E-1,-8.289003E-2,3.8559908E-1,-3.734373E-2,-2.8011695E-1,-2.0172714E-1,-3.5975248E-1,-3.0340967E-1,-5.9103902E-2],"split_indices":[20,0,15,5,12,18,18,12,12,19,19,12,18,23,17,12,2,23,19,19,9,9,13,0,23,9,17,13,13,2,0,0,8,0,0,0,0,0,0,0,0,0,0,0,0,0,0,0,0,0,0,0,0,0,0,0,0,0,0],"split_type":[0,0,0,0,0,0,0,0,0,0,0,0,0,0,0,0,0,0,0,0,0,0,0,0,0,0,0,0,0,0,0,0,0,0,0,0,0,0,0,0,0,0,0,0,0,0,0,0,0,0,0,0,0,0,0,0,0,0,0],"sum_hessian":[3.1960459E4,1.1445334E4,2.0515125E4,1.6601709E4,3.9134158E3,1.5159533E4,1.4421764E3,3.6213857E3,2.9202994E2,1.4354732E4,8.048012E2,1.0239169E3,4.182595E2,3.08287E2,3.3130989E3,2.012074E2,9.082255E1,1.3569784E4,7.8494775E2,6.522517E2,1.5254945E2,1.0932931E2,9.145876E2,1.2244133E2,2.9581818E2,5.1291927E1,2.5699506E2,2.244327E3,1.0687719E3,1.8509229E2,1.6115112E1,8.317802E1,7.6445312E0,1.2036245E3,1.236616E4,6.7999084E2,1.0495686E2,6.0839624E2,4.3855484E1,6.1742353E0,1.4637521E2,1.0132551E2,8.003801E0,1.8059534E2,7.3399225E2,1.8004843E1,2.7781332E2,1.4522682E1,3.6769245E1,2.083119E0,2.5491193E2,1.2413702E3,1.0029568E3,7.593682E2,3.0940356E2,3.807936E1,1.4701291E2,5.040144E0,2.6043873E0],"tree_param":{"num_deleted":"0","num_feature":"24","num_nodes":"59","size_leaf_vector":"1"}},{"base_weights":[3.294331E-3,-3.174421E-1,5.418327E-1,6.930586E-1,-6.851634E-3,7.8698224E-1,-1.24300204E-1,1.4310685E-1,-4.9607477E-1,8.603464E-1,-3.3213112E-1,4.0075943E-2,-5.060067E-1,-5.0602895E-1,4.073332E-1,-1.2791494E0,-2.357555E-1,9.394168E-1,-3.3196774E-1,-6.6709004E-2,-4.9488693E-1,-1.06933646E-1,2.8057816E0,-5.660496E-1,8.0901843E-1,-2.8886622E-1,-1.2197262E0,-4.325265E-1,7.0143545E-1,-1.3469765E0,5.537993E-1,4.468955E-1,-6.545635E-1,5.4616565E-3,3.1745958E-1,-2.1685684E-1,-7.130757E-2,7.020946E-1,-6.212377E-2,-1.2073652E-1,-2.615149E-1,7.204186E-1,-4.9187526E-2,9.3079454E-1,6.132179E-1,-1.2862112E-1,-3.0789694E-1,-2.4472389E-1,3.63097E-1,-1.353922E-1,4.9164742E-1,-4.9471608E-1,-2.4833871E-1,-4.909269E-2,-3.1699723E-1,4.2367968E-1,-7.81616E-2,-4.4679582E-1,-2.705917E-1,-1.8635136E-1,3.4021455E-1,-3.6574632E-1,-9.7229734E-2],"categories":[],"categories_nodes":[],"categories_segments":[],"categories_sizes":[],"default_left":[0,0,0,0,0,0,0,0,0,0,0,0,0,0,0,0,0,0,0,0,0,0,0,0,0,0,0,0,0,0,0,0,0,0,0,0,0,0,0,0,0,0,0,0,0,0,0,0,0,0,0,0,0,0,0,0,0,0,0,0,0,0,0],"id":7,"left_children":[1,-1,3,5,7,9,11,13,15,17,19,21,23,25,27,29,31,33,35,37,39,41,43,45,47,49,51,53,55,57,59,-1,61,-1,-1,-1,-1,-1,-1,-1,-1,-1,-1,-1,-1,-1,-1,-1,-1,-1,-1,-1,-1,-1,-1,-1,-1,-1,-1,-1,-1,-1,-1],"loss_changes":[1.4656454E4,0E0,1.4113989E3,1.02378613E3,2.6976947E2,9.822661E2,8.630686E1,4.829476E2,1.7555943E2,1.0585508E3,3.1785301E1,3.9151556E2,3.3148888E1,1.25909775E2,4.9452402E2,2.747696E1,4.6972687E2,1.151876E3,2.5581284E1,9.547084E1,1.5546898E1,1.312149E2,4.648041E0,2.4621826E1,1.3043567E1,1.9673552E2,3.0562286E1,8.701854E1,1.0139643E3,1.1808655E1,6.4184647E0,0E0,9.7125336E1,0E0,0E0,0E0,0E0,0E0,0E0,0E0,0E0,0E0,0E0,0E0,0E0,0E0,0E0,0E0,0E0,0E0,0E0,0E0,0E0,0E0,0E0,0E0,0E0,0E0,0E0,0E0,0E0,0E0,0E0],"parents":[2147483647,0,0,2,2,3,3,4,4,5,5,6,6,7,7,8,8,9,9,10,10,11,11,12,12,13,13,14,14,15,15,16,16,17,17,18,18,19,19,20,20,21,21,22,22,23,23,24,24,25,25,26,26,27,27,28,28,29,29,30,30,32,32],"right_children":[2,-1,4,6,8,10,12,14,16,18,20,22,24,26,28,30,32,34,36,38,40,42,44,46,48,50,52,54,56,58,60,-1,62,-1,-1,-1,-1,-1,-1,-1,-1,-1,-1,-1,-1,-1,-1,-1,-1,-1,-1,-1,-1,-1,-1,-1,-1,-1,-1,-1,-1,-1,-1],"split_conditions":[0E0,-3.174421E-1,1E0,1E0,4.654585E-1,4.151585E0,5E-1,-5.303093E-1,4.6782047E-1,4.1587577E0,-3.0769232E-1,3.6039189E-1,1.7242825E0,6.923077E-1,-6.3726187E-1,2.191566E0,5.77831E-1,-6.218914E-1,-4E-1,1E0,1.985559E0,-4.6153846E-1,1.7152622E-2,5.3333336E-1,0E0,1.8829148E-1,-6.4083815E-1,-6.418953E-1,6.2883055E-1,1.7152622E-2,1.5605128E-2,4.468955E-1,5.801777E-1,5.4616565E-3,3.1745958E-1,-2.1685684E-1,-7.130757E-2,7.020946E-1,-6.212377E-2,-1.2073652E-1,-2.615149E-1,7.204186E-1,-4.9187526E-2,9.3079454E-1,6.132179E-1,-1.2862112E-1,-3.0789694E-1,-2.4472389E-1,3.63097E-1,-1.353922E-1,4.9164742E-1,-4.9471608E-1,-2.4833871E-1,-4.909269E-2,-3.1699723E-1,4.2367968E-1,-7.81616E-2,-4.4679582E-1,-2.705917E-1,-1.8635136E-1,3.4021455E-1,-3.6574632E-1,-9.7229734E-2],"split_indices":[20,0,15,5,12,19,17,12,12,18,6,13,23,6,13,18,12,23,3,11,18,6,18,9,3,13,12,13,13,18,19,0,12,0,0,0,0,0,0,0,0,0,0,0,0,0,0,0,0,0,0,0,0,0,0,0,0,0,0,0,0,0,0],"split_type":[0,0,0,0,0,0,0,0,0,0,0,0,0,0,0,0,0,0,0,0,0,0,0,0,0,0,0,0,0,0,0,0,0,0,0,0,0,0,0,0,0,0,0,0,0,0,0,0,0,0,0,0,0,0,0,0,0,0,0,0,0,0,0],"sum_hessian":[2.5638057E4,8.629244E3,1.7008812E4,1.3333602E4,3.6752114E3,1.1959373E4,1.3742285E3,2.813511E3,8.617004E2,1.122382E4,7.355524E2,9.6119806E2,4.1303043E2,8.136553E2,1.9998557E3,2.1401157E2,6.476888E2,1.0525983E4,6.9783765E2,2.801286E2,4.5542383E2,9.1359766E2,4.7600452E1,3.9554E2,1.7490442E1,6.249126E2,1.8874269E2,5.1855676E2,1.481299E3,2.0663046E2,7.3810964E0,1.26007126E2,5.2168164E2,1.2023462E3,9.323637E3,1.3430635E2,5.6353125E2,1.4572447E1,2.6555615E2,3.6737817E2,8.804564E1,1.9394333E1,8.942033E2,3.2040195E1,1.5560254E1,3.06141E2,8.939901E1,3.2597885E0,1.4230654E1,5.7705194E2,4.786066E1,8.854331E1,1.0019938E2,3.63303E2,1.5525377E2,8.515766E2,6.2972235E2,1.5477582E2,5.185465E1,2.416765E0,4.9643316E0,1.9161781E2,3.3006384E2],"tree_param":{"num_deleted":"0","num_feature":"24","num_nodes":"63","size_leaf_vector":"1"}},{"base_weights":[4.887724E-3,-3.126765E-1,4.8185906E-1,6.300807E-1,2.398613E-3,7.310795E-1,-9.359368E-2,-1.6015908E-1,3.6669236E-1,3.2101385E-3,8.375295E-1,-2.4191411E-2,-9.458754E-1,-9.2579955E-1,-8.6375766E-2,1.3820996E0,-4.462044E-1,2.6149493E-1,-1.1753156E0,9.333698E-1,-2.5347078E-1,8.974682E-2,-5.8415973E-1,-9.800614E-2,-9.8897135E-1,-2.1064988E-1,-1.137297E0,7.1593684E-1,-1.438411E-1,5.2169E-1,1.3463005E0,-6.83076E-1,4.6162584E-1,-5.5332664E-2,2.715827E-1,-1.4800717E-1,-4.627758E-1,3.126906E-1,-7.387767E-2,-5.5286612E-2,-2.890057E-1,-1.6656451E-1,6.6513345E-2,-1.1701877E-1,-2.7436706E-1,1.1363185E-1,-1.8230924E-1,-3.0810282E-1,-1.5950903E-1,1.6724676E-1,-4.2866609E-1,4.5285365E-1,-3.4989727E-1,-1.4954812E-2,-2.3457967E-1,3.788612E-1,4.4850877E-1,-1.6314141E-1,-3.514548E-1,4.0259615E-1,-1.0519006E-2],"categories":[],"categories_nodes":[],"categories_segments":[],"categories_sizes":[],"default_left":[0,0,0,0,0,0,0,0,0,0,0,0,0,0,0,0,0,0,0,0,0,0,0,0,0,0,0,0,0,0,0,0,0,0,0,0,0,0,0,0,0,0,0,0,0,0,0,0,0,0,0,0,0,0,0,0,0,0,0,0,0],"id":8,"left_children":[1,-1,3,5,7,9,11,13,15,17,19,21,23,25,27,29,31,33,35,37,39,41,43,45,47,49,51,-1,53,-1,55,57,59,-1,-1,-1,-1,-1,-1,-1,-1,-1,-1,-1,-1,-1,-1,-1,-1,-1,-1,-1,-1,-1,-1,-1,-1,-1,-1,-1,-1],"loss_changes":[1.0334862E4,0E0,1.0103191E3,7.937881E2,1.9892255E2,7.383662E2,7.869769E1,1.3113196E2,8.561145E2,3.7071817E2,8.695337E2,7.863523E1,3.563858E0,3.0624283E1,3.0154703E2,3.5491943E0,1.2425853E2,2.8694946E2,5.4072937E1,9.8232324E2,3.2831974E1,8.7303024E1,1.3006065E1,1.6775517E0,1.1103668E0,4.5527435E1,1.3842285E1,0E0,1.2425581E2,0E0,3.366394E0,3.0485336E1,5.246003E1,0E0,0E0,0E0,0E0,0E0,0E0,0E0,0E0,0E0,0E0,0E0,0E0,0E0,0E0,0E0,0E0,0E0,0E0,0E0,0E0,0E0,0E0,0E0,0E0,0E0,0E0,0E0,0E0],"parents":[2147483647,0,0,2,2,3,3,4,4,5,5,6,6,7,7,8,8,9,9,10,10,11,11,12,12,13,13,14,14,15,15,16,16,17,17,18,18,19,19,20,20,21,21,22,22,23,23,24,24,25,25,26,26,28,28,30,30,31,31,32,32],"right_children":[2,-1,4,6,8,10,12,14,16,18,20,22,24,26,28,30,32,34,36,38,40,42,44,46,48,50,52,-1,54,-1,56,58,60,-1,-1,-1,-1,-1,-1,-1,-1,-1,-1,-1,-1,-1,-1,-1,-1,-1,-1,-1,-1,-1,-1,-1,-1,-1,-1,-1,-1],"split_conditions":[0E0,-3.126765E-1,1E0,1E0,1.5605128E-2,-6.218914E-1,1E0,-7.1039325E-1,2.0757926E0,1E0,4.151585E0,1E0,-7.692308E-1,-5E-1,-6.418953E-1,-6.3726187E-1,2.1314118E0,1.7152622E-2,0E0,4.1587577E0,1E0,-6.4083815E-1,1.3049284E-1,6.666667E-2,8.666667E-1,2.5824592E0,0E0,7.1593684E-1,6.923077E-1,5.2169E-1,1E0,1E0,4.151585E0,-5.5332664E-2,2.715827E-1,-1.4800717E-1,-4.627758E-1,3.126906E-1,-7.387767E-2,-5.5286612E-2,-2.890057E-1,-1.6656451E-1,6.6513345E-2,-1.1701877E-1,-2.7436706E-1,1.1363185E-1,-1.8230924E-1,-3.0810282E-1,-1.5950903E-1,1.6724676E-1,-4.2866609E-1,4.5285365E-1,-3.4989727E-1,-1.4954812E-2,-2.3457967E-1,3.788612E-1,4.4850877E-1,-1.6314141E-1,-3.514548E-1,4.0259615E-1,-1.0519006E-2],"split_indices":[20,0,15,5,19,23,16,13,19,10,19,2,6,2,13,13,19,18,4,18,16,12,1,9,9,23,6,0,6,0,11,10,19,0,0,0,0,0,0,0,0,0,0,0,0,0,0,0,0,0,0,0,0,0,0,0,0,0,0,0,0],"split_type":[0,0,0,0,0,0,0,0,0,0,0,0,0,0,0,0,0,0,0,0,0,0,0,0,0,0,0,0,0,0,0,0,0,0,0,0,0,0,0,0,0,0,0,0,0,0,0,0,0,0,0,0,0,0,0,0,0,0,0,0,0],"sum_hessian":[2.069019E4,6.4746226E3,1.4215568E4,1.0858445E4,3.3571223E3,9.528589E3,1.3298572E3,2.3216846E3,1.0354379E3,1.2158743E3,8.312714E3,1.2306707E3,9.918652E1,2.0305542E2,2.1186292E3,4.6006293E2,5.7537494E2,9.979438E2,2.1793048E2,7.6415747E3,6.7113965E2,1.0232973E3,2.0737328E2,4.9560184E0,9.42305E1,4.680083E1,1.562546E2,4.7195545E1,2.0714336E3,3.76062E1,4.2245673E2,4.5650974E2,1.1886521E2,5.899842E2,4.079596E2,7.710427E1,1.4082622E2,6.995679E3,6.4589526E2,6.1268915E2,5.8450535E1,1.7326674E2,8.500306E2,1.3200523E2,7.536805E1,2.693399E0,2.2626195E0,8.584372E1,8.386785E0,2.9035414E1,1.7765415E1,1.1417454E0,1.5511285E2,1.806423E3,2.650106E2,2.7672055E2,1.4573618E2,3.5686765E2,9.964208E1,4.225972E1,7.660549E1],"tree_param":{"num_deleted":"0","num_feature":"24","num_nodes":"61","size_leaf_vector":"1"}},{"base_weights":[5.54505E-3,-3.0924413E-1,4.1809857E-1,5.640678E-1,4.8289653E-3,6.887783E-1,-1.1686018E-2,1.0302304E-1,-5.5061185E-1,5.111304E-1,1.1592951E0,1.3989541E-1,-6.0088134E-1,-1.2962715E-1,1.5175484E0,-6.830872E-1,2.8419366E-1,6.5915143E-1,-1.6544671E-1,1.105371E0,2.3335643E0,-9.016706E-2,1.44186E0,-1.8981199E0,-4.555317E-1,2.35885E-3,-5.4882425E-1,2.24208E0,1.4680359E0,-1.0977294E0,-5.151186E-1,4.3315247E-1,-6.7045707E-1,-5.829622E-2,2.5789586E-1,7.614722E-3,-1.5618278E-1,5.186398E-1,3.1229413E-1,9.141906E-1,5.2056926E-1,-2.7437812E-1,2.2535583E-3,3.3861294E-1,9.154438E-1,-6.627525E-1,1.15068436E-1,-4.1111603E-2,-1.7151393E-1,3.171721E-2,-2.3705818E-1,-4.4984764E-1,-1.2544416E-1,5.531509E-1,9.138105E-1,4.2079982E-1,5.2551E-1,-3.5137367E-1,-2.4589986E-1,-4.9997933E-2,-3.1572014E-1,-3.0985537E-1,4.7435813E-2],"categories":[],"categories_nodes":[],"categories_segments":[],"categories_sizes":[],"default_left":[0,0,0,0,0,0,0,0,0,0,0,0,0,0,0,0,0,0,0,0,0,0,0,0,0,0,0,0,0,0,0,0,0,0,0,0,0,0,0,0,0,0,0,0,0,0,0,0,0,0,0,0,0,0,0,0,0,0,0,0,0,0,0],"id":9,"left_children":[1,-1,3,5,7,9,11,13,15,17,19,21,23,25,27,29,31,33,35,37,39,41,43,45,47,49,51,53,55,57,59,-1,61,-1,-1,-1,-1,-1,-1,-1,-1,-1,-1,-1,-1,-1,-1,-1,-1,-1,-1,-1,-1,-1,-1,-1,-1,-1,-1,-1,-1,-1,-1],"loss_changes":[7.271179E3,0E0,7.337954E2,6.454512E2,1.7328033E2,6.170039E2,1.4310745E2,8.8865344E2,5.29776E1,5.3744385E2,1.2560205E2,3.8189413E2,6.0957542E1,1.2832643E2,1.0390503E1,2.8143753E1,7.41152E1,7.5353235E2,6.5343925E1,7.597046E1,3.2283234E1,8.730662E1,9.305832E1,2.4069527E1,1.0880344E1,1.446726E2,6.836981E1,1.5873718E0,4.2164917E0,1.451294E0,5.510215E1,0E0,1.1250158E1,0E0,0E0,0E0,0E0,0E0,0E0,0E0,0E0,0E0,0E0,0E0,0E0,0E0,0E0,0E0,0E0,0E0,0E0,0E0,0E0,0E0,0E0,0E0,0E0,0E0,0E0,0E0,0E0,0E0,0E0],"parents":[2147483647,0,0,2,2,3,3,4,4,5,5,6,6,7,7,8,8,9,9,10,10,11,11,12,12,13,13,14,14,15,15,16,16,17,17,18,18,19,19,20,20,21,21,22,22,23,23,24,24,25,25,26,26,27,27,28,28,29,29,30,30,32,32],"right_children":[2,-1,4,6,8,10,12,14,16,18,20,22,24,26,28,30,32,34,36,38,40,42,44,46,48,50,52,54,56,58,60,-1,62,-1,-1,-1,-1,-1,-1,-1,-1,-1,-1,-1,-1,-1,-1,-1,-1,-1,-1,-1,-1,-1,-1,-1,-1,-1,-1,-1,-1,-1,-1],"split_conditions":[0E0,-3.0924413E-1,1E0,2.0757926E0,2.0793788E0,1.5605128E-2,2.0793788E0,1.7152622E-2,2.191566E0,1E0,1E0,1.7152622E-2,-6.218914E-1,4.654585E-1,-7.1039325E-1,-3.714669E-1,4.149587E0,-6.218914E-1,1E0,-6.218914E-1,1.7152622E-2,-6.235129E-1,4.151585E0,2.1314118E0,-4.6153846E-1,7.0212287E-1,-5.2063423E-1,1E0,6.2348366E-1,-5.303093E-1,4.654585E-1,4.3315247E-1,1.5605128E-2,-5.829622E-2,2.5789586E-1,7.614722E-3,-1.5618278E-1,5.186398E-1,3.1229413E-1,9.141906E-1,5.2056926E-1,-2.7437812E-1,2.2535583E-3,3.3861294E-1,9.154438E-1,-6.627525E-1,1.15068436E-1,-4.1111603E-2,-1.7151393E-1,3.171721E-2,-2.3705818E-1,-4.4984764E-1,-1.2544416E-1,5.531509E-1,9.138105E-1,4.2079982E-1,5.2551E-1,-3.5137367E-1,-2.4589986E-1,-4.9997933E-2,-3.1572014E-1,-3.0985537E-1,4.7435813E-2],"split_indices":[20,0,15,19,18,19,18,18,18,5,5,18,23,12,13,12,18,23,11,23,18,1,19,19,6,13,13,0,13,12,12,0,19,0,0,0,0,0,0,0,0,0,0,0,0,0,0,0,0,0,0,0,0,0,0,0,0,0,0,0,0,0,0],"split_type":[0,0,0,0,0,0,0,0,0,0,0,0,0,0,0,0,0,0,0,0,0,0,0,0,0,0,0,0,0,0,0,0,0,0,0,0,0,0,0,0,0,0,0,0,0,0,0,0,0,0,0,0,0,0,0,0,0,0,0,0,0,0,0],"sum_hessian":[1.7004473E4,4.841312E3,1.216316E4,8.988135E3,3.175026E3,7.3877275E3,1.6004071E3,2.6987412E3,4.762847E2,5.3644263E3,2.0233013E3,1.2735304E3,3.2687674E2,2.318346E3,3.8039523E2,4.1121127E2,6.5073425E1,4.401496E3,9.629301E2,1.9363239E3,8.6977425E1,1.083077E3,1.904534E2,3.1719828E1,2.9515692E2,1.7639524E3,5.5439355E2,2.1499796E1,3.5889542E2,1.1695774E2,2.9425354E2,2.9150661E1,3.5922764E1,8.373192E2,3.564177E3,6.2698114E2,3.3594894E2,1.7885046E2,1.7574734E3,3.779715E1,4.918028E1,1.1384475E2,9.6923224E2,1.6085953E2,2.9593864E1,2.7942312E1,3.7775154E0,7.947321E1,2.1568372E2,1.5612057E3,2.0274672E2,6.573085E1,4.8866272E2,1.6580168E1,4.9196286E0,2.9651004E2,6.2385395E1,8.996109E1,2.6996649E1,1.7928613E2,1.149674E2,2.4820496E1,1.1102268E1],"tree_param":{"num_deleted":"0","num_feature":"24","num_nodes":"63","size_leaf_vector":"1"}},{"base_weights":[2.2064017E-3,-3.0674714E-1,3.4228072E-1,4.5912868E-1,-1.63312E-1,2.4918994E-1,1.1928936E0,-9.6294075E-2,-8.3508545E-1,3.498562E-1,-3.955301E-1,1.1730052E0,2.2396393E0,2.3172833E-1,-2.498212E-1,-5.866607E-1,-7.5087804E-1,5.190737E-1,-6.611528E-2,-1.5976928E0,-2.3798332E-1,1.5782592E0,1.1169208E0,2.7861605E0,1.4121815E0,1.4603652E0,-8.443576E-2,-1.3929167E-1,-6.752051E-1,-6.5033954E-1,-1.0402886E0,1.9657637E-1,-3.7445255E-2,1.1878738E-1,-5.9561953E-2,-5.4555446E-1,-1.7496145E-1,3.1152624E-3,-1.9029368E-1,4.9450144E-1,4.1143635E-1,3.2573524E-1,4.6948087E-1,9.472355E-1,4.071407E-1,3.2460493E-1,6.2443733E-1,3.756992E-1,8.862079E-1,1.9211662E-3,-3.318176E-1,-1.0141296E-2,-1.9551934E-1,-4.801599E-1,-1.6739622E-1,-1.3041975E-1,-2.4257623E-1,-1.23884544E-1,-3.2316747E-1],"categories":[],"categories_nodes":[],"categories_segments":[],"categories_sizes":[],"default_left":[0,0,0,0,0,0,0,0,0,0,0,0,0,0,0,0,0,0,0,0,0,0,0,0,0,0,0,0,0,0,0,0,0,0,0,0,0,0,0,0,0,0,0,0,0,0,0,0,0,0,0,0,0,0,0,0,0,0,0],"id":10,"left_children":[1,-1,3,5,7,9,11,13,15,17,19,21,23,25,27,-1,29,31,33,35,37,39,41,43,45,47,49,51,53,55,57,-1,-1,-1,-1,-1,-1,-1,-1,-1,-1,-1,-1,-1,-1,-1,-1,-1,-1,-1,-1,-1,-1,-1,-1,-1,-1,-1,-1],"loss_changes":[5.0514517E3,0E0,6.430652E2,1.3616104E3,9.193831E1,4.4636377E2,3.8311523E1,9.370965E1,1.6012726E1,4.1867035E2,1.755717E2,4.214746E1,1.2149948E1,2.3063208E2,5.948783E1,0E0,4.3849106E0,3.707926E2,1.0536693E2,2.3014465E1,8.09739E1,1.1081543E0,2.202246E1,6.534729E0,1.3221321E0,3.4055573E1,4.3894234E1,5.4419178E1,2.7427055E1,4.1443825E0,5.557327E-1,0E0,0E0,0E0,0E0,0E0,0E0,0E0,0E0,0E0,0E0,0E0,0E0,0E0,0E0,0E0,0E0,0E0,0E0,0E0,0E0,0E0,0E0,0E0,0E0,0E0,0E0,0E0,0E0],"parents":[2147483647,0,0,2,2,3,3,4,4,5,5,6,6,7,7,8,8,9,9,10,10,11,11,12,12,13,13,14,14,16,16,17,17,18,18,19,19,20,20,21,21,22,22,23,23,24,24,25,25,26,26,27,27,28,28,29,29,30,30],"right_children":[2,-1,4,6,8,10,12,14,16,18,20,22,24,26,28,-1,30,32,34,36,38,40,42,44,46,48,50,52,54,56,58,-1,-1,-1,-1,-1,-1,-1,-1,-1,-1,-1,-1,-1,-1,-1,-1,-1,-1,-1,-1,-1,-1,-1,-1,-1,-1,-1,-1],"split_conditions":[0E0,-3.0674714E-1,2.0793788E0,1.7152622E-2,6.4847124E-1,1E0,4.151585E0,-2.3076923E-1,-6.266231E-1,2.2027042E0,-6.235129E-1,-6.218914E-1,5.014774E0,5E-1,1E0,-5.866607E-1,1.4513842E0,1E0,-3.3333334E-1,5.801777E-1,1.9968702E0,1.5605128E-2,1E0,1.7713482E0,6.227378E0,4.1587577E0,2.892774E0,2.0757926E0,-6.183657E-1,4.1587577E0,-8.666667E-1,1.9657637E-1,-3.7445255E-2,1.1878738E-1,-5.9561953E-2,-5.4555446E-1,-1.7496145E-1,3.1152624E-3,-1.9029368E-1,4.9450144E-1,4.1143635E-1,3.2573524E-1,4.6948087E-1,9.472355E-1,4.071407E-1,3.2460493E-1,6.2443733E-1,3.756992E-1,8.862079E-1,1.9211662E-3,-3.318176E-1,-1.0141296E-2,-1.9551934E-1,-4.801599E-1,-1.6739622E-1,-1.3041975E-1,-2.4257623E-1,-1.23884544E-1,-3.2316747E-1],"split_indices":[20,0,18,18,12,4,19,6,1,1,1,23,19,17,10,0,1,5,0,12,1,19,5,1,19,18,1,19,23,18,9,0,0,0,0,0,0,0,0,0,0,0,0,0,0,0,0,0,0,0,0,0,0,0,0,0,0,0,0],"split_type":[0,0,0,0,0,0,0,0,0,0,0,0,0,0,0,0,0,0,0,0,0,0,0,0,0,0,0,0,0,0,0,0,0,0,0,0,0,0,0,0,0,0,0,0,0,0,0,0,0,0,0,0,0,0,0,0,0,0,0],"sum_hessian":[1.4493956E4,3.6111108E3,1.0882845E4,8.839933E3,2.0429124E3,6.87442E3,1.9655126E3,1.8586334E3,1.8427893E2,5.946408E3,9.280117E2,1.930945E3,3.4567657E1,5.924052E2,1.2662281E3,1.1327971E1,1.7295097E2,4.226725E3,1.7196829E3,1.06467674E2,8.21544E2,2.3144353E2,1.6995015E3,1.9392273E1,1.5175385E1,1.2050294E2,4.7190225E2,1.0061284E3,2.6009973E2,1.3076985E2,4.2181114E1,3.4888313E3,7.37894E2,3.826166E2,1.3370663E3,8.678483E1,1.968285E1,5.056451E2,3.1589893E2,1.6765921E2,6.378432E1,1.5922638E3,1.0723765E2,1.4432807E1,4.959467E0,1.1914474E1,3.2609124E0,1.0738497E2,1.311797E1,4.3428104E2,3.762124E1,8.352545E2,1.7087392E2,2.7821299E1,2.3227843E2,5.693928E1,7.3830574E1,3.0226786E0,3.9158436E1],"tree_param":{"num_deleted":"0","num_feature":"24","num_nodes":"59","size_leaf_vector":"1"}},{"base_weights":[-1.3853633E-3,-3.0491388E-1,2.7364028E-1,3.2247278E-1,-8.478103E-1,4.2135838E-1,-1.9171502E-1,-1.5169771E0,-7.2285044E-1,4.646692E-1,-6.2027013E-1,7.341228E-3,-4.5427078E-1,-1.9770408E0,-5.2612746E-1,-4.1429347E-1,-8.3533627E-1,5.1310116E-1,-5.750682E-1,-1.6757162E0,-4.753713E-1,-7.144499E-1,7.336899E-2,-1.1921321E0,-3.410703E-1,-2.1735773E0,-4.0923184E-1,5.396887E-1,-1.5917053E0,-5.495561E-1,5.456285E-1,-9.208668E-1,-6.332515E-1,-7.790086E-2,1.6923815E-1,-5.97096E-1,-1.3151489E-1,-1.4151964E-1,-5.976446E-1,-7.840506E-2,-3.059463E-1,-2.9325682E-1,-5.8319088E-2,6.1988484E-2,-1.0077304E-1,-1.992187E-1,-4.9497196E-1,-6.443227E-2,-1.9175051E-1,-6.6223216E-1,-2.0066077E-1,3.742131E-1,-3.9681616E-1,-5.22903E-1,-1.7299536E-1,-1.1355627E-1,-2.462299E-1,8.428126E-1,-9.657996E-2,-2.0540485E-1,-3.1786886E-1,2.8436506E-1,-2.3747256E-1],"categories":[],"categories_nodes":[],"categories_segments":[],"categories_sizes":[],"default_left":[0,0,0,0,0,0,0,0,0,0,0,0,0,0,0,0,0,0,0,0,0,0,0,0,0,0,0,0,0,0,0,0,0,0,0,0,0,0,0,0,0,0,0,0,0,0,0,0,0,0,0,0,0,0,0,0,0,0,0,0,0,0,0],"id":11,"left_children":[1,-1,3,5,7,9,11,13,15,17,19,21,23,25,27,29,31,33,35,37,39,41,43,45,47,49,-1,51,53,55,57,59,61,-1,-1,-1,-1,-1,-1,-1,-1,-1,-1,-1,-1,-1,-1,-1,-1,-1,-1,-1,-1,-1,-1,-1,-1,-1,-1,-1,-1,-1,-1],"loss_changes":[3.5218264E3,0E0,5.438838E2,4.837804E2,3.3562042E1,3.6025012E2,8.023267E1,2.8276077E1,1.1842468E1,3.8607788E2,4.7981277E1,4.17113E1,5.4886124E1,2.2819366E0,2.5565926E1,1.2739054E1,3.848053E0,2.88807E2,6.517828E1,1.3577751E1,3.2574944E1,9.845612E0,4.379777E1,2.0092552E1,2.1523117E1,1.181488E-1,0E0,1.6968925E1,7.045269E-1,3.6075363E0,2.512785E1,5.103058E0,2.063665E1,0E0,0E0,0E0,0E0,0E0,0E0,0E0,0E0,0E0,0E0,0E0,0E0,0E0,0E0,0E0,0E0,0E0,0E0,0E0,0E0,0E0,0E0,0E0,0E0,0E0,0E0,0E0,0E0,0E0,0E0],"parents":[2147483647,0,0,2,2,3,3,4,4,5,5,6,6,7,7,8,8,9,9,10,10,11,11,12,12,13,13,14,14,15,15,16,16,17,17,18,18,19,19,20,20,21,21,22,22,23,23,24,24,25,25,27,27,28,28,29,29,30,30,31,31,32,32],"right_children":[2,-1,4,6,8,10,12,14,16,18,20,22,24,26,28,30,32,34,36,38,40,42,44,46,48,50,-1,52,54,56,58,60,62,-1,-1,-1,-1,-1,-1,-1,-1,-1,-1,-1,-1,-1,-1,-1,-1,-1,-1,-1,-1,-1,-1,-1,-1,-1,-1,-1,-1,-1,-1],"split_conditions":[0E0,-3.0491388E-1,1E0,1E0,-6.218914E-1,1.25E0,1E0,1.7152622E-2,-1.5057008E-1,1E0,-6.199993E-1,-7.1039325E-1,-6.1088365E-1,1E0,-2.0709676E-1,-2.0195292E-1,1.5605128E-2,-7.1600604E-1,-6.235129E-1,-6.4083815E-1,2.1946156E0,1.7152622E-2,2.2938337E0,0E0,2.380432E0,1E0,-4.0923184E-1,-3.3333334E-1,1E0,3.1901193E-1,-1.963919E-1,1.8185658E0,2.0757926E0,-7.790086E-2,1.6923815E-1,-5.97096E-1,-1.3151489E-1,-1.4151964E-1,-5.976446E-1,-7.840506E-2,-3.059463E-1,-2.9325682E-1,-5.8319088E-2,6.1988484E-2,-1.0077304E-1,-1.992187E-1,-4.9497196E-1,-6.443227E-2,-1.9175051E-1,-6.6223216E-1,-2.0066077E-1,3.742131E-1,-3.9681616E-1,-5.22903E-1,-1.7299536E-1,-1.1355627E-1,-2.462299E-1,8.428126E-1,-9.657996E-2,-2.0540485E-1,-3.1786886E-1,2.8436506E-1,-2.3747256E-1],"split_indices":[20,0,16,10,23,2,8,18,23,3,1,13,23,4,13,23,19,12,1,12,23,18,23,2,23,5,0,8,4,12,23,1,19,0,0,0,0,0,0,0,0,0,0,0,0,0,0,0,0,0,0,0,0,0,0,0,0,0,0,0,0,0,0],"split_type":[0,0,0,0,0,0,0,0,0,0,0,0,0,0,0,0,0,0,0,0,0,0,0,0,0,0,0,0,0,0,0,0,0,0,0,0,0,0,0,0,0,0,0,0,0,0,0,0,0,0,0,0,0,0,0,0,0,0,0,0,0,0,0],"sum_hessian":[1.261428E4,2.688725E3,9.925555E3,9.512073E3,4.1348184E2,7.9779756E3,1.5340972E3,6.3310593E1,3.5017123E2,7.6600264E3,3.1794946E2,8.7311694E2,6.609802E2,4.255601E1,2.0754583E1,9.480291E1,2.5536833E2,7.3195796E3,3.404466E2,3.7105743E1,2.8084372E2,7.235361E1,8.0076337E2,8.664982E1,5.7433044E2,3.0295591E1,1.2260419E1,1.0622866E1,1.0131718E1,8.346882E1,1.1334091E1,1.7692825E2,7.844008E1,4.5312143E2,6.8664585E3,2.8790083E1,3.1165652E2,8.240918E0,2.8864826E1,2.0265918E2,7.818453E1,4.746394E1,2.4889666E1,6.044519E2,1.9631145E2,4.137358E1,4.5276237E1,4.0462308E2,1.6970734E2,2.9172062E1,1.1235309E0,7.937114E0,2.685752E0,8.193265E0,1.9384528E0,5.2657032E1,3.0811785E1,2.5200999E0,8.813992E0,6.7655304E1,1.0927296E2,6.685622E0,7.1754456E1],"tree_param":{"num_deleted":"0","num_feature":"24","num_nodes":"63","size_leaf_vector":"1"}},{"base_weights":[-9.509063E-3,-3.0355427E-1,2.0312095E-1,3.1387094E-1,-2.2496895E-1,1.223889E-1,1.1185255E0,-1.421492E-1,-6.0874116E-1,2.4099267E-1,-2.6899156E-1,1.0936376E0,1.5576624E0,-7.6433456E-1,-8.7998964E-2,-1.3687317E0,-5.6582636E-1,4.920819E-2,1.1396601E0,-8.5035646E-1,-2.051393E-1,3.955625E-1,1.0690694E0,5.205336E-1,3.8197604E-1,-5.0176793E-1,-6.623642E-1,1.3833653E0,-1.1507599E-1,-4.3472177E-1,-5.317825E-1,-4.8983127E-1,-9.47548E-1,-1.9787519E-1,4.655113E-2,4.0567064E-1,3.2888633E-1,-4.4122192E-1,-2.3631561E-1,4.1572598E-1,-7.002461E-2,3.0758336E-1,3.6222085E-1,-1.3191792E-1,-2.9819152E-1,3.4117016E-1,6.7172974E-1,-4.6984694E-4,-1.2374087E-1,-3.9297063E-2,-1.9782253E-1,-1.15572385E-1,-2.462998E-1,-2.955963E-1,-8.6934015E-2],"categories":[],"categories_nodes":[],"categories_segments":[],"categories_sizes":[],"default_left":[0,0,0,0,0,0,0,0,0,0,0,0,0,0,0,0,0,0,0,0,0,0,0,0,0,0,0,0,0,0,0,0,0,0,0,0,0,0,0,0,0,0,0,0,0,0,0,0,0,0,0,0,0,0,0],"id":12,"left_children":[1,-1,3,5,7,9,11,13,15,17,19,21,23,25,27,29,31,33,35,37,39,-1,41,-1,-1,-1,43,45,47,-1,49,51,53,-1,-1,-1,-1,-1,-1,-1,-1,-1,-1,-1,-1,-1,-1,-1,-1,-1,-1,-1,-1,-1,-1],"loss_changes":[2.4360786E3,0E0,4.4714737E2,1.1542207E3,6.153399E1,2.8104242E2,1.4035034E1,5.3701427E1,1.0439133E1,8.006593E2,5.2099663E1,6.139038E0,1.569809E0,1.0713646E1,5.8695084E1,4.1770554E-1,9.026054E0,2.8774066E2,6.0507812E0,4.244484E0,5.7460133E1,0E0,6.255127E0,0E0,0E0,0E0,8.157753E0,3.0618057E0,4.873249E1,0E0,7.360268E-2,9.205421E0,1.037426E0,0E0,0E0,0E0,0E0,0E0,0E0,0E0,0E0,0E0,0E0,0E0,0E0,0E0,0E0,0E0,0E0,0E0,0E0,0E0,0E0,0E0,0E0],"parents":[2147483647,0,0,2,2,3,3,4,4,5,5,6,6,7,7,8,8,9,9,10,10,11,11,12,12,13,13,14,14,15,15,16,16,17,17,18,18,19,19,20,20,22,22,26,26,27,27,28,28,30,30,31,31,32,32],"right_children":[2,-1,4,6,8,10,12,14,16,18,20,22,24,26,28,30,32,34,36,38,40,-1,42,-1,-1,-1,44,46,48,-1,50,52,54,-1,-1,-1,-1,-1,-1,-1,-1,-1,-1,-1,-1,-1,-1,-1,-1,-1,-1,-1,-1,-1,-1],"split_conditions":[0E0,-3.0355427E-1,2.0757926E0,1.5605128E-2,1E0,2.0793788E0,1E0,-7.1600604E-1,-6.266231E-1,1.7152622E-2,-7.1039325E-1,-6.218914E-1,1.7152622E-2,-6.235129E-1,-6.469139E-1,1E0,1E0,-6.199993E-1,-6.218914E-1,-6.235129E-1,-6.418953E-1,3.955625E-1,1E0,5.205336E-1,3.8197604E-1,-5.0176793E-1,7.635147E-1,4.151585E0,6.666667E-1,-4.3472177E-1,0E0,2.1300797E0,8.666667E-1,-1.9787519E-1,4.655113E-2,4.0567064E-1,3.2888633E-1,-4.4122192E-1,-2.3631561E-1,4.1572598E-1,-7.002461E-2,3.0758336E-1,3.6222085E-1,-1.3191792E-1,-2.9819152E-1,3.4117016E-1,6.7172974E-1,-4.6984694E-4,-1.2374087E-1,-3.9297063E-2,-1.9782253E-1,-1.15572385E-1,-2.462998E-1,-2.955963E-1,-8.6934015E-2],"split_indices":[20,0,19,19,4,18,5,12,1,18,13,23,18,1,12,8,5,1,23,1,13,0,15,0,0,0,23,19,0,0,6,23,9,0,0,0,0,0,0,0,0,0,0,0,0,0,0,0,0,0,0,0,0,0,0],"split_type":[0,0,0,0,0,0,0,0,0,0,0,0,0,0,0,0,0,0,0,0,0,0,0,0,0,0,0,0,0,0,0,0,0,0,0,0,0,0,0,0,0,0,0,0,0,0,0,0,0,0,0,0,0,0,0],"sum_hessian":[1.1428196E4,1.9993756E3,9.428821E3,7.4910884E3,1.9377325E3,6.052047E3,1.4390414E3,1.5949135E3,3.428191E2,4.644856E3,1.4071909E3,1.3651619E3,7.3879524E1,1.2664532E2,1.4682682E3,1.6672195E1,3.261469E2,3.828806E3,8.160501E2,1.3804007E2,1.2691509E3,1.2925514E2,1.2359067E3,4.235342E1,3.15261E1,1.1228995E1,1.1541633E2,2.5626661E1,1.4426415E3,1.4544645E1,2.1275501E0,2.739006E2,5.2246296E1,4.9727283E2,3.3315332E3,1.3317241E2,6.828777E2,1.0597661E1,1.2744241E2,2.1325209E1,1.2478257E3,9.4512463E2,2.907821E2,7.04458E1,4.4970524E1,2.1710976E1,3.9156854E0,1.0448472E3,3.9779434E2,1.0032706E0,1.1242795E0,2.0980344E2,6.409717E1,4.8938004E1,3.3082907E0],"tree_param":{"num_deleted":"0","num_feature":"24","num_nodes":"55","size_leaf_vector":"1"}},{"base_weights":[-6.8471194E-3,-3.0253214E-1,1.6308765E-1,2.910062E-1,-1.270176E-1,4.1401953E-1,-1.9947557E-1,-5.470196E-2,-6.39858E-1,5.32856E-1,-3.4311426E-1,6.2390643E-1,-2.4664968E-1,2.4972707E-3,-8.3136106E-1,-4.9896824E-1,-9.83848E-1,-1.3196748E-1,7.440777E-1,-7.797757E-1,-2.6646444E-1,-1.4024773E-1,1.3263359E0,-2.932478E-1,5.809896E-1,-4.0176776E-1,1.420074E-1,-9.478567E-1,-3.5251278E-1,2.313879E-1,-6.835243E-1,-8.2297486E-1,-3.6597174E-1,3.8460337E-2,-2.1502642E-1,3.0469394E-1,-9.9460326E-2,-2.6052248E-1,-1.0307551E-1,-1.4253162E-1,-2.3899646E-2,-1.9538733E-1,1.9470811E-1,5.1721054E-1,-1.3970123E-1,-3.8285673E-2,-1.5206467E-1,4.6445352E-1,4.3446593E-2,-5.316785E-2,-3.275611E-1,1.2665363E-1,-6.670171E-2,-3.322363E-1,-1.5405683E-1,3.4954074E-1,-2.5378507E-1,4.0248665E-1,-1.00785024E-1,-1.5164278E-1,-3.0111006E-1,-2.628253E-1,2.2261469E-1],"categories":[],"categories_nodes":[],"categories_segments":[],"categories_sizes":[],"default_left":[0,0,0,0,0,0,0,0,0,0,0,0,0,0,0,0,0,0,0,0,0,0,0,0,0,0,0,0,0,0,0,0,0,0,0,0,0,0,0,0,0,0,0,0,0,0,0,0,0,0,0,0,0,0,0,0,0,0,0,0,0,0,0],"id":13,"left_children":[1,-1,3,5,7,9,11,13,15,17,19,21,23,25,27,29,31,33,35,37,39,41,43,45,47,49,51,53,55,57,59,61,-1,-1,-1,-1,-1,-1,-1,-1,-1,-1,-1,-1,-1,-1,-1,-1,-1,-1,-1,-1,-1,-1,-1,-1,-1,-1,-1,-1,-1,-1,-1],"loss_changes":[1.744129E3,0E0,3.2515015E2,3.6693933E2,9.94151E1,4.3758905E2,4.7535316E1,1.04455795E2,1.5565704E1,5.9020557E2,2.188646E1,3.581891E1,4.469358E1,1.2362647E2,8.663277E0,3.2113007E1,2.6127167E0,1.5437378E2,9.319209E2,3.4924202E0,2.19071E1,1.3612246E1,2.5522076E1,3.863079E1,2.587586E1,8.695054E1,1.664432E2,8.382927E0,2.5812857E1,3.1042965E1,1.0295433E1,5.613186E0,0E0,0E0,0E0,0E0,0E0,0E0,0E0,0E0,0E0,0E0,0E0,0E0,0E0,0E0,0E0,0E0,0E0,0E0,0E0,0E0,0E0,0E0,0E0,0E0,0E0,0E0,0E0,0E0,0E0,0E0,0E0],"parents":[2147483647,0,0,2,2,3,3,4,4,5,5,6,6,7,7,8,8,9,9,10,10,11,11,12,12,13,13,14,14,15,15,16,16,17,17,18,18,19,19,20,20,21,21,22,22,23,23,24,24,25,25,26,26,27,27,28,28,29,29,30,30,31,31],"right_children":[2,-1,4,6,8,10,12,14,16,18,20,22,24,26,28,30,32,34,36,38,40,42,44,46,48,50,52,54,56,58,60,62,-1,-1,-1,-1,-1,-1,-1,-1,-1,-1,-1,-1,-1,-1,-1,-1,-1,-1,-1,-1,-1,-1,-1,-1,-1,-1,-1,-1,-1,-1,-1],"split_conditions":[0E0,-3.0253214E-1,1E0,1E0,8E-1,4.1587577E0,-5.9922814E-1,6.4847124E-1,5E-1,-6.218914E-1,-6.666667E-1,3.3333334E-1,1.6000346E0,-5.2063423E-1,1.5605128E-2,-3.0769232E-1,3.1901193E-1,5E-1,4.151585E0,1.5605128E-2,2.0642126E-2,1.7152622E-2,1E0,5E-1,1.6736368E0,-5.253041E-1,5E-1,4E-1,2.0682373E0,1E0,1E0,1.549296E-1,-3.6597174E-1,3.8460337E-2,-2.1502642E-1,3.0469394E-1,-9.9460326E-2,-2.6052248E-1,-1.0307551E-1,-1.4253162E-1,-2.3899646E-2,-1.9538733E-1,1.9470811E-1,5.1721054E-1,-1.3970123E-1,-3.8285673E-2,-1.5206467E-1,4.6445352E-1,4.3446593E-2,-5.316785E-2,-3.275611E-1,1.2665363E-1,-6.670171E-2,-3.322363E-1,-1.5405683E-1,3.4954074E-1,-2.5378507E-1,4.0248665E-1,-1.00785024E-1,-1.5164278E-1,-3.0111006E-1,-2.628253E-1,2.2261469E-1],"split_indices":[20,0,15,5,3,18,23,12,17,23,9,8,23,13,19,6,12,2,19,19,1,18,11,4,1,13,17,3,19,11,3,12,0,0,0,0,0,0,0,0,0,0,0,0,0,0,0,0,0,0,0,0,0,0,0,0,0,0,0,0,0,0,0],"split_type":[0,0,0,0,0,0,0,0,0,0,0,0,0,0,0,0,0,0,0,0,0,0,0,0,0,0,0,0,0,0,0,0,0,0,0,0,0,0,0,0,0,0,0,0,0,0,0,0,0,0,0,0,0,0,0,0,0,0,0,0,0,0,0],"sum_hessian":[1.0245229E4,1.485395E3,8.759833E3,6.0792534E3,2.6805798E3,4.860413E3,1.2188403E3,2.3502742E3,3.3030557E2,4.2012925E3,6.591206E2,6.538461E1,1.1534557E3,2.1899836E3,1.6029068E2,2.3606839E2,9.42372E1,1.0130566E3,3.1882358E3,9.705291E1,5.620677E2,3.1699697E1,3.3684917E1,1.0925862E3,6.086956E1,5.613766E2,1.628607E3,1.2813753E2,3.215314E1,4.7568527E1,1.8849986E2,5.8711624E1,3.5525578E1,7.016688E2,3.113878E2,2.5455862E3,6.426496E2,7.983899E1,1.721392E1,2.6478198E2,2.9728574E2,1.9347385E1,1.2352313E1,2.7598026E1,6.086889E0,6.163403E2,4.7624585E2,1.812606E1,4.2743504E1,4.2450906E2,1.368675E2,9.205632E2,7.080439E2,9.25719E1,3.5565636E1,7.5550547E0,2.4598085E1,1.5625646E1,3.194288E1,1.2279361E2,6.570625E1,5.7210384E1,1.5012369E0],"tree_param":{"num_deleted":"0","num_feature":"24","num_nodes":"63","size_leaf_vector":"1"}},{"base_weights":[-2.7689696E-3,-3.0174798E-1,1.3773093E-1,-4.5878062E-1,1.8880841E-1,-3.345535E-1,-1.1591369E0,-2.336602E-1,2.757646E-1,-1.7129001E-1,-7.607395E-1,3.9431465E-1,-1.2058744E0,2.6018446E-2,-7.3999625E-1,7.5053185E-1,1.3587745E-1,1.4155954E0,-4.9327275E-1,-1.4960705E0,-5.952694E-1,-1.2324588E0,-6.4872843E-1,-4.4167623E-1,1.3619021E0,-4.5563874E-1,-1.2060406E0,2.9785284E-1,1.3459674E0,2.6377648E-1,-1.956166E-1,3.7052312E-1,4.818072E-1,-6.947609E-2,-2.5484082E-1,-4.7803012E-1,-1.8266568E-2,3.3154374E-1,-1.958806E-1,-3.7815127E-1,-1.9207753E-1,-2.7391958E-1,6.711125E-2,-2.7817133E-1,-7.6659E-2,3.8723207E-1,8.2265484E-1,-3.5967365E-1,-7.374264E-2,-3.9622775E-1,-2.4576855E-1,-1.2901402E-1,4.0120146E-1,3.8898796E-1,8.983949E-1,4.6693057E-2,4.0075684E-1,-2.3764393E-1,2.4299053E-2],"categories":[],"categories_nodes":[],"categories_segments":[],"categories_sizes":[],"default_left":[0,0,0,0,0,0,0,0,0,0,0,0,0,0,0,0,0,0,0,0,0,0,0,0,0,0,0,0,0,0,0,0,0,0,0,0,0,0,0,0,0,0,0,0,0,0,0,0,0,0,0,0,0,0,0,0,0,0,0],"id":14,"left_children":[1,-1,3,5,7,9,11,13,15,17,19,-1,21,23,25,27,29,31,33,35,37,39,41,43,45,47,49,51,53,55,57,-1,-1,-1,-1,-1,-1,-1,-1,-1,-1,-1,-1,-1,-1,-1,-1,-1,-1,-1,-1,-1,-1,-1,-1,-1,-1,-1,-1],"loss_changes":[1.266144E3,0E0,2.4019E2,5.3714935E1,2.667545E2,3.6717407E1,1.2368553E1,1.6302278E2,3.9976706E2,1.969957E2,1.6921165E1,0E0,5.641632E-1,5.131871E2,5.5149582E1,3.688836E2,1.9727844E2,2.5297546E-1,2.9642197E1,3.5681152E0,1.2601868E1,6.339874E-1,1.6581571E0,5.475599E1,1.737143E1,4.0666374E1,5.9584503E0,5.9046063E2,4.4229004E1,3.889757E2,2.138622E2,0E0,0E0,0E0,0E0,0E0,0E0,0E0,0E0,0E0,0E0,0E0,0E0,0E0,0E0,0E0,0E0,0E0,0E0,0E0,0E0,0E0,0E0,0E0,0E0,0E0,0E0,0E0,0E0],"parents":[2147483647,0,0,2,2,3,3,4,4,5,5,6,6,7,7,8,8,9,9,10,10,12,12,13,13,14,14,15,15,16,16,17,17,18,18,19,19,20,20,21,21,22,22,23,23,24,24,25,25,26,26,27,27,28,28,29,29,30,30],"right_children":[2,-1,4,6,8,10,12,14,16,18,20,-1,22,24,26,28,30,32,34,36,38,40,42,44,46,48,50,52,54,56,58,-1,-1,-1,-1,-1,-1,-1,-1,-1,-1,-1,-1,-1,-1,-1,-1,-1,-1,-1,-1,-1,-1,-1,-1,-1,-1,-1,-1],"split_conditions":[0E0,-3.0174798E-1,-7.1039325E-1,2.7121623E0,-6.4083815E-1,1.5384616E-1,0E0,-6.469139E-1,0E0,-3.4541477E-2,-5.935863E-1,3.9431465E-1,1.25E0,-7.1600604E-1,1.8751079E0,-5.2063423E-1,5.77831E-1,4.8383683E-1,7.692308E-2,1E0,-2.1755418E-1,1E0,1E0,-1.820624E-1,4.1587577E0,-6.1456203E-1,1.5605128E-2,-3.714669E-1,4.1587577E0,4.6782047E-1,5.801777E-1,3.7052312E-1,4.818072E-1,-6.947609E-2,-2.5484082E-1,-4.7803012E-1,-1.8266568E-2,3.3154374E-1,-1.958806E-1,-3.7815127E-1,-1.9207753E-1,-2.7391958E-1,6.711125E-2,-2.7817133E-1,-7.6659E-2,3.8723207E-1,8.2265484E-1,-3.5967365E-1,-7.374264E-2,-3.9622775E-1,-2.4576855E-1,-1.2901402E-1,4.0120146E-1,3.8898796E-1,8.983949E-1,4.6693057E-2,4.0075684E-1,-2.3764393E-1,2.4299053E-2],"split_indices":[20,0,13,23,12,6,6,12,17,12,1,0,2,12,1,13,12,1,6,5,12,16,8,13,18,23,19,12,18,12,12,0,0,0,0,0,0,0,0,0,0,0,0,0,0,0,0,0,0,0,0,0,0,0,0,0,0,0,0],"split_type":[0,0,0,0,0,0,0,0,0,0,0,0,0,0,0,0,0,0,0,0,0,0,0,0,0,0,0,0,0,0,0,0,0,0,0,0,0,0,0,0,0,0,0,0,0,0,0,0,0,0,0,0,0,0,0,0,0,0,0],"sum_hessian":[8.982254E3,1.102822E3,7.8794316E3,6.2084717E2,7.2585845E3,5.2856885E2,9.227827E1,1.2387152E3,6.019869E3,3.831815E2,1.453874E2,1.2082981E0,9.106997E1,8.194183E2,4.1929688E2,1.3690488E3,4.650821E3,6.4061104E1,3.1912036E2,2.5229397E1,1.20158005E2,8.576555E1,5.3044205E0,6.0742676E2,2.1199155E2,2.6163666E2,1.5766022E2,7.786111E2,5.904377E2,3.356139E3,1.2946815E3,3.6729145E1,2.7331957E1,1.8491768E2,1.342027E2,2.3523304E1,1.7060932E0,3.3454342E0,1.1681257E2,8.081006E1,4.955494E0,4.0352216E0,1.2691987E0,1.6722913E2,4.401976E2,2.0344289E2,8.548665E0,5.6562717E1,2.0507393E2,1.19735374E2,3.792485E1,4.58284E2,3.203271E2,5.750154E2,1.5422321E1,3.0496843E3,3.0645456E2,4.0956717E2,8.851144E2],"tree_param":{"num_deleted":"0","num_feature":"24","num_nodes":"59","size_leaf_vector":"1"}},{"base_weights":[-1.1066837E-3,-3.0112708E-1,1.1025273E-1,1.443998E-1,-6.625698E-1,2.5679693E-1,-8.717809E-2,-1.0641059E0,-5.7619804E-1,3.6985764E-1,-1.2680267E-1,-2.1258663E-2,-5.7279307E-1,-4.1838145E-1,-5.2310276E-1,-2.6822188E-1,-7.0515394E-1,4.792082E-1,-2.5323826E-1,-1.1336782E-2,-3.989173E-1,1.0612103E-1,-3.7285882E-1,-1.2098844E0,-4.1439366E-1,-1.1567056E0,2.4904811E-1,-4.4552916E-1,1.8453418E-1,-4.1936603E-1,-7.676378E-1,-1.8910866E-2,2.1183936E-1,3.2448355E-2,-1.0950119E-1,-3.280461E-2,4.7877178E-1,-8.427225E-2,-2.2802465E-1,8.022715E-3,3.874175E-1,-2.5141996E-1,-6.070174E-2,-3.7271214E-1,-4.6824902E-2,3.6965695E-1,-2.1423379E-1,-3.9474526E-1,-1.4521343E-1,3.0080837E-1,-2.709992E-1,-9.689332E-2,-2.3152393E-1,-8.103514E-2,4.2333692E-1,-1.5128084E-1,2.2500026E-1,-1.8293583E-1,-2.574518E-1],"categories":[],"categories_nodes":[],"categories_segments":[],"categories_sizes":[],"default_left":[0,0,0,0,0,0,0,0,0,0,0,0,0,0,0,0,0,0,0,0,0,0,0,0,0,0,0,0,0,0,0,0,0,0,0,0,0,0,0,0,0,0,0,0,0,0,0,0,0,0,0,0,0,0,0,0,0,0,0],"id":15,"left_children":[1,-1,3,5,7,9,11,13,15,17,19,21,23,-1,25,27,29,31,33,35,37,39,41,43,45,47,49,51,53,55,57,-1,-1,-1,-1,-1,-1,-1,-1,-1,-1,-1,-1,-1,-1,-1,-1,-1,-1,-1,-1,-1,-1,-1,-1,-1,-1,-1,-1],"loss_changes":[9.152559E2,0E0,1.9479318E2,1.8395236E2,1.0220367E1,2.0638687E2,7.392696E1,8.946587E0,1.0107285E1,2.5051218E2,3.4048042E1,9.116914E1,2.7353714E1,0E0,1.1111387E1,6.3542857E0,2.9303055E0,3.8476288E2,2.2226616E1,1.2020225E2,1.3546555E1,1.4056679E2,4.2773415E1,1.6700134E0,1.1072769E2,6.826153E-1,1.0280261E1,2.0069828E0,1.3036902E1,3.8411407E0,1.5952835E0,0E0,0E0,0E0,0E0,0E0,0E0,0E0,0E0,0E0,0E0,0E0,0E0,0E0,0E0,0E0,0E0,0E0,0E0,0E0,0E0,0E0,0E0,0E0,0E0,0E0,0E0,0E0,0E0],"parents":[2147483647,0,0,2,2,3,3,4,4,5,5,6,6,7,7,8,8,9,9,10,10,11,11,12,12,14,14,15,15,16,16,17,17,18,18,19,19,20,20,21,21,22,22,23,23,24,24,25,25,26,26,27,27,28,28,29,29,30,30],"right_children":[2,-1,4,6,8,10,12,14,16,18,20,22,24,-1,26,28,30,32,34,36,38,40,42,44,46,48,50,52,54,56,58,-1,-1,-1,-1,-1,-1,-1,-1,-1,-1,-1,-1,-1,-1,-1,-1,-1,-1,-1,-1,-1,-1,-1,-1,-1,-1,-1,-1],"split_conditions":[0E0,-3.0112708E-1,1E0,1E0,-6.183657E-1,1E0,6.923077E-1,4.6666667E-1,-9.92665E-2,4.1587577E0,5E-1,4.654585E-1,-6.4083815E-1,-4.1838145E-1,1.7152622E-2,6.666667E-1,-5E-1,-6.218914E-1,-5E-1,3.6039189E-1,4.6666667E-1,3.2834706E-1,4.6782047E-1,1E0,5E-1,1E0,-3.3333334E-1,4.654585E-1,6.666667E-1,5.014774E0,-3.846154E-1,-1.8910866E-2,2.1183936E-1,3.2448355E-2,-1.0950119E-1,-3.280461E-2,4.7877178E-1,-8.427225E-2,-2.2802465E-1,8.022715E-3,3.874175E-1,-2.5141996E-1,-6.070174E-2,-3.7271214E-1,-4.6824902E-2,3.6965695E-1,-2.1423379E-1,-3.9474526E-1,-1.4521343E-1,3.0080837E-1,-2.709992E-1,-9.689332E-2,-2.3152393E-1,-8.103514E-2,4.2333692E-1,-1.5128084E-1,2.2500026E-1,-1.8293583E-1,-2.574518E-1],"split_indices":[20,0,16,15,23,5,6,9,1,18,17,12,12,0,18,8,17,23,17,13,9,12,12,5,17,4,8,12,9,19,6,0,0,0,0,0,0,0,0,0,0,0,0,0,0,0,0,0,0,0,0,0,0,0,0,0,0,0,0],"split_type":[0,0,0,0,0,0,0,0,0,0,0,0,0,0,0,0,0,0,0,0,0,0,0,0,0,0,0,0,0,0,0,0,0,0,0,0,0,0,0,0,0,0,0,0,0,0,0,0,0,0,0,0,0,0,0,0,0,0,0],"sum_hessian":[8.195221E3,8.184153E2,7.3768047E3,7.0654326E3,3.1137213E2,4.7566616E3,2.308771E3,5.3116657E1,2.582555E2,3.6738738E3,1.082788E3,2.0337456E3,2.7502542E2,3.1993818E1,2.1122839E1,7.713041E1,1.8112506E2,3.1255793E3,5.4829443E2,7.609409E2,3.2184702E2,1.4934047E3,5.4034094E2,5.34417E1,2.2158372E2,1.1328773E1,9.794067E0,5.5436474E1,2.169394E1,3.3879406E1,1.4724567E2,9.2233453E2,2.2032449E3,1.2951952E2,4.1877493E2,7.180832E2,4.285775E1,2.4392337E2,7.792364E1,1.400626E3,9.277863E1,1.4388435E2,3.9645657E2,5.166975E1,1.7719493E0,3.3643467E1,1.8794026E2,8.388428E0,2.940344E0,6.0000043E0,3.7940629E0,4.1744286E1,1.3692185E1,1.639624E1,5.2977E0,3.2116325E1,1.7630799E0,5.648932E1,9.075634E1],"tree_param":{"num_deleted":"0","num_feature":"24","num_nodes":"59","size_leaf_vector":"1"}},{"base_weights":[-2.8747425E-3,-3.006112E-1,8.4197946E-2,1.8267061E-1,-2.3509905E-1,3.535676E-2,1.1073494E0,-1.9626254E-1,-7.9899246E-1,9.0703584E-2,-5.4044235E-1,1.0853007E0,4.006436E-1,-1.3160233E-1,-5.806012E-1,3.9153215E-1,-8.971673E-1,4.7578964E-2,1.4013466E0,-3.5765865E-1,-1.0297555E0,3.605036E-1,1.0636305E0,-3.9912533E-2,-4.9557832E-1,-4.0178916E-1,-5.056074E-1,-4.4983017E-1,-8.265053E-1,-1.0816043E-1,3.990492E-2,3.9045635E-1,6.6108745E-1,5.146756E-1,-2.0218942E-1,-5.3464705E-1,-2.4763043E-1,3.055876E-1,3.4394622E-1,-2.6064642E-2,4.8006865E-1,-1.9630916E-1,1.1140793E-3,-1.0923906E-1,-2.2863966E-1,-2.8504416E-1,-1.9104666E-1],"categories":[],"categories_nodes":[],"categories_segments":[],"categories_sizes":[],"default_left":[0,0,0,0,0,0,0,0,0,0,0,0,0,0,0,0,0,0,0,0,0,0,0,0,0,0,0,0,0,0,0,0,0,0,0,0,0,0,0,0,0,0,0,0,0,0,0],"id":16,"left_children":[1,-1,3,5,7,9,11,13,15,17,19,21,-1,23,25,-1,27,29,31,33,35,-1,37,39,41,-1,43,-1,45,-1,-1,-1,-1,-1,-1,-1,-1,-1,-1,-1,-1,-1,-1,-1,-1,-1,-1],"loss_changes":[6.600723E2,0E0,2.1947398E2,7.266118E2,3.587773E1,1.467225E2,2.237732E0,3.8213223E1,2.300473E1,2.3730412E2,3.5741875E1,4.2108154E-1,0E0,4.4037537E1,1.1930679E1,0E0,3.0836105E0,1.4185503E2,7.843506E0,1.9492162E2,1.5327156E1,0E0,9.82666E-1,8.145887E1,2.105577E1,0E0,7.099369E0,0E0,1.5793076E0,0E0,0E0,0E0,0E0,0E0,0E0,0E0,0E0,0E0,0E0,0E0,0E0,0E0,0E0,0E0,0E0,0E0,0E0],"parents":[2147483647,0,0,2,2,3,3,4,4,5,5,6,6,7,7,8,8,9,9,10,10,11,11,13,13,14,14,16,16,17,17,18,18,19,19,20,20,22,22,23,23,24,24,26,26,28,28],"right_children":[2,-1,4,6,8,10,12,14,16,18,20,22,-1,24,26,-1,28,30,32,34,36,-1,38,40,42,-1,44,-1,46,-1,-1,-1,-1,-1,-1,-1,-1,-1,-1,-1,-1,-1,-1,-1,-1,-1,-1],"split_conditions":[0E0,-3.006112E-1,2.0757926E0,1.5605128E-2,8.4615386E-1,6.4847124E-1,1E0,1E0,1E0,5.801777E-1,-3.0769232E-1,-6.218914E-1,4.006436E-1,1E0,-6.183657E-1,3.9153215E-1,-6.218914E-1,-6.3726187E-1,1E0,1E0,-6.218914E-1,3.605036E-1,1E0,6.666667E-1,1.7152622E-2,-4.0178916E-1,6.9838715E-1,-4.4983017E-1,3.3333334E-1,-1.0816043E-1,3.990492E-2,3.9045635E-1,6.6108745E-1,5.146756E-1,-2.0218942E-1,-5.3464705E-1,-2.4763043E-1,3.055876E-1,3.4394622E-1,-2.6064642E-2,4.8006865E-1,-1.9630916E-1,1.1140793E-3,-1.0923906E-1,-2.2863966E-1,-2.8504416E-1,-1.9104666E-1],"split_indices":[20,0,19,19,6,12,5,2,11,12,6,23,0,10,23,0,23,13,5,11,23,0,15,8,18,0,23,0,8,0,0,0,0,0,0,0,0,0,0,0,0,0,0,0,0,0,0],"split_type":[0,0,0,0,0,0,0,0,0,0,0,0,0,0,0,0,0,0,0,0,0,0,0,0,0,0,0,0,0,0,0,0,0,0,0,0,0,0,0,0,0,0,0,0,0,0,0],"sum_hessian":[7.5850884E3,6.0717883E2,6.9779097E3,5.3334707E3,1.644439E3,4.6014375E3,7.32033E2,1.5397418E3,1.0469717E2,4.198694E3,4.0274338E2,6.7276733E2,5.9265724E1,1.3191531E3,2.2058873E2,4.119242E0,1.0057793E2,4.0659468E3,1.3274721E2,2.9447333E2,1.0827005E2,9.706045E1,5.7570685E2,1.0545974E3,2.645557E2,1.8326342E1,2.0226239E2,8.438147E0,9.213978E1,7.0328876E2,3.3626582E3,1.2038968E2,1.2357518E1,3.8394012E1,2.560793E2,2.14733E1,8.679675E1,3.8168277E2,1.9402408E2,1.0261577E3,2.84396E1,2.004862E2,6.40695E1,1.3192386E2,7.033853E1,5.3353207E1,3.878657E1],"tree_param":{"num_deleted":"0","num_feature":"24","num_nodes":"47","size_leaf_vector":"1"}},{"base_weights":[-1.5575856E-3,-3.0015266E-1,6.6263326E-2,1.2935288E-1,-3.102601E-1,2.0402953E-1,-2.2508702E-1,-4.486358E-1,-2.6878405E-1,1.6045724E-1,1.3405285E0,-6.8694435E-2,-4.3494895E-1,-2.0196536E-1,-5.391775E-1,2.8278473E-1,-8.586122E-2,3.896487E-1,5.112517E-1,-8.074533E-1,-4.4613762E-4,-5.514858E-1,-1.4569554E-1,-2.521731E-1,1.3947191E0,1.6350459E0,-5.766956E-1,1.0848547E-1,-7.53568E-2,-1.4461428E-2,-3.3546036E-1,-4.3641725E-1,-1.9873668E-1,2.5335336E-2,-1.6121855E-1,-9.6724145E-2,-2.555643E-1,3.5600832E-1,-1.346435E-1,-6.194899E-2,-2.088633E-1,5.6598645E-1,3.4744057E-1,1.5632583E-1,5.753412E-1,-4.1155252E-1,-1.4632119E-1],"categories":[],"categories_nodes":[],"categories_segments":[],"categories_sizes":[],"default_left":[0,0,0,0,0,0,0,0,0,0,0,0,0,0,0,0,0,0,0,0,0,0,0,0,0,0,0,0,0,0,0,0,0,0,0,0,0,0,0,0,0,0,0,0,0,0,0],"id":17,"left_children":[1,-1,3,5,7,9,11,-1,13,15,17,19,21,23,25,27,29,-1,-1,31,33,35,37,39,41,43,45,-1,-1,-1,-1,-1,-1,-1,-1,-1,-1,-1,-1,-1,-1,-1,-1,-1,-1,-1,-1],"loss_changes":[4.810288E2,0E0,1.5797815E2,1.5078986E2,4.651658E1,2.3275905E2,3.2514812E1,0E0,1.6574608E1,1.3658286E2,4.1864014E-1,2.8706276E1,1.4185997E1,5.9837475E1,1.5819733E1,1.2757309E2,5.8438076E1,0E0,0E0,3.5553265E0,2.3850634E1,2.0459938E1,5.0169197E1,1.4464577E1,4.655075E-1,5.7229996E-2,1.2064598E1,0E0,0E0,0E0,0E0,0E0,0E0,0E0,0E0,0E0,0E0,0E0,0E0,0E0,0E0,0E0,0E0,0E0,0E0,0E0,0E0],"parents":[2147483647,0,0,2,2,3,3,4,4,5,5,6,6,8,8,9,9,10,10,11,11,12,12,13,13,14,14,15,15,16,16,19,19,20,20,21,21,22,22,23,23,24,24,25,25,26,26],"right_children":[2,-1,4,6,8,10,12,-1,14,16,18,20,22,24,26,28,30,-1,-1,32,34,36,38,40,42,44,46,-1,-1,-1,-1,-1,-1,-1,-1,-1,-1,-1,-1,-1,-1,-1,-1,-1,-1,-1,-1],"split_conditions":[0E0,-3.0015266E-1,1E0,1E0,-3.2490032E0,6.666667E-1,1E0,-4.486358E-1,6.2883055E-1,1E0,1E0,-7.1600604E-1,1.7152622E-2,5.1366794E-1,1E0,4.151585E0,7.2712153E-1,3.896487E-1,5.112517E-1,-6.199993E-1,8E-1,1.4847122E-1,2.0793788E0,5.122393E-1,-3.8379058E-1,1E0,-6.218914E-1,1.0848547E-1,-7.53568E-2,-1.4461428E-2,-3.3546036E-1,-4.3641725E-1,-1.9873668E-1,2.5335336E-2,-1.6121855E-1,-9.6724145E-2,-2.555643E-1,3.5600832E-1,-1.346435E-1,-6.194899E-2,-2.088633E-1,5.6598645E-1,3.4744057E-1,1.5632583E-1,5.753412E-1,-4.1155252E-1,-1.4632119E-1],"split_indices":[20,0,4,10,14,8,8,0,13,15,5,12,18,13,11,19,13,0,0,1,3,12,18,13,1,5,23,0,0,0,0,0,0,0,0,0,0,0,0,0,0,0,0,0,0,0,0],"split_type":[0,0,0,0,0,0,0,0,0,0,0,0,0,0,0,0,0,0,0,0,0,0,0,0,0,0,0,0,0,0,0,0,0,0,0,0,0,0,0,0,0,0,0,0,0,0,0],"sum_hessian":[7.0980996E3,4.5039322E2,6.6477065E3,5.6942456E3,9.5346075E2,4.70366E3,9.905858E2,3.1053051E1,9.2240765E2,4.5310835E3,1.725763E2,5.683611E2,4.2222473E2,7.410331E2,1.8137459E2,3.027439E3,1.5036448E3,1.5892397E2,1.3652321E1,4.7150105E1,5.21211E2,3.0032196E2,1.2190277E2,7.192581E2,2.1775003E1,2.3543935E0,1.7902019E2,2.638261E3,3.89178E2,1.4517367E3,5.1908028E1,6.976082E0,4.0174023E1,4.5078058E2,7.0430405E1,1.715651E2,1.2875687E2,2.2052572E1,9.9850204E1,6.5350006E2,6.575802E1,4.8066516E0,1.6968351E1,1.0521582E0,1.3022351E0,1.6561901E1,1.624583E2],"tree_param":{"num_deleted":"0","num_feature":"24","num_nodes":"47","size_leaf_vector":"1"}},{"base_weights":[-3.241987E-3,-2.9970956E-1,4.8568316E-2,1.0393694E-1,-3.0863804E-1,1.5970707E-1,-2.8805143E-1,-8.4317213E-1,-2.357566E-1,-3.745339E-1,2.1475315E-1,-1.3159275E0,-1.7633277E-1,9.3742184E-2,-1.0834126E0,-7.5696304E-2,-4.6695912E-1,-1.8220495E-1,-7.9776275E-1,1.6047654E-1,1.3525118E0,-8.3420455E-1,-1.9148916E0,-8.117243E-1,-3.0372625E-2,7.0296913E-1,-1.1667203E0,-4.7018218E-1,-8.871189E-1,1.05585515E-1,-4.1741982E-1,-3.496024E-1,-7.4125654E-1,-3.319958E-1,2.7473446E-3,3.8686153E-1,-2.4950852E-1,-6.44396E-2,7.592979E-2,3.7784764E-1,5.863742E-1,-3.959987E-1,4.0957698E-1,-6.1197865E-1,-3.3511168E-1,-1.779487E-1,-3.3039677E-1,3.77485E-1,-1.14390925E-1,3.1319627E-1,-2.9140267E-1,-8.681089E-2,-3.8694668E-1,-1.733622E-1,-4.2234844E-1,1.026155E-1,-1.2542084E-1,5.963872E-2,-1.8168312E-1,1.3262868E-1,-1.4201859E-1,-1.221083E-2,-2.4301076E-1],"categories":[],"categories_nodes":[],"categories_segments":[],"categories_sizes":[],"default_left":[0,0,0,0,0,0,0,0,0,0,0,0,0,0,0,0,0,0,0,0,0,0,0,0,0,0,0,0,0,0,0,0,0,0,0,0,0,0,0,0,0,0,0,0,0,0,0,0,0,0,0,0,0,0,0,0,0,0,0,0,0,0,0],"id":18,"left_children":[1,-1,3,5,7,9,11,13,15,17,19,21,23,25,27,29,31,33,35,37,39,41,43,45,47,49,51,-1,53,55,57,59,61,-1,-1,-1,-1,-1,-1,-1,-1,-1,-1,-1,-1,-1,-1,-1,-1,-1,-1,-1,-1,-1,-1,-1,-1,-1,-1,-1,-1,-1,-1],"loss_changes":[3.4955222E2,0E0,1.27408005E2,1.2196005E2,3.3482155E1,1.4367206E2,7.9572235E1,2.3363235E1,2.817115E1,3.7010887E1,2.7318463E2,1.8015663E1,5.8215843E1,1.7723255E1,6.42968E0,2.8019413E1,9.77195E0,5.5760506E1,1.1153023E1,1.4697519E2,8.820404E0,4.3949867E1,6.6708374E-1,6.7694626E0,2.3189124E2,9.843252E0,4.4202042E-1,0E0,8.989258E0,3.6778522E1,1.8295816E1,2.178388E1,4.423088E0,0E0,0E0,0E0,0E0,0E0,0E0,0E0,0E0,0E0,0E0,0E0,0E0,0E0,0E0,0E0,0E0,0E0,0E0,0E0,0E0,0E0,0E0,0E0,0E0,0E0,0E0,0E0,0E0,0E0,0E0],"parents":[2147483647,0,0,2,2,3,3,4,4,5,5,6,6,7,7,8,8,9,9,10,10,11,11,12,12,13,13,14,14,15,15,16,16,17,17,18,18,19,19,20,20,21,21,22,22,23,23,24,24,25,25,26,26,28,28,29,29,30,30,31,31,32,32],"right_children":[2,-1,4,6,8,10,12,14,16,18,20,22,24,26,28,30,32,34,36,38,40,42,44,46,48,50,52,-1,54,56,58,60,62,-1,-1,-1,-1,-1,-1,-1,-1,-1,-1,-1,-1,-1,-1,-1,-1,-1,-1,-1,-1,-1,-1,-1,-1,-1,-1,-1,-1,-1,-1],"split_conditions":[0E0,-2.9970956E-1,8E-1,6.923077E-1,-2.612407E0,-7.1600604E-1,-6.235129E-1,-3.3333334E-1,9.08506E-1,2.1946156E0,4.6153846E-1,1E0,-6.4083815E-1,2.5E-1,-6.301007E-1,1E0,5E-1,-6.218914E-1,-5E-1,-6.3726187E-1,1E0,-5.303093E-1,1E0,1.1517967E0,5E-1,4.571745E-1,-6.301007E-1,-4.7018218E-1,6.666667E-1,4.151585E0,-5E-1,-3.846154E-1,-8.666667E-1,-3.319958E-1,2.7473446E-3,3.8686153E-1,-2.4950852E-1,-6.44396E-2,7.592979E-2,3.7784764E-1,5.863742E-1,-3.959987E-1,4.0957698E-1,-6.1197865E-1,-3.3511168E-1,-1.779487E-1,-3.3039677E-1,3.77485E-1,-1.14390925E-1,3.1319627E-1,-2.9140267E-1,-8.681089E-2,-3.8694668E-1,-1.733622E-1,-4.2234844E-1,1.026155E-1,-1.2542084E-1,5.963872E-2,-1.8168312E-1,1.3262868E-1,-1.4201859E-1,-1.221083E-2,-2.4301076E-1],"split_indices":[20,0,3,6,14,12,1,0,1,23,6,11,12,2,1,5,17,23,17,13,5,12,4,1,17,12,1,0,0,19,17,6,9,0,0,0,0,0,0,0,0,0,0,0,0,0,0,0,0,0,0,0,0,0,0,0,0,0,0,0,0,0,0],"split_type":[0,0,0,0,0,0,0,0,0,0,0,0,0,0,0,0,0,0,0,0,0,0,0,0,0,0,0,0,0,0,0,0,0,0,0,0,0,0,0,0,0,0,0,0,0,0,0,0,0,0,0,0,0,0,0,0,0,0,0,0,0,0,0],"sum_hessian":[6.7733555E3,3.3408014E2,6.4392754E3,5.5757217E3,8.635534E2,4.881762E3,6.9395984E2,1.023463E2,7.612071E2,4.5546964E2,4.4262925E3,6.697474E1,6.269851E2,2.1011873E1,8.133443E1,4.50592E2,3.106151E2,3.1414325E2,1.413264E2,4.2258403E3,2.0045207E2,3.8446495E1,2.852824E1,1.1627169E2,5.1071344E2,1.4463457E1,6.548417E0,2.145755E1,5.9876877E1,2.948613E2,1.5573073E2,2.1913422E2,9.148089E1,5.3055634E1,2.6108762E2,1.6688008E0,1.3965761E2,8.3626514E2,3.3895752E3,1.7630489E2,2.4147182E1,3.1818628E1,6.627868E0,2.3317259E1,5.210981E0,6.799989E1,4.82718E1,1.0875763E2,4.0195578E2,1.2328828E1,2.1346285E0,1.2180431E0,5.330374E0,3.889013E1,2.0986748E1,2.0337178E2,9.148951E1,3.6419964E1,1.1931076E2,2.9283688E1,1.8985052E2,8.320808E0,8.316008E1],"tree_param":{"num_deleted":"0","num_feature":"24","num_nodes":"63","size_leaf_vector":"1"}},{"base_weights":[-4.30846E-3,-2.992421E-1,3.5376817E-2,7.87618E-2,-3.8740414E-1,4.357857E-2,1.2901598E0,-2.3316033E-1,-8.38003E-1,9.451709E-2,-6.847234E-1,3.6924076E-1,2.3100305E0,4.269868E-1,-4.6815333E-1,-1.5476004E0,-6.901934E-1,4.669494E-2,1.3115227E0,-8.965854E-1,-2.3960602E-1,2.646554E-1,7.798289E-1,-2.4061614E-1,-7.915117E-1,-4.8741665E-1,-6.146402E-1,-8.229964E-1,-2.4066593E-1,3.4592398E-2,-2.2753052E-1,3.6877167E-1,7.997062E-1,-4.719343E-1,-2.3438422E-1,3.836944E-1,-1.2434441E-1,4.5272735E-1,-1.9421168E-1,-2.4294034E-1,3.5516603E-3,-2.2790034E-1,-4.3745473E-2,-2.0461474E-1,-3.201219E-1,-9.930288E-2,1.24773346E-1],"categories":[],"categories_nodes":[],"categories_segments":[],"categories_sizes":[],"default_left":[0,0,0,0,0,0,0,0,0,0,0,0,0,0,0,0,0,0,0,0,0,0,0,0,0,0,0,0,0,0,0,0,0,0,0,0,0,0,0,0,0,0,0,0,0,0,0],"id":19,"left_children":[1,-1,3,5,7,9,11,13,15,17,19,-1,21,-1,23,25,27,29,31,33,35,-1,-1,37,39,-1,41,43,45,-1,-1,-1,-1,-1,-1,-1,-1,-1,-1,-1,-1,-1,-1,-1,-1,-1,-1],"loss_changes":[2.5524101E2,0E0,1.14251465E2,2.4068605E2,4.009619E1,2.0373874E2,6.805481E0,1.6931705E2,1.4397293E1,2.9862405E2,3.3640503E1,0E0,8.57914E-1,0E0,2.7782417E1,7.72419E-1,7.194805E0,2.7293323E2,1.8340118E1,1.7716354E1,3.1637152E1,0E0,0E0,1.6082303E2,2.3103943E0,0E0,1.2637329E-1,2.546646E0,1.8967203E0,0E0,0E0,0E0,0E0,0E0,0E0,0E0,0E0,0E0,0E0,0E0,0E0,0E0,0E0,0E0,0E0,0E0,0E0],"parents":[2147483647,0,0,2,2,3,3,4,4,5,5,6,6,7,7,8,8,9,9,10,10,12,12,14,14,15,15,16,16,17,17,18,18,19,19,20,20,23,23,24,24,26,26,27,27,28,28],"right_children":[2,-1,4,6,8,10,12,14,16,18,20,-1,22,-1,24,26,28,30,32,34,36,-1,-1,38,40,-1,42,44,46,-1,-1,-1,-1,-1,-1,-1,-1,-1,-1,-1,-1,-1,-1,-1,-1,-1,-1],"split_conditions":[0E0,-2.992421E-1,6.4847124E-1,5.801777E-1,-3.0769232E-1,5.77831E-1,4.151585E0,1E0,-6.199993E-1,4.6782047E-1,1.7152622E-2,3.6924076E-1,-2.6666668E-1,4.269868E-1,6.725653E-1,1E0,6.666667E-1,4.654585E-1,4.151585E0,-6.218914E-1,2.0793788E0,2.646554E-1,7.798289E-1,1.833512E-1,5.014774E0,-4.8741665E-1,1.3333334E-1,1.3761166E0,8E-1,3.4592398E-2,-2.2753052E-1,3.6877167E-1,7.997062E-1,-4.719343E-1,-2.3438422E-1,3.836944E-1,-1.2434441E-1,4.5272735E-1,-1.9421168E-1,-2.4294034E-1,3.5516603E-3,-2.2790034E-1,-4.3745473E-2,-2.0461474E-1,-3.201219E-1,-9.930288E-2,1.24773346E-1],"split_indices":[20,0,12,12,6,12,19,11,1,12,18,0,9,0,12,8,8,12,19,23,18,0,0,13,19,0,9,1,9,0,0,0,0,0,0,0,0,0,0,0,0,0,0,0,0,0,0],"split_type":[0,0,0,0,0,0,0,0,0,0,0,0,0,0,0,0,0,0,0,0,0,0,0,0,0,0,0,0,0,0,0,0,0,0,0,0,0,0,0,0,0,0,0,0,0,0,0],"sum_hessian":[6.473996E3,2.4782343E2,6.2261724E3,5.647455E3,5.7871747E2,5.4890693E3,1.5838579E2,4.3226645E2,1.4645103E2,5.131065E3,3.5800412E2,1.5176006E2,6.6257415E0,5.3076576E1,3.7918988E2,2.3614313E1,1.22836716E2,4.9380625E3,1.9300247E2,2.4186813E2,1.16136E2,1.798851E0,4.8268905E0,2.2359627E2,1.5559361E2,2.1126457E1,2.487856E0,9.418194E1,2.8654781E1,4.5510776E3,3.8698526E2,1.8374522E2,9.257252E0,3.3379143E1,2.0848898E2,1.13407955E1,1.04795204E2,4.1663967E1,1.819323E2,1.521223E2,3.471306E0,1.426271E0,1.061585E0,6.210973E1,3.207221E1,2.5624727E1,3.030054E0],"tree_param":{"num_deleted":"0","num_feature":"24","num_nodes":"47","size_leaf_vector":"1"}},{"base_weights":[-3.5927761E-3,-2.9870877E-1,2.6882319E-2,-2.0065537E-1,1.0189012E-1,-3.9206427E-2,-7.1968853E-1,1.3077615E0,5.156228E-2,-2.6599845E-1,1.3141693E0,-4.892922E-1,-6.660618E-1,1.2289584E0,2.4937825E0,-6.0906756E-1,1.0488396E-1,-6.42527E-2,-6.196988E-1,1.2356645E0,2.1747115E0,-5.123005E-1,-9.1590196E-1,1.1346874E0,1.7172474E0,8.887669E-1,4.3795148E-1,3.5991985E-1,-6.453589E-1,1.3310809E0,5.9057873E-2,-1.0516276E-1,3.8008913E-1,-1.3363303E-1,-3.1219935E-1,3.593137E-1,5.184163E-1,7.675734E-1,2.6262715E-1,-1.845653E-1,-2.8624084E-2,-3.0818936E-1,-1.4581166E-1,3.291345E-1,5.470848E-1,4.1961446E-1,6.8489116E-1,-3.517989E-1,-1.6910644E-1,3.806799E-1,6.8616724E-1,4.2111777E-2,-1.0347202E-1],"categories":[],"categories_nodes":[],"categories_segments":[],"categories_sizes":[],"default_left":[0,0,0,0,0,0,0,0,0,0,0,0,0,0,0,0,0,0,0,0,0,0,0,0,0,0,0,0,0,0,0,0,0,0,0,0,0,0,0,0,0,0,0,0,0,0,0,0,0,0,0,0,0],"id":20,"left_children":[1,-1,3,5,7,9,11,13,15,17,19,-1,21,23,25,27,29,31,33,35,37,39,41,43,45,-1,-1,-1,47,49,51,-1,-1,-1,-1,-1,-1,-1,-1,-1,-1,-1,-1,-1,-1,-1,-1,-1,-1,-1,-1,-1,-1],"loss_changes":[1.8755492E2,0E0,1.0274042E2,1.25037766E2,2.7467816E2,3.5008264E2,1.621553E1,1.3882904E1,1.531832E2,6.965744E1,8.372162E0,0E0,1.2440674E1,5.969116E0,6.8000793E-1,2.2094582E1,2.2598079E2,2.3791055E2,2.5551788E1,7.770386E-1,3.9297066E0,8.964085E0,5.570572E0,1.8074036E0,1.47155E0,0E0,0E0,0E0,1.3078964E1,5.707184E0,1.2747041E2,0E0,0E0,0E0,0E0,0E0,0E0,0E0,0E0,0E0,0E0,0E0,0E0,0E0,0E0,0E0,0E0,0E0,0E0,0E0,0E0,0E0,0E0],"parents":[2147483647,0,0,2,2,3,3,4,4,5,5,6,6,7,7,8,8,9,9,10,10,12,12,13,13,14,14,15,15,16,16,17,17,18,18,19,19,20,20,21,21,22,22,23,23,24,24,28,28,29,29,30,30],"right_children":[2,-1,4,6,8,10,12,14,16,18,20,-1,22,24,26,28,30,32,34,36,38,40,42,44,46,-1,-1,-1,48,50,52,-1,-1,-1,-1,-1,-1,-1,-1,-1,-1,-1,-1,-1,-1,-1,-1,-1,-1,-1,-1,-1,-1],"split_conditions":[0E0,-2.9870877E-1,-5.303093E-1,-5.345415E-1,-3.8809487E-1,-6.4083815E-1,-6.266231E-1,4.1587577E0,-3.714669E-1,-6.469139E-1,4.151585E0,-4.892922E-1,1.8751079E0,1E0,4.064709E-1,2.3076923E-1,-2.1755418E-1,-7.1600604E-1,2.2027042E0,4.1587577E0,5.014774E0,1E0,1.5605128E-2,4.151585E0,5E-1,8.887669E-1,4.3795148E-1,3.5991985E-1,-6.218914E-1,4.151585E0,7.0212287E-1,-1.0516276E-1,3.8008913E-1,-1.3363303E-1,-3.1219935E-1,3.593137E-1,5.184163E-1,7.675734E-1,2.6262715E-1,-1.845653E-1,-2.8624084E-2,-3.0818936E-1,-1.4581166E-1,3.291345E-1,5.470848E-1,4.1961446E-1,6.8489116E-1,-3.517989E-1,-1.6910644E-1,3.806799E-1,6.8616724E-1,4.2111777E-2,-1.0347202E-1],"split_indices":[20,0,12,12,12,12,1,18,12,12,19,0,1,5,1,6,12,12,1,18,19,4,19,19,4,0,0,0,23,19,13,0,0,0,0,0,0,0,0,0,0,0,0,0,0,0,0,0,0,0,0,0,0],"split_type":[0,0,0,0,0,0,0,0,0,0,0,0,0,0,0,0,0,0,0,0,0,0,0,0,0,0,0,0,0,0,0,0,0,0,0,0,0,0,0,0,0,0,0,0,0,0,0,0,0,0,0,0,0],"sum_hessian":[6.2014688E3,1.8387361E2,6.017595E3,1.4914813E3,4.5261143E3,1.1384377E3,3.5304358E2,1.8033134E2,4.3457827E3,9.7573267E2,1.6270502E2,1.7986324E1,3.3505725E2,1.7100537E2,9.325977E0,3.237877E2,4.021995E3,6.220855E2,3.536472E2,1.5133507E2,1.1369949E1,2.0929776E2,1.2575948E2,1.4611891E2,2.4886456E1,5.1333175E0,4.1926594E0,5.738068E0,3.1804962E2,1.4388658E2,3.8781084E3,5.12586E2,1.0949947E2,2.515699E2,1.0207727E2,1.436921E2,7.6429667E0,8.028703E0,3.3412464E0,1.6747688E2,4.182089E1,9.877328E1,2.6986206E1,1.410205E2,5.098423E0,1.814326E1,6.743197E0,4.086274E1,2.771869E2,1.3729005E2,6.596527E0,3.2288252E3,6.4928314E2],"tree_param":{"num_deleted":"0","num_feature":"24","num_nodes":"53","size_leaf_vector":"1"}},{"base_weights":[-8.2398736E-4,-2.9806316E-1,2.2815594E-2,-3.7625897E-1,6.1794657E-2,-2.7846175E-1,-9.870996E-1,3.7948623E-1,3.1084498E-2,-1.308963E-1,-6.40961E-1,3.2540175E-1,-1.0392402E0,-6.231214E-1,7.398604E-2,4.140407E-1,-3.307707E-1,-8.2640195E-1,9.267915E-1,-1.1516284E0,-8.2080173E-1,-3.614465E-1,-8.830892E-1,1.3528051E0,2.2279225E-2,-2.77108E-2,-2.0460063E-1,-4.4982606E-1,-2.0766054E-1,4.387097E-1,-2.2511677E-1,-3.5342258E-1,-1.13133855E-1,-2.732488E-1,-1.0669395E-2,4.410125E-1,-1.8117827E-1,3.289024E-1,-2.736838E-1,3.848069E-1,7.980508E-1,-2.1995558E-1,2.5270874E-2],"categories":[],"categories_nodes":[],"categories_segments":[],"categories_sizes":[],"default_left":[0,0,0,0,0,0,0,0,0,0,0,0,0,0,0,0,0,0,0,0,0,0,0,0,0,0,0,0,0,0,0,0,0,0,0,0,0,0,0,0,0,0,0],"id":21,"left_children":[1,-1,3,5,7,9,11,-1,13,15,17,-1,19,21,23,-1,25,27,29,31,33,35,37,39,41,-1,-1,-1,-1,-1,-1,-1,-1,-1,-1,-1,-1,-1,-1,-1,-1,-1,-1],"loss_changes":[1.3870291E2,0E0,8.982533E1,3.0420921E1,1.9431934E2,2.3683594E1,8.745064E0,0E0,1.4403424E2,9.620436E1,3.8062237E1,0E0,7.5603485E-1,2.1166046E1,3.1838345E2,0E0,2.3449417E1,9.371056E0,1.3709478E1,4.4218445E-1,1.8779755E0,7.154117E1,1.01143875E1,1.37404785E1,2.1674257E2,0E0,0E0,0E0,0E0,0E0,0E0,0E0,0E0,0E0,0E0,0E0,0E0,0E0,0E0,0E0,0E0,0E0,0E0],"parents":[2147483647,0,0,2,2,3,3,4,4,5,5,6,6,8,8,9,9,10,10,12,12,13,13,14,14,16,16,17,17,18,18,19,19,20,20,21,21,22,22,23,23,24,24],"right_children":[2,-1,4,6,8,10,12,-1,14,16,18,-1,20,22,24,-1,26,28,30,32,34,36,38,40,42,-1,-1,-1,-1,-1,-1,-1,-1,-1,-1,-1,-1,-1,-1,-1,-1,-1,-1],"split_conditions":[0E0,-2.9806316E-1,-7.1039325E-1,2.7121623E0,-6.418953E-1,1.4847122E-1,0E0,3.7948623E-1,-6.3726187E-1,7.692308E-2,2.5824592E0,3.2540175E-1,4E-1,3.1901193E-1,-5.253041E-1,4.140407E-1,-3.4541477E-2,-6.235129E-1,-2.5E-1,1E0,1E0,2.3076923E-1,-7.692308E-2,4.151585E0,-5.2063423E-1,-2.77108E-2,-2.0460063E-1,-4.4982606E-1,-2.0766054E-1,4.387097E-1,-2.2511677E-1,-3.5342258E-1,-1.13133855E-1,-2.732488E-1,-1.0669395E-2,4.410125E-1,-1.8117827E-1,3.289024E-1,-2.736838E-1,3.848069E-1,7.980508E-1,-2.1995558E-1,2.5270874E-2],"split_indices":[20,0,13,23,13,12,6,0,13,6,23,0,3,12,13,0,12,1,2,16,8,6,6,19,13,0,0,0,0,0,0,0,0,0,0,0,0,0,0,0,0,0,0],"split_type":[0,0,0,0,0,0,0,0,0,0,0,0,0,0,0,0,0,0,0,0,0,0,0,0,0,0,0,0,0,0,0,0,0,0,0,0,0,0,0,0,0,0,0],"sum_hessian":[5.9084634E3,1.364711E2,5.771992E3,5.1283575E2,5.2591562E3,4.4331558E2,6.952015E1,1.2989645E2,5.12926E3,3.1602847E2,1.27287125E2,1.2205269E0,6.829962E1,3.148337E2,4.8144263E3,3.6229767E1,2.797987E2,1.14246414E2,1.3040712E1,4.227615E1,2.6023476E1,1.5809296E2,1.5674075E2,1.8612004E2,4.628306E3,1.6742232E2,1.1237637E2,1.7302216E1,9.69442E1,9.981425E0,3.0592873E0,4.0376396E1,1.8997533E0,2.3203276E1,2.8202014E0,1.7891775E1,1.4020119E2,1.7465351E0,1.5499422E2,1.7852655E2,7.593477E0,3.4998447E2,4.278322E3],"tree_param":{"num_deleted":"0","num_feature":"24","num_nodes":"43","size_leaf_vector":"1"}},{"base_weights":[-5.8923726E-4,-2.9725027E-1,1.7532827E-2,7.501255E-2,-2.5473592E-1,3.7742704E-2,1.2300427E0,-5.89091E-1,-7.8964986E-2,8.80117E-2,-5.568289E-1,1.1756121E0,5.42959E-1,-7.581325E-1,-2.4024928E-1,1.213473E0,-3.719603E-1,1.7488476E-2,1.2775546E0,-4.6328908E-1,-4.744213E-1,3.3368993E-1,4.249181E-1,-1.266738E0,-6.603929E-1,3.507413E-1,-3.7082478E-1,3.5046294E-1,5.198703E-1,-2.4571933E-1,-7.299454E-1,2.7416527E-2,-1.8417026E-1,3.5972762E-1,8.8012207E-1,-2.0814285E-1,-1.1152964E-1,-3.8974813E-1,-1.3683449E-1,-1.22860394E-1,-2.917194E-1,-2.7310824E-1,-3.8489774E-2,3.8942218E-1,-1.2885907E-1,-4.0002045E-1,-1.821434E-1],"categories":[],"categories_nodes":[],"categories_segments":[],"categories_sizes":[],"default_left":[0,0,0,0,0,0,0,0,0,0,0,0,0,0,0,0,0,0,0,0,0,0,0,0,0,0,0,0,0,0,0,0,0,0,0,0,0,0,0,0,0,0,0,0,0,0,0],"id":22,"left_children":[1,-1,3,5,7,9,11,13,15,17,19,21,-1,23,25,27,29,31,33,-1,35,-1,-1,37,39,-1,41,-1,-1,43,45,-1,-1,-1,-1,-1,-1,-1,-1,-1,-1,-1,-1,-1,-1,-1,-1],"loss_changes":[1.0218892E2,0E0,8.7536095E1,1.9875453E2,5.725527E1,1.3379471E2,2.4272156E0,1.9619644E1,2.4288791E2,3.4618033E2,2.76651E1,4.7940063E-1,0E0,1.0384659E1,2.0874344E1,7.6283264E-1,2.3441261E1,1.8188347E2,2.649466E1,0E0,7.0286026E0,0E0,0E0,3.3512497E-1,1.4584953E1,0E0,1.3284147E1,0E0,0E0,1.1063388E2,9.250587E0,0E0,0E0,0E0,0E0,0E0,0E0,0E0,0E0,0E0,0E0,0E0,0E0,0E0,0E0,0E0,0E0],"parents":[2147483647,0,0,2,2,3,3,4,4,5,5,6,6,7,7,8,8,9,9,10,10,11,11,13,13,14,14,15,15,16,16,17,17,18,18,20,20,23,23,24,24,26,26,29,29,30,30],"right_children":[2,-1,4,6,8,10,12,14,16,18,20,22,-1,24,26,28,30,32,34,-1,36,-1,-1,38,40,-1,42,-1,-1,44,46,-1,-1,-1,-1,-1,-1,-1,-1,-1,-1,-1,-1,-1,-1,-1,-1],"split_conditions":[0E0,-2.9725027E-1,5.77831E-1,4.6782047E-1,5.801777E-1,4.654585E-1,4.151585E0,1.7152622E-2,6.4847124E-1,3.2834706E-1,-6.266231E-1,1E0,5.42959E-1,-5.8939016E-1,2.0793788E0,4.151585E0,-3.0769232E-1,3.1901193E-1,4.151585E0,-4.6328908E-1,-3.3333334E-1,3.3368993E-1,4.249181E-1,1E0,2.1300797E0,3.507413E-1,0E0,3.5046294E-1,5.198703E-1,1E0,-6.199993E-1,2.7416527E-2,-1.8417026E-1,3.5972762E-1,8.8012207E-1,-2.0814285E-1,-1.1152964E-1,-3.8974813E-1,-1.3683449E-1,-1.22860394E-1,-2.917194E-1,-2.7310824E-1,-3.8489774E-2,3.8942218E-1,-1.2885907E-1,-4.0002045E-1,-1.821434E-1],"split_indices":[20,0,12,12,12,12,19,18,12,12,1,5,0,1,18,19,6,12,19,0,8,0,0,8,23,0,0,0,0,11,1,0,0,0,0,0,0,0,0,0,0,0,0,0,0,0,0],"split_type":[0,0,0,0,0,0,0,0,0,0,0,0,0,0,0,0,0,0,0,0,0,0,0,0,0,0,0,0,0,0,0,0,0,0,0,0,0,0,0,0,0,0,0,0,0,0,0],"sum_hessian":[5.6925034E3,1.0133929E2,5.5911646E3,4.617145E3,9.7401917E2,4.4738193E3,1.4332593E2,3.3480142E2,6.392177E2,4.125845E3,3.479741E2,1.3379361E2,9.532325E0,2.2472906E2,1.1007235E2,1.17549774E2,5.2166797E2,3.8958884E3,2.2995686E2,2.5436447E1,3.2253763E2,1.103873E2,2.340631E1,3.4297195E1,1.9043187E2,8.658776E0,1.01413574E2,1.111161E2,6.4336796E0,3.8691235E2,1.347556E2,3.4884443E3,4.0744406E2,2.2120137E2,8.755506E0,1.00977554E2,2.2156009E2,3.2398685E1,1.8985087E0,1.0684167E2,8.359021E1,3.0595478E1,7.081809E1,4.0521107E1,3.4639124E2,2.1118547E1,1.1363705E2],"tree_param":{"num_deleted":"0","num_feature":"24","num_nodes":"47","size_leaf_vector":"1"}},{"base_weights":[1.215324E-3,-2.616819E-1,5.5702984E-2,-1.3752064E-1,-6.074627E-1,1.2317077E0,2.2505578E-2,-6.9086933E-1,-2.4223424E-2,-4.563118E-1,-9.9701464E-1,3.5329282E-1,1.6503875E0,-5.253031E-1,6.526193E-2,-1.2399813E0,1.1033336E-1,1.2692884E-1,-3.7030113E-1,-2.4497324E-1,-8.230372E-1,-6.4071953E-1,-1.1047049E0,5.425241E-1,2.3980409E-1,-1.0476352E0,-4.5552817E-1,3.6040947E-1,2.8421182E-2,-1.368048E0,-8.317158E-1,6.1816883E-1,-4.529232E-1,2.9939923E-1,-5.119657E-1,-4.2301574E-1,9.578314E-1,-5.4025596E-1,3.6711538E-1,-1.0424099E0,-2.0548803E-1,-8.083867E-1,2.212754E-1,-1.1373774E0,2.9252112E-2,7.940744E-2,-1.2415365E0,-3.0015367E-1,-7.1195275E-1,9.4900854E-2,-3.0799535E-1,-4.5327893E-1,-2.751099E-1,5.915501E-2,-3.5126993E-1,2.8077444E-1,-3.0679446E-1,1.8458357E-1,-9.999904E-2,-1.9822093E-2,-2.1278363E-1,-2.419732E-1,-9.657295E-2,5.068604E-1,-1.9411087E-1,7.109534E-2,-2.4774311E-1,-3.8080636E-1,-1.8439172E-1,2.9838064E-1,-2.1350531E-1,-1.1878164E-2,-3.1064537E-1,3.034338E-1,-2.0070869E-1,-3.5423493E-1,-1.9925068E-1,-3.086359E-1,2.9186675E-1,-4.1140553E-1,-1.4632139E-1,-5.5761397E-2,-1.9285871E-1,-2.4936804E-1,-6.260508E-2,4.0852264E-1,2.584615E-3,-2.0193748E-1,2.53565E-2],"categories":[],"categories_nodes":[],"categories_segments":[],"categories_sizes":[],"default_left":[0,0,0,0,0,0,0,0,0,0,0,0,0,0,0,0,0,0,0,0,0,0,0,0,0,0,0,0,0,0,0,0,0,0,0,0,0,0,0,0,0,0,0,0,0,0,0,0,0,0,0,0,0,0,0,0,0,0,0,0,0,0,0,0,0,0,0,0,0,0,0,0,0,0,0,0,0,0,0,0,0,0,0,0,0,0,0,0,0],"id":23,"left_children":[1,3,5,7,9,11,13,15,17,19,21,-1,23,25,27,29,31,33,35,37,39,41,43,-1,-1,45,47,-1,49,51,53,55,-1,57,59,61,63,65,-1,67,69,71,73,75,-1,77,79,81,83,85,87,-1,-1,-1,-1,-1,-1,-1,-1,-1,-1,-1,-1,-1,-1,-1,-1,-1,-1,-1,-1,-1,-1,-1,-1,-1,-1,-1,-1,-1,-1,-1,-1,-1,-1,-1,-1,-1,-1],"loss_changes":[7.813412E1,4.0119217E1,1.7635974E2,4.3260303E1,1.4095375E1,8.637848E-1,1.02976845E2,5.173472E1,3.007429E1,1.3739506E1,1.9103546E0,0E0,1.2692833E-1,1.1123764E1,1.706399E2,2.504898E0,4.092739E1,4.425918E1,1.2639854E1,5.0767944E1,8.637512E0,2.8119292E0,2.1148186E0,0E0,0E0,8.127735E0,1.1044346E1,0E0,8.838616E1,1.9321136E0,6.926779E0,2.0622665E1,0E0,6.332605E1,7.4713745E0,6.28545E0,9.286855E0,2.170031E1,0E0,3.8764534E0,1.186856E1,2.6593256E0,3.3159835E0,2.3755646E-1,0E0,7.271584E0,2.4045258E0,6.8395386E0,6.1825523E0,3.6066574E2,9.351832E1,0E0,0E0,0E0,0E0,0E0,0E0,0E0,0E0,0E0,0E0,0E0,0E0,0E0,0E0,0E0,0E0,0E0,0E0,0E0,0E0,0E0,0E0,0E0,0E0,0E0,0E0,0E0,0E0,0E0,0E0,0E0,0E0,0E0,0E0,0E0,0E0,0E0,0E0],"parents":[2147483647,0,0,1,1,2,2,3,3,4,4,5,5,6,6,7,7,8,8,9,9,10,10,12,12,13,13,14,14,15,15,16,16,17,17,18,18,19,19,20,20,21,21,22,22,25,25,26,26,28,28,29,29,30,30,31,31,33,33,34,34,35,35,36,36,37,37,39,39,40,40,41,41,42,42,43,43,45,45,46,46,47,47,48,48,49,49,50,50],"right_children":[2,4,6,8,10,12,14,16,18,20,22,-1,24,26,28,30,32,34,36,38,40,42,44,-1,-1,46,48,-1,50,52,54,56,-1,58,60,62,64,66,-1,68,70,72,74,76,-1,78,80,82,84,86,88,-1,-1,-1,-1,-1,-1,-1,-1,-1,-1,-1,-1,-1,-1,-1,-1,-1,-1,-1,-1,-1,-1,-1,-1,-1,-1,-1,-1,-1,-1,-1,-1,-1,-1,-1,-1,-1,-1],"split_conditions":[-6.4083815E-1,2.2027042E0,-5.345415E-1,-6.218914E-1,6.666667E-1,4.151585E0,-5.303093E-1,1.7152622E-2,1E0,-6.469139E-1,-5E-1,3.5329282E-1,5.014774E0,-6.0700476E-1,-3.8809487E-1,7.5E-1,3.3333334E-1,4.151585E0,2.191566E0,-7.1600604E-1,1.5605128E-2,4.258185E0,2.1314118E0,5.425241E-1,2.3980409E-1,-7.5E-1,1.8721792E0,3.6040947E-1,7.0212287E-1,6.666667E-1,-6.666667E-1,5E-1,-4.529232E-1,4.1587577E0,-3.6079615E-1,-5E-1,-5.9698933E-1,-4E-1,3.6711538E-1,-3.5647422E-1,2.0757926E0,2.380432E0,1.3333334E-1,1E0,2.9252112E-2,5.3333336E-1,1E0,4.1587577E0,3.705626E0,-6.923077E-1,7.022398E-1,-4.5327893E-1,-2.751099E-1,5.915501E-2,-3.5126993E-1,2.8077444E-1,-3.0679446E-1,1.8458357E-1,-9.999904E-2,-1.9822093E-2,-2.1278363E-1,-2.419732E-1,-9.657295E-2,5.068604E-1,-1.9411087E-1,7.109534E-2,-2.4774311E-1,-3.8080636E-1,-1.8439172E-1,2.9838064E-1,-2.1350531E-1,-1.1878164E-2,-3.1064537E-1,3.034338E-1,-2.0070869E-1,-3.5423493E-1,-1.9925068E-1,-3.086359E-1,2.9186675E-1,-4.1140553E-1,-1.4632139E-1,-5.5761397E-2,-1.9285871E-1,-2.4936804E-1,-6.260508E-2,4.0852264E-1,2.584615E-3,-2.0193748E-1,2.53565E-2],"split_indices":[12,1,12,23,0,19,12,18,5,12,2,0,19,23,12,2,0,19,18,12,19,1,19,0,0,2,23,0,13,8,8,4,0,18,1,2,1,3,0,13,19,23,9,8,0,9,4,18,1,6,13,0,0,0,0,0,0,0,0,0,0,0,0,0,0,0,0,0,0,0,0,0,0,0,0,0,0,0,0,0,0,0,0,0,0,0,0,0,0],"split_type":[0,0,0,0,0,0,0,0,0,0,0,0,0,0,0,0,0,0,0,0,0,0,0,0,0,0,0,0,0,0,0,0,0,0,0,0,0,0,0,0,0,0,0,0,0,0,0,0,0,0,0,0,0,0,0,0,0,0,0,0,0,0,0,0,0,0,0,0,0,0,0,0,0,0,0,0,0,0,0,0,0,0,0,0,0,0,0,0,0],"sum_hessian":[5.4525024E3,9.3541595E2,4.5170864E3,6.8930237E2,2.4611357E2,1.2302082E2,4.3940654E3,1.16281334E2,5.7302106E2,1.7887805E2,6.723551E1,1.12328384E2,1.0692439E1,3.1730914E2,4.0767563E3,6.867003E1,4.761131E1,3.992699E2,1.7375114E2,1.1453893E2,6.433913E1,1.721826E1,5.001725E1,8.069167E0,2.6232712E0,3.5740788E1,2.8156836E2,1.2705319E2,3.9497031E3,5.04833E1,1.8186726E1,3.671951E1,1.0891802E1,3.1481625E2,8.445367E1,1.6777357E2,5.9775686E0,9.589187E1,1.8647064E1,4.6967003E1,1.737212E1,1.4466553E1,2.7517066E0,4.8746403E1,1.2708489E0,5.333065E0,3.0407722E1,1.7668234E2,1.0488601E2,3.298584E3,6.5111914E2,3.655317E1,1.3930129E1,4.6127644E0,1.3573961E1,3.1122253E1,5.5972533E0,2.1000328E2,1.04812965E2,2.6316957E1,5.8136715E1,3.354347E1,1.3423012E2,4.0694423E0,1.9081265E0,2.581017E1,7.00817E1,2.9401373E1,1.756563E1,4.8674693E0,1.2504651E1,3.5666714E0,1.0899881E1,1.385748E0,1.3659586E0,4.328111E1,5.465292E0,2.3129082E0,3.0201569E0,2.5241507E1,5.1662154E0,1.3365503E2,4.3027313E1,8.426392E1,2.0622084E1,2.0939978E2,3.0891843E3,3.3695758E2,3.141616E2],"tree_param":{"num_deleted":"0","num_feature":"24","num_nodes":"89","size_leaf_vector":"1"}},{"base_weights":[2.116378E-3,-2.9630142E-1,1.7212274E-2,1.000912E-1,-1.4671773E-1,1.2134231E-1,-5.641771E-1,-5.8266747E-1,-1.0282255E-1,-2.7019468E-1,1.5665343E-1,-1.1469707E0,-4.416789E-1,-1.3027278E0,-4.5818648E-1,3.6791852E-1,-1.2437228E-1,-1.4454988E-1,-6.471179E-1,1.8179251E-1,-4.6141917E-1,7.29563E-2,-1.2743481E0,-1.4212888E-1,-8.136674E-1,-7.5692034E-1,-4.2493346E-1,-2.6003307E-1,-8.3522326E-1,-5.055327E-1,-8.179906E-2,-2.045651E-1,2.8194564E-3,2.7793798E-1,-2.0829733E-1,4.1020122E-1,4.4893492E-2,-1.898806E-2,-2.8197885E-1,-4.567457E-1,-2.2944435E-1,5.5572316E-2,-1.2381615E-1,-2.846536E-1,9.091772E-2,1.16022475E-1,-3.2448804E-1,-8.736753E-3,-2.294894E-1,-3.0396113E-1,-9.9603616E-2,-1.023865E-1,-2.8448144E-1,3.4919566E-1,-3.1257153E-2],"categories":[],"categories_nodes":[],"categories_segments":[],"categories_sizes":[],"default_left":[0,0,0,0,0,0,0,0,0,0,0,0,0,0,0,0,0,0,0,0,0,0,0,0,0,0,0,0,0,0,0,0,0,0,0,0,0,0,0,0,0,0,0,0,0,0,0,0,0,0,0,0,0,0,0],"id":24,"left_children":[1,-1,3,5,7,9,11,13,15,17,19,21,23,25,27,-1,29,31,33,35,37,-1,39,41,43,45,-1,47,49,51,53,-1,-1,-1,-1,-1,-1,-1,-1,-1,-1,-1,-1,-1,-1,-1,-1,-1,-1,-1,-1,-1,-1,-1,-1],"loss_changes":[7.774586E1,0E0,6.964422E1,4.8129074E1,3.288055E1,4.566501E1,7.0408287E0,1.34983635E1,4.4984406E1,1.2851858E1,4.712477E1,3.4504204E0,9.799728E0,3.3281708E-1,9.91498E0,0E0,2.4965828E1,1.70717E1,5.6983166E0,1.1069884E2,2.2536413E1,0E0,9.1000557E-1,4.550169E0,6.2474575E0,2.665231E0,0E0,1.0511939E1,3.8074837E0,1.0921391E1,3.882332E1,0E0,0E0,0E0,0E0,0E0,0E0,0E0,0E0,0E0,0E0,0E0,0E0,0E0,0E0,0E0,0E0,0E0,0E0,0E0,0E0,0E0,0E0,0E0,0E0],"parents":[2147483647,0,0,2,2,3,3,4,4,5,5,6,6,7,7,8,8,9,9,10,10,11,11,12,12,13,13,14,14,16,16,17,17,18,18,19,19,20,20,22,22,23,23,24,24,25,25,27,27,28,28,29,29,30,30],"right_children":[2,-1,4,6,8,10,12,14,16,18,20,22,24,26,28,-1,30,32,34,36,38,-1,40,42,44,46,-1,48,50,52,54,-1,-1,-1,-1,-1,-1,-1,-1,-1,-1,-1,-1,-1,-1,-1,-1,-1,-1,-1,-1,-1,-1,-1,-1],"split_conditions":[0E0,-2.9630142E-1,5E-1,9.3333334E-1,-7.1039325E-1,-8E-1,-4.9828306E-1,-6.218914E-1,-6.418953E-1,4.654585E-1,7.2712153E-1,-6E-1,1.1793705E0,-6.301007E-1,2.1946156E0,3.6791852E-1,-7.1600604E-1,-6.4083815E-1,0E0,-7.692308E-1,4.3344912E-1,7.29563E-2,-6.218914E-1,-3.3333334E-1,1E0,-3.3333334E-1,-4.2493346E-1,1E0,6.666667E-1,2.1946156E0,-6.469139E-1,-2.045651E-1,2.8194564E-3,2.7793798E-1,-2.0829733E-1,4.1020122E-1,4.4893492E-2,-1.898806E-2,-2.8197885E-1,-4.567457E-1,-2.2944435E-1,5.5572316E-2,-1.2381615E-1,-2.846536E-1,9.091772E-2,1.16022475E-1,-3.2448804E-1,-8.736753E-3,-2.294894E-1,-3.0396113E-1,-9.9603616E-2,-1.023865E-1,-2.8448144E-1,3.4919566E-1,-3.1257153E-2],"split_indices":[20,0,2,9,13,9,23,23,13,12,13,3,1,1,23,0,12,12,17,6,1,0,23,8,8,0,0,5,8,23,12,0,0,0,0,0,0,0,0,0,0,0,0,0,0,0,0,0,0,0,0,0,0,0,0],"split_type":[0,0,0,0,0,0,0,0,0,0,0,0,0,0,0,0,0,0,0,0,0,0,0,0,0,0,0,0,0,0,0,0,0,0,0,0,0,0,0,0,0,0,0,0,0,0,0,0,0,0,0,0,0,0,0],"sum_hessian":[5.201131E3,7.7166306E1,5.123965E3,3.403586E3,1.7203788E3,3.2988667E3,1.0471921E2,1.5625377E2,1.564125E3,2.723494E2,3.0265173E3,1.6735538E1,8.7983665E1,2.1635853E1,1.3461792E2,2.4061605E1,1.5400635E3,2.0529814E2,6.705125E1,2.9089082E3,1.1760916E2,1.3284162E0,1.5407124E1,4.950279E1,3.8480877E1,5.0506105E0,1.6585243E1,8.934953E1,4.5268383E1,1.5364014E2,1.3864233E3,4.495607E1,1.6034207E2,1.4104273E0,6.5640816E1,7.569978E1,2.8332085E3,6.481482E1,5.2794342E1,9.024357E0,6.3827662E0,2.2543907E1,2.6958883E1,3.4459896E1,4.0209775E0,1.074615E0,3.9759958E0,6.203702E1,2.7312508E1,3.269207E1,1.2576313E1,1.13358116E2,4.0282017E1,2.3579073E1,1.3628442E3],"tree_param":{"num_deleted":"0","num_feature":"24","num_nodes":"55","size_leaf_vector":"1"}},{"base_weights":[3.0126947E-4,-2.9496548E-1,1.1689467E-2,2.8471336E-2,-6.0171866E-1,1.7522795E-2,3.9564955E-1,-3.5055348E-1,-6.850974E-1,5.708535E-2,-2.553228E-1,-7.253063E-1,1.8649763E-1,-7.0152056E-1,1.1835289E-1,-3.036655E-1,1.0084076E-1,-9.607921E-1,-1.5917775E-1,-8.841154E-1,2.0335536E-1,6.7031735E-1,-5.5625457E-1,-7.7738327E-1,-4.2137188E-1,-4.6710502E-2,-1.9265912E-1,3.5617292E-1,2.221166E-2,-1.654489E-1,-4.2562792E-1,2.3136131E-2,-1.00038245E-1,-8.5073635E-2,-3.4894538E-1,-5.2212086E-2,3.485127E-1,-2.8714272E-1,1.16278395E-1,-1.989614E-1,-3.177791E-1,-1.6458024E-1,1.2200413E-1],"categories":[],"categories_nodes":[],"categories_segments":[],"categories_sizes":[],"default_left":[0,0,0,0,0,0,0,0,0,0,0,0,0,0,0,0,0,0,0,0,0,0,0,0,0,0,0,0,0,0,0,0,0,0,0,0,0,0,0,0,0,0,0],"id":25,"left_children":[1,-1,3,5,7,9,-1,11,13,15,17,19,21,23,-1,25,27,29,31,33,-1,35,37,39,41,-1,-1,-1,-1,-1,-1,-1,-1,-1,-1,-1,-1,-1,-1,-1,-1,-1,-1],"loss_changes":[5.7137104E1,0E0,5.1929165E1,6.9336716E1,2.5730858E0,5.2575493E1,0E0,7.2858067E0,2.0463982E0,6.717023E1,4.1683754E1,5.30797E0,5.9061837E0,1.7694931E0,0E0,2.2958786E1,1.103871E2,1.3047447E1,2.243038E1,2.9237823E0,0E0,4.2590294E0,2.8758926E0,1.7584114E0,2.668295E0,0E0,0E0,0E0,0E0,0E0,0E0,0E0,0E0,0E0,0E0,0E0,0E0,0E0,0E0,0E0,0E0,0E0,0E0],"parents":[2147483647,0,0,2,2,3,3,4,4,5,5,7,7,8,8,9,9,10,10,11,11,12,12,13,13,15,15,16,16,17,17,18,18,19,19,21,21,22,22,23,23,24,24],"right_children":[2,-1,4,6,8,10,-1,12,14,16,18,20,22,24,-1,26,28,30,32,34,-1,36,38,40,42,-1,-1,-1,-1,-1,-1,-1,-1,-1,-1,-1,-1,-1,-1,-1,-1,-1,-1],"split_conditions":[0E0,-2.9496548E-1,6.725653E-1,6.531878E-1,-4.8954E-1,6.923077E-1,3.9564955E-1,1.5605128E-2,1E0,-7.1039325E-1,-6.218914E-1,-5.3704274E-1,0E0,6.666667E-1,1.1835289E-1,1.5384616E-1,-6.418953E-1,1E0,1.5311453E-1,-2E-1,2.0335536E-1,3.3333334E-1,1.7152622E-2,2.380432E0,1.25E0,-4.6710502E-2,-1.9265912E-1,3.5617292E-1,2.221166E-2,-1.654489E-1,-4.2562792E-1,2.3136131E-2,-1.00038245E-1,-8.5073635E-2,-3.4894538E-1,-5.2212086E-2,3.485127E-1,-2.8714272E-1,1.16278395E-1,-1.989614E-1,-3.177791E-1,-1.6458024E-1,1.2200413E-1],"split_indices":[20,0,12,12,1,6,0,19,9,13,23,1,8,8,0,6,13,11,23,3,0,9,18,23,2,0,0,0,0,0,0,0,0,0,0,0,0,0,0,0,0,0,0],"split_type":[0,0,0,0,0,0,0,0,0,0,0,0,0,0,0,0,0,0,0,0,0,0,0,0,0,0,0,0,0,0,0,0,0,0,0,0,0,0,0,0,0,0,0],"sum_hessian":[5.0992666E3,5.739188E1,5.0418745E3,4.9085386E3,1.333362E2,4.8682456E3,4.0292847E1,3.452861E1,9.8807594E1,4.252434E3,6.1581134E2,2.0130835E1,1.4397777E1,9.7672E1,1.1355976E0,4.5934296E2,3.7930913E3,7.2781334E1,5.4302997E2,1.8416382E1,1.7144529E0,8.777646E0,5.62013E0,7.5462326E1,2.2209671E1,3.2065323E2,1.3868971E2,9.028138E1,3.70281E3,3.9596912E1,3.3184418E1,2.307414E2,3.1228857E2,6.4820642E0,1.1934318E1,3.4666786E0,5.310968E0,3.934793E0,1.685337E0,5.6093742E1,1.9368584E1,1.9544214E1,2.6654568E0],"tree_param":{"num_deleted":"0","num_feature":"24","num_nodes":"43","size_leaf_vector":"1"}},{"base_weights":[-2.9118967E-4,4.6297736E-2,-2.2366737E-1,1.6219962E-2,3.4843445E-1,-1.2759726E-1,-6.666284E-1,5.816269E-2,-4.4792387E-1,3.658356E-1,-1.7994186E-1,-8.1721306E-1,2.0627754E-3,1.804723E-3,1.2135385E0,-3.8482165E-1,-3.8361132E-1,-8.623773E-2,-5.985335E-1,-6.478833E-1,-1.1256818E0,9.3323845E-1,-3.84587E-1,6.412695E-2,-4.93912E-1,1.1584853E0,5.9243965E-1,-3.4527326E-1,-1.0408462E0,3.5139835E-1,-2.6797011E-1,-1.1683451E0,-4.9271032E-1,-7.370505E-1,8.3345693E-1,-1.1693797E0,-6.4010955E-3,-2.1134827E-1,1.5074434E0,-7.557588E-1,1.0758682E0,-9.538823E-3,3.7630412E-1,-1.1342241E-1,-3.5240522E-1,3.323034E-1,4.3305048E-1,-1.19469106E-1,2.2148292E-1,-1.16595075E-1,-3.3719042E-1,-1.820758E-1,-4.502783E-2,-3.6793467E-1,-1.2140324E-1,-1.8566497E-1,-3.0966053E-2,-3.9688495E-1,-1.7899255E-1,3.8157967E-1,-9.8652974E-2,-3.643341E-1,-1.4773805E-2,1.15626335E-1,5.0148195E-1,-2.5567794E-1,3.8108654E-2,4.4032976E-1,-3.797126E-2],"categories":[],"categories_nodes":[],"categories_segments":[],"categories_sizes":[],"default_left":[0,0,0,0,0,0,0,0,0,0,0,0,0,0,0,0,0,0,0,0,0,0,0,0,0,0,0,0,0,0,0,0,0,0,0,0,0,0,0,0,0,0,0,0,0,0,0,0,0,0,0,0,0,0,0,0,0,0,0,0,0,0,0,0,0,0,0,0,0],"id":26,"left_children":[1,3,5,7,-1,9,11,13,15,-1,17,19,21,23,25,-1,27,29,31,33,35,37,39,41,43,45,-1,47,49,-1,51,53,55,57,59,61,-1,-1,63,65,67,-1,-1,-1,-1,-1,-1,-1,-1,-1,-1,-1,-1,-1,-1,-1,-1,-1,-1,-1,-1,-1,-1,-1,-1,-1,-1,-1,-1],"loss_changes":[5.2167164E1,1.391002E2,3.6728397E1,7.8670334E1,0E0,5.043226E1,1.5502907E1,2.4130376E2,1.748938E1,0E0,2.687016E1,5.8337784E0,1.0905356E1,1.0922728E2,4.9357758E0,0E0,7.5119247E0,1.2875111E2,6.9843483E0,1.1640446E1,2.0585213E0,9.418568E0,1.2417002E1,3.586068E2,3.069339E1,7.636719E-1,0E0,1.7317257E1,4.6967697E-1,0E0,1.9560242E1,3.4266472E-1,5.2173653E0,5.731655E0,3.072862E0,2.0357933E0,0E0,0E0,6.262884E-1,1.6123514E0,2.4243736E0,0E0,0E0,0E0,0E0,0E0,0E0,0E0,0E0,0E0,0E0,0E0,0E0,0E0,0E0,0E0,0E0,0E0,0E0,0E0,0E0,0E0,0E0,0E0,0E0,0E0,0E0,0E0,0E0],"parents":[2147483647,0,0,1,1,2,2,3,3,5,5,6,6,7,7,8,8,10,10,11,11,12,12,13,13,14,14,16,16,17,17,18,18,19,19,20,20,21,21,22,22,23,23,24,24,25,25,27,27,