{"learner":{"attributes":{"scikit_learn":"{\"_estimator_type\": \"classifier\"}"},"feature_names":[],"feature_types":[],"gradient_booster":{"model":{"gbtree_model_param":{"num_parallel_tree":"1","num_trees":"100"},"iteration_indptr":[0,1,2,3,4,5,6,7,8,9,10,11,12,13,14,15,16,17,18,19,20,21,22,23,24,25,26,27,28,29,30,31,32,33,34,35,36,37,38,39,40,41,42,43,44,45,46,47,48,49,50,51,52,53,54,55,56,57,58,59,60,61,62,63,64,65,66,67,68,69,70,71,72,73,74,75,76,77,78,79,80,81,82,83,84,85,86,87,88,89,90,91,92,93,94,95,96,97,98,99,100],"tree_info":[0,0,0,0,0,0,0,0,0,0,0,0,0,0,0,0,0,0,0,0,0,0,0,0,0,0,0,0,0,0,0,0,0,0,0,0,0,0,0,0,0,0,0,0,0,0,0,0,0,0,0,0,0,0,0,0,0,0,0,0,0,0,0,0,0,0,0,0,0,0,0,0,0,0,0,0,0,0,0,0,0,0,0,0,0,0,0,0,0,0,0,0,0,0,0,0,0,0,0,0],"trees":[{"base_weights":[-0E0,-5.9998554E-1,1.4892662E0,-5.358953E-2,1.8839753E0,1.5138969E-1,-1.6896893E0,1.9258151E0,-1.376E0,3.6916927E-1,-1.455754E0,-1.7689568E0,-1.4072759E0,1.9611384E0,-1.2920169E0,-1.5104477E0,-2.4590164E-1,-3.7147787E-1,9.523043E-1,-1.6815476E0,-2.9007635E-1,-1.5766262E0,-1.8242484E0,-1.6741768E0,-1.1191336E0,1.9847986E0,-4.727708E-1,-1.4428115E0,-5.889213E-1,-1.1297989E0,-1.6482618E0,5.766991E-1,-1.7793103E0,-2.1371695E-1,8.664666E-2,4.2853916E-1,-2.91785E-1,-5.2399236E-1,-3.1619537E-1,5.920792E-1,-5.088296E-1,5.04E-1,-4.984199E-1,-5.6654805E-1,-5.21487E-1,-1.935484E-1,-5.3526014E-1,3.6E-1,-3.5910782E-1,2.3928079E-1,5.9998584E-1,-4.5333335E-1,-5.6121677E-2,2.769231E-1,-4.4368115E-1,5.7931036E-1,-5.5324674E-1,5.0769234E-1,-3.7828574E-1,-5.4162896E-1,-4.201022E-1,-5.5714285E-1,6.666667E-2],"categories":[],"categories_nodes":[],"categories_segments":[],"categories_sizes":[],"default_left":[0,0,0,0,0,0,0,0,0,0,0,0,0,0,0,0,0,0,0,0,0,0,0,0,0,0,0,0,0,0,0,0,0,0,0,0,0,0,0,0,0,0,0,0,0,0,0,0,0,0,0,0,0,0,0,0,0,0,0,0,0,0,0],"id":0,"left_children":[1,-1,3,5,7,9,11,13,15,17,19,21,23,25,27,29,31,33,35,37,39,41,43,45,47,49,51,53,55,57,59,-1,61,-1,-1,-1,-1,-1,-1,-1,-1,-1,-1,-1,-1,-1,-1,-1,-1,-1,-1,-1,-1,-1,-1,-1,-1,-1,-1,-1,-1,-1,-1],"loss_changes":[2.8937828E5,0E0,3.3913242E4,3.8051555E3,6.0510312E3,3.5297063E3,2.579004E1,4.979047E3,8.509424E1,3.8359253E3,3.1627637E2,7.5720215E0,1.9794495E1,2.494875E3,4.961731E1,2.4498291E1,2.0623235E2,8.809821E2,4.555823E3,3.933618E1,6.2876276E2,6.5391174E1,8.9624023E-1,1.5180298E1,2.645549E1,7.700625E2,1.2364382E2,3.4804993E1,2.748E2,5.2749084E1,1.1762329E1,0E0,6.059883E0,0E0,0E0,0E0,0E0,0E0,0E0,0E0,0E0,0E0,0E0,0E0,0E0,0E0,0E0,0E0,0E0,0E0,0E0,0E0,0E0,0E0,0E0,0E0,0E0,0E0,0E0,0E0,0E0,0E0,0E0],"parents":[2147483647,0,0,2,2,3,3,4,4,5,5,6,6,7,7,8,8,9,9,10,10,11,11,12,12,13,13,14,14,15,15,16,16,17,17,18,18,19,19,20,20,21,21,22,22,23,23,24,24,25,25,26,26,27,27,28,28,29,29,30,30,32,32],"right_children":[2,-1,4,6,8,10,12,14,16,18,20,22,24,26,28,30,32,34,36,38,40,42,44,46,48,50,52,54,56,58,60,-1,62,-1,-1,-1,-1,-1,-1,-1,-1,-1,-1,-1,-1,-1,-1,-1,-1,-1,-1,-1,-1,-1,-1,-1,-1,-1,-1,-1,-1,-1,-1],"split_conditions":[0E0,-5.9998554E-1,6.0111284E-2,4.1587577E0,4.151585E0,4.151585E0,4.6229303E-2,4.1587577E0,5.014774E0,6.1206073E-3,5.014774E0,-4.6153846E-1,2.0642126E-2,1E0,1.5605128E-2,-3.0769232E-1,6.227378E0,1.5605128E-2,1E0,2.0601244E0,6.227378E0,5E-1,2.0169154E-2,-5.8141327E-1,2.9447842E-2,-6.218914E-1,-6.3726187E-1,-5.826652E-1,2.018598E0,1E0,7.385948E-2,5.766991E-1,6.666667E-1,-2.1371695E-1,8.664666E-2,4.2853916E-1,-2.91785E-1,-5.2399236E-1,-3.1619537E-1,5.920792E-1,-5.088296E-1,5.04E-1,-4.984199E-1,-5.6654805E-1,-5.21487E-1,-1.935484E-1,-5.3526014E-1,3.6E-1,-3.5910782E-1,2.3928079E-1,5.9998584E-1,-4.5333335E-1,-5.6121677E-2,2.769231E-1,-4.4368115E-1,5.7931036E-1,-5.5324674E-1,5.0769234E-1,-3.7828574E-1,-5.4162896E-1,-4.201022E-1,-5.5714285E-1,6.666667E-2],"split_indices":[20,0,24,18,19,19,24,18,19,24,19,6,1,5,19,6,19,19,5,1,19,17,24,23,1,23,13,1,19,11,1,0,8,0,0,0,0,0,0,0,0,0,0,0,0,0,0,0,0,0,0,0,0,0,0,0,0,0,0,0,0,0,0],"split_type":[0,0,0,0,0,0,0,0,0,0,0,0,0,0,0,0,0,0,0,0,0,0,0,0,0,0,0,0,0,0,0,0,0,0,0,0,0,0,0,0,0,0,0,0,0,0,0,0,0,0,0,0,0,0,0,0,0,0,0,0,0,0,0],"sum_hessian":[9.7155E4,4.14675E4,5.56875E4,1.13445E4,4.4343E4,1.008225E4,1.26225E3,4.37815E4,5.615E2,8.87975E3,1.2025E3,9.815E2,2.8075E2,4.33065E4,4.75E2,5.015E2,6E1,3.91175E3,4.968E3,1.007E3,1.955E2,2.2575E2,7.5575E2,1.4325E2,1.375E2,4.288975E4,4.1675E2,3.9025E2,8.475E1,1.3575E2,3.6575E2,2.475E1,3.525E1,2.57975E3,1.332E3,3.983E3,9.85E2,9.1075E2,9.625E1,7.475E1,1.2075E2,5.25E0,2.205E2,4.205E2,3.3525E2,1.45E1,1.2875E2,4E0,1.335E2,5.4125E2,4.23485E4,8.9E1,3.2775E2,5.5E0,3.8475E2,2.8E1,5.675E1,5.5E0,1.3025E2,2.2E2,1.4575E2,3.4E1,1.25E0],"tree_param":{"num_deleted":"0","num_feature":"26","num_nodes":"63","size_leaf_vector":"1"}},{"base_weights":[5.761101E-6,-4.6463364E-1,1.1381763E0,-1.7698817E-1,1.4247535E0,2.5969114E-2,-9.848667E-1,1.467273E0,-1.0103123E0,1.5939032E-1,-1.2658509E0,-1.1908702E0,-4.456804E-1,1.5052679E0,-9.923115E-1,-1.1419672E0,-7.467263E-2,4.064022E-1,-5.488011E-1,-1.3069929E0,-8.272727E-1,-1.0375074E0,-1.4974357E0,-1.7971778E-1,-4.2840567E-1,1.5332785E0,-2.9764265E-1,-1.220993E0,-7.3728716E-1,-8.5968673E-1,-1.2518765E0,4.5549175E-1,-1.244196E0,-1.3354627E-2,5.3379476E-1,-7.649858E-2,-3.0480373E-1,-3.3335704E-1,-4.097391E-1,1.3222276E-1,-2.9841793E-1,-3.9092237E-1,5.646078E-1,-3.8767305E-1,-5.567432E-1,5.832065E-2,-4.031233E-1,1.4509678E-1,4.6538246E-1,-4.3349284E-1,-3.215258E-2,-5.030756E-3,-3.8651904E-1,1.6933624E-1,-2.5755534E-1,5.1365024E-1,-2.939749E-1,-3.7879726E-1,7.8834176E-2,3.5205978E-1,-4.1019097E-1],"categories":[],"categories_nodes":[],"categories_segments":[],"categories_sizes":[],"default_left":[0,0,0,0,0,0,0,0,0,0,0,0,0,0,0,0,0,0,0,0,0,0,0,0,0,0,0,0,0,0,0,0,0,0,0,0,0,0,0,0,0,0,0,0,0,0,0,0,0,0,0,0,0,0,0,0,0,0,0,0,0],"id":1,"left_children":[1,-1,3,5,7,9,11,13,15,17,19,21,23,25,27,29,31,33,35,37,39,41,43,45,-1,47,49,51,53,55,57,-1,59,-1,-1,-1,-1,-1,-1,-1,-1,-1,-1,-1,-1,-1,-1,-1,-1,-1,-1,-1,-1,-1,-1,-1,-1,-1,-1,-1,-1],"loss_changes":[1.5792781E5,0E0,1.9463383E4,1.5150955E3,4.3916094E3,1.273211E3,2.0554431E2,3.8960156E3,8.962402E1,1.1714592E3,1.1396606E1,6.1532593E1,1.3415985E2,2.0730156E3,3.610791E1,1.8729126E1,1.7124684E2,3.0734958E3,2.374679E2,5.7418213E0,1.3609875E1,6.984202E2,3.0337769E1,1.7707324E2,0E0,7.62625E2,1.3723457E2,2.7011292E1,4.8227646E1,5.7982483E1,7.798889E0,0E0,1.7370308E1,0E0,0E0,0E0,0E0,0E0,0E0,0E0,0E0,0E0,0E0,0E0,0E0,0E0,0E0,0E0,0E0,0E0,0E0,0E0,0E0,0E0,0E0,0E0,0E0,0E0,0E0,0E0,0E0],"parents":[2147483647,0,0,2,2,3,3,4,4,5,5,6,6,7,7,8,8,9,9,10,10,11,11,12,12,13,13,14,14,15,15,16,16,17,17,18,18,19,19,20,20,21,21,22,22,23,23,25,25,26,26,27,27,28,28,29,29,30,30,32,32],"right_children":[2,-1,4,6,8,10,12,14,16,18,20,22,24,26,28,30,32,34,36,38,40,42,44,46,-1,48,50,52,54,56,58,-1,60,-1,-1,-1,-1,-1,-1,-1,-1,-1,-1,-1,-1,-1,-1,-1,-1,-1,-1,-1,-1,-1,-1,-1,-1,-1,-1,-1,-1],"split_conditions":[0E0,-4.6463364E-1,5.0610997E-2,1E0,4.151585E0,4.1587577E0,2.7928036E-2,4.1587577E0,5.014774E0,2.0757926E0,4.6229303E-2,2.0682373E0,4.1587577E0,1E0,2.0642126E-2,-3.0769232E-1,6.227378E0,1.5605128E-2,4.151585E0,-4.6153846E-1,-7.5E-1,1.5605128E-2,1E0,4.151585E0,-4.2840567E-1,-6.218914E-1,-7.1600604E-1,-5.8141327E-1,5.2126084E-2,1E0,1.7207383E0,4.5549175E-1,-7.692308E-1,-1.3354627E-2,5.3379476E-1,-7.649858E-2,-3.0480373E-1,-3.3335704E-1,-4.097391E-1,1.3222276E-1,-2.9841793E-1,-3.9092237E-1,5.646078E-1,-3.8767305E-1,-5.567432E-1,5.832065E-2,-4.031233E-1,1.4509678E-1,4.6538246E-1,-4.3349284E-1,-3.215258E-2,-5.030756E-3,-3.8651904E-1,1.6933624E-1,-2.5755534E-1,5.1365024E-1,-2.939749E-1,-3.7879726E-1,7.8834176E-2,3.5205978E-1,-4.1019097E-1],"split_indices":[20,0,24,4,19,18,24,18,19,19,24,19,18,5,1,6,19,19,19,6,2,19,15,19,0,23,12,23,1,11,1,0,6,0,0,0,0,0,0,0,0,0,0,0,0,0,0,0,0,0,0,0,0,0,0,0,0,0,0,0,0],"split_type":[0,0,0,0,0,0,0,0,0,0,0,0,0,0,0,0,0,0,0,0,0,0,0,0,0,0,0,0,0,0,0,0,0,0,0,0,0,0,0,0,0,0,0,0,0,0,0,0,0,0,0,0,0,0,0,0,0,0,0,0,0],"sum_hessian":[8.958816E4,3.79486E4,5.163955E4,9.239212E3,4.240034E4,7.3849214E3,1.8542908E3,4.167307E4,7.272685E2,6.694391E3,6.905305E2,1.340808E3,5.134828E2,4.1039492E4,6.335775E2,6.373638E2,8.990469E1,4.963563E3,1.7308278E3,6.294987E2,6.103184E1,8.966386E2,4.4416937E2,4.0501123E2,1.0847157E2,4.0411793E4,6.276994E2,3.320442E2,3.0153333E2,1.8109033E2,4.5627347E2,3.793549E1,5.19692E1,3.7371177E3,1.2264457E3,1.063556E3,6.6727167E2,1.499842E2,4.795145E2,6.9292455E0,5.4102596E1,8.223863E2,7.4252365E1,2.8537827E2,1.587911E2,3.0713162E2,9.78796E1,6.81672E2,3.973012E4,8.843003E1,5.392694E2,1.7666477E1,3.1437772E2,2.5377756E1,2.7615555E2,7.4962316E0,1.735941E2,4.5321396E2,3.0595024E0,2.104564E0,4.9864635E1],"tree_param":{"num_deleted":"0","num_feature":"26","num_nodes":"61","size_leaf_vector":"1"}},{"base_weights":[4.4729805E-4,-4.0344504E-1,9.574482E-1,-7.1664145E-3,1.2635871E0,1.0907191E-1,-1.0435622E0,1.2908982E0,-8.194201E-1,-2.0408231E-1,6.545328E-1,-1.1253666E0,-8.38688E-1,1.3139787E0,-7.284444E-1,-8.891616E-1,5.216391E-1,-4.6695545E-2,-1.0377338E0,1.6994586E0,-1.6922472E-1,-9.4434947E-1,-1.1798947E0,-9.057509E-1,1.4492667E-1,1.3310244E0,-2.187712E-1,-8.12639E-1,3.4287024E-1,-1.0630133E0,-4.981724E-1,5.7227E-1,1.7114243E-2,-1.1071101E-1,1.1273752E-1,-3.6211303E-1,-1.6357076E-1,5.921348E-1,4.7408122E-1,-1.9863077E-1,4.688187E-1,4.486301E-1,-3.057333E-1,-3.6579806E-1,-3.0527633E-1,-1.4174438E-1,-3.100926E-1,-3.375375E-1,3.187493E-1,1.3206692E-1,4.033677E-1,-2.705712E-1,3.1035097E-2,-1.6095863E-1,-3.4937486E-1,6.208955E-1,-2.466851E-1,-3.8754904E-1,-2.4189986E-1,7.583264E-1,-2.1078376E-1,-1.1368545E-1,5.019145E-1],"categories":[],"categories_nodes":[],"categories_segments":[],"categories_sizes":[],"default_left":[0,0,0,0,0,0,0,0,0,0,0,0,0,0,0,0,0,0,0,0,0,0,0,0,0,0,0,0,0,0,0,0,0,0,0,0,0,0,0,0,0,0,0,0,0,0,0,0,0,0,0,0,0,0,0,0,0,0,0,0,0,0,0],"id":2,"left_children":[1,-1,3,5,7,9,11,13,15,17,19,21,23,25,27,29,31,33,35,37,39,41,43,45,47,49,51,53,55,57,59,-1,61,-1,-1,-1,-1,-1,-1,-1,-1,-1,-1,-1,-1,-1,-1,-1,-1,-1,-1,-1,-1,-1,-1,-1,-1,-1,-1,-1,-1,-1,-1],"loss_changes":[9.795633E4,0E0,1.3129184E4,1.2905524E3,1.9209922E3,1.6454872E3,1.7162231E1,1.5535625E3,4.1370667E1,8.0294E2,3.0244937E3,6.477478E0,2.0725311E1,8.608125E2,3.429184E1,2.7756256E1,1.5526442E1,7.013815E2,8.038196E1,4.752295E1,1.6788832E3,3.491478E1,2.5166016E0,1.5714584E1,2.5422543E1,3.9214062E2,8.002219E1,3.337793E1,5.8398033E1,1.5824432E1,8.217265E1,0E0,1.1994871E1,0E0,0E0,0E0,0E0,0E0,0E0,0E0,0E0,0E0,0E0,0E0,0E0,0E0,0E0,0E0,0E0,0E0,0E0,0E0,0E0,0E0,0E0,0E0,0E0,0E0,0E0,0E0,0E0,0E0,0E0],"parents":[2147483647,0,0,2,2,3,3,4,4,5,5,6,6,7,7,8,8,9,9,10,10,11,11,12,12,13,13,14,14,15,15,16,16,17,17,18,18,19,19,20,20,21,21,22,22,23,23,24,24,25,25,26,26,27,27,28,28,29,29,30,30,32,32],"right_children":[2,-1,4,6,8,10,12,14,16,18,20,22,24,26,28,30,32,34,36,38,40,42,44,46,48,50,52,54,56,58,60,-1,62,-1,-1,-1,-1,-1,-1,-1,-1,-1,-1,-1,-1,-1,-1,-1,-1,-1,-1,-1,-1,-1,-1,-1,-1,-1,-1,-1,-1,-1,-1],"split_conditions":[0E0,-4.0344504E-1,6.2040485E-2,4.1587577E0,4.151585E0,1.7152622E-2,4.4332884E-2,4.1587577E0,6.666667E-1,1E0,2.0793788E0,-4.6153846E-1,1.2127165E0,1E0,8.338893E-1,1.8829148E-1,1E0,1.4712044E-2,4.715772E-2,6.1206073E-3,2.191566E0,5E-1,1E0,-3.3333334E-1,3.3333334E-1,-6.218914E-1,-5.2063423E-1,3.1289086E-1,-3.0769232E-1,-3.933994E-2,3.6029455E-1,5.7227E-1,1E0,-1.1071101E-1,1.1273752E-1,-3.6211303E-1,-1.6357076E-1,5.921348E-1,4.7408122E-1,-1.9863077E-1,4.688187E-1,4.486301E-1,-3.057333E-1,-3.6579806E-1,-3.0527633E-1,-1.4174438E-1,-3.100926E-1,-3.375375E-1,3.187493E-1,1.3206692E-1,4.033677E-1,-2.705712E-1,3.1035097E-2,-1.6095863E-1,-3.4937486E-1,6.208955E-1,-2.466851E-1,-3.8754904E-1,-2.4189986E-1,7.583264E-1,-2.1078376E-1,-1.1368545E-1,5.019145E-1],"split_indices":[20,0,24,18,19,18,24,18,8,5,18,6,23,5,1,13,10,24,24,24,18,17,0,0,0,23,13,12,6,23,13,0,2,0,0,0,0,0,0,0,0,0,0,0,0,0,0,0,0,0,0,0,0,0,0,0,0,0,0,0,0,0,0],"split_type":[0,0,0,0,0,0,0,0,0,0,0,0,0,0,0,0,0,0,0,0,0,0,0,0,0,0,0,0,0,0,0,0,0,0,0,0,0,0,0,0,0,0,0,0,0,0,0,0,0,0,0,0,0,0,0,0,0,0,0,0,0,0,0],"sum_hessian":[7.608538E4,3.1626854E4,4.445853E4,1.0710799E4,3.374773E4,9.631464E3,1.0793347E3,3.3311355E4,4.3637814E2,6.1190728E3,3.5123914E3,7.681332E2,3.112015E2,3.293526E4,3.7609097E2,4.1512656E2,2.1251589E1,5.1481914E3,9.7088153E2,1.5478722E3,1.964519E3,1.8206181E2,5.8607135E2,2.914122E2,1.9789324E1,3.2573148E4,3.6211493E2,3.4891147E2,2.7179497E1,2.8616547E2,1.2896107E2,4.9294624E0,1.6322126E1,2.9202683E3,2.227923E3,7.214221E2,2.4945941E2,4.6411063E2,1.0837616E3,1.5297903E3,4.3472867E2,4.848003E0,1.772138E2,4.6627783E2,1.1979351E2,6.748404E1,2.2392815E2,8.205508E0,1.1583816E1,4.8800192E2,3.2085146E4,1.15483215E2,2.4663171E2,1.9693481E2,1.5197665E2,1.0637789E1,1.6541708E1,1.491624E2,1.3700307E2,7.4423428E0,1.2151873E2,1.379403E1,2.5280957E0],"tree_param":{"num_deleted":"0","num_feature":"26","num_nodes":"63","size_leaf_vector":"1"}},{"base_weights":[9.747172E-4,-3.6909673E-1,8.3516747E-1,8.918961E-3,1.1506085E0,1.15168005E-1,-8.847382E-1,1.1757107E0,-6.5963495E-1,-1.4826873E-1,5.77304E-1,-1.0480696E0,-4.1150585E-2,1.197277E0,-5.588678E-1,-7.2250843E-1,6.344864E-1,-7.7318174E-1,1.9496853E-2,7.688312E-1,-7.344403E-1,-1.111573E0,-4.1591465E-1,4.7085217E-1,-1.0933331E0,1.2144184E0,-1.2825365E-1,-6.886354E-1,4.733608E-2,-1.959951E-1,-8.322486E-1,-3.9244357E-1,1.0718066E0,-3.6919707E-1,-1.5527973E-1,6.957958E-2,-2.6674387E-1,3.1933603E-1,-1.1269029E-1,-1.783582E-1,-3.4195715E-1,-2.2959329E-1,-3.5114658E-1,-2.804899E-4,-3.1495613E-1,6.778431E-2,-3.5272136E-1,9.755363E-2,3.690504E-1,-9.71232E-2,2.8763938E-1,-2.2248127E-1,2.8914446E-1,5.4057133E-1,-3.4501004E-1,6.940239E-1,-1.755845E-1,-2.704016E-1,-4.2692307E-2,-2.666636E-1,2.5675303E-1,-8.8232234E-2,4.509542E-1],"categories":[],"categories_nodes":[],"categories_segments":[],"categories_sizes":[],"default_left":[0,0,0,0,0,0,0,0,0,0,0,0,0,0,0,0,0,0,0,0,0,0,0,0,0,0,0,0,0,0,0,0,0,0,0,0,0,0,0,0,0,0,0,0,0,0,0,0,0,0,0,0,0,0,0,0,0,0,0,0,0,0,0],"id":3,"left_children":[1,-1,3,5,7,9,11,13,15,17,19,21,23,25,27,29,31,33,35,37,39,41,43,-1,45,47,49,51,53,55,57,59,61,-1,-1,-1,-1,-1,-1,-1,-1,-1,-1,-1,-1,-1,-1,-1,-1,-1,-1,-1,-1,-1,-1,-1,-1,-1,-1,-1,-1,-1,-1],"loss_changes":[6.4198754E4,0E0,9.711037E3,9.7766693E2,1.2260859E3,1.1204241E3,1.5070831E2,9.9560156E2,3.0518494E1,6.145879E2,8.400338E2,3.6333496E1,3.0424738E2,5.970547E2,2.5779778E1,2.0221146E1,8.347098E0,1.4442853E2,8.924521E2,9.870187E2,2.3499146E1,1.6083862E1,2.2431E1,0E0,1.2068527E1,3.6282422E2,7.177421E1,2.4317047E1,1.2527869E2,6.2074165E1,1.37734375E1,4.4809833E0,7.893632E0,0E0,0E0,0E0,0E0,0E0,0E0,0E0,0E0,0E0,0E0,0E0,0E0,0E0,0E0,0E0,0E0,0E0,0E0,0E0,0E0,0E0,0E0,0E0,0E0,0E0,0E0,0E0,0E0,0E0,0E0],"parents":[2147483647,0,0,2,2,3,3,4,4,5,5,6,6,7,7,8,8,9,9,10,10,11,11,12,12,13,13,14,14,15,15,16,16,17,17,18,18,19,19,20,20,21,21,22,22,24,24,25,25,26,26,27,27,28,28,29,29,30,30,31,31,32,32],"right_children":[2,-1,4,6,8,10,12,14,16,18,20,22,24,26,28,30,32,34,36,38,40,42,44,-1,46,48,50,52,54,56,58,60,62,-1,-1,-1,-1,-1,-1,-1,-1,-1,-1,-1,-1,-1,-1,-1,-1,-1,-1,-1,-1,-1,-1,-1,-1,-1,-1,-1,-1,-1,-1],"split_conditions":[0E0,-3.6909673E-1,6.329016E-2,4.151585E0,4.151585E0,3.326086E-2,5.014774E0,4.1587577E0,6.666667E-1,-5.303093E-1,4.1587577E0,2.0601244E0,6.227378E0,1E0,1.5605128E-2,-5.3846157E-1,-3.5647422E-1,-7.1600604E-1,5.77831E-1,1E0,1E0,-6.1538464E-1,5E-1,4.7085217E-1,-7.692308E-1,-6.218914E-1,1.7152622E-2,1.2061324E0,1.8879826E0,5E-1,6.7015535E-1,1E0,-6.4083815E-1,-3.6919707E-1,-1.5527973E-1,6.957958E-2,-2.6674387E-1,3.1933603E-1,-1.1269029E-1,-1.783582E-1,-3.4195715E-1,-2.2959329E-1,-3.5114658E-1,-2.804899E-4,-3.1495613E-1,6.778431E-2,-3.5272136E-1,9.755363E-2,3.690504E-1,-9.71232E-2,2.8763938E-1,-2.2248127E-1,2.8914446E-1,5.4057133E-1,-3.4501004E-1,6.940239E-1,-1.755845E-1,-2.704016E-1,-4.2692307E-2,-2.666636E-1,2.5675303E-1,-8.8232234E-2,4.509542E-1],"split_indices":[20,0,24,19,19,24,19,18,8,12,18,1,19,5,19,6,13,12,12,5,4,6,4,0,6,23,18,1,19,17,1,2,12,0,0,0,0,0,0,0,0,0,0,0,0,0,0,0,0,0,0,0,0,0,0,0,0,0,0,0,0,0,0],"split_type":[0,0,0,0,0,0,0,0,0,0,0,0,0,0,0,0,0,0,0,0,0,0,0,0,0,0,0,0,0,0,0,0,0,0,0,0,0,0,0,0,0,0,0,0,0,0,0,0,0,0,0,0,0,0,0,0,0,0,0,0,0,0,0],"sum_hessian":[6.250049E4,2.5241982E4,3.7258504E4,1.0294554E4,2.696395E4,9.201443E3,1.0931106E3,2.6595508E4,3.6844284E2,5.8610693E3,3.340374E3,9.15595E2,1.7751556E2,2.6269209E4,3.262989E2,3.5179306E2,1.66498E1,1.2396958E3,4.6213735E3,2.9151484E3,4.2522562E2,8.3132556E2,8.426942E1,6.994842E1,1.07567154E2,2.5933922E4,3.352875E2,2.6865335E2,5.7645527E1,6.1157333E1,2.906357E2,5.003359E0,1.164644E1,4.4297913E2,7.967166E2,3.746265E3,8.751086E2,2.3167803E3,5.9836816E2,3.179609E2,1.0726472E2,1.2291472E2,7.084108E2,5.15355E1,3.273392E1,6.2214327E0,1.0134572E2,4.5170547E2,2.5482215E4,2.8477676E2,5.0510754E1,2.6084332E2,7.8100405E0,2.3177475E1,3.4468052E1,7.549467E0,5.360787E1,2.639024E2,2.673332E1,3.7857242E0,1.2176349E0,2.871682E0,8.774757E0],"tree_param":{"num_deleted":"0","num_feature":"26","num_nodes":"63","size_leaf_vector":"1"}},{"base_weights":[1.0805025E-3,-3.47763E-1,7.39755E-1,3.7137207E-2,1.0876404E0,-7.229207E-1,1.6376014E-1,1.1092397E0,-5.10626E-1,-4.7219145E-1,-1.2717496E0,-6.0463196E-1,3.055669E-1,1.1275198E0,-4.6319887E-1,-7.754048E-1,-1.5182891E-1,-9.421324E-1,1.5835187E0,-9.899856E-1,-1.6094943E0,-9.216958E-1,-2.8105438E-1,6.0092586E-1,-3.310543E-1,1.1427495E0,-6.256883E-2,-7.823964E-1,-9.248077E-2,-1.0277252E0,-5.1106197E-1,6.4095545E-1,-2.6356754E-1,-2.406927E-1,-4.763171E-1,4.638037E-1,7.982807E-1,-5.300261E-1,-2.6629126E-1,-4.906897E-1,2.9233253E-1,5.4630095E-1,-2.8927222E-1,5.1366997E-1,-2.8614008E-1,4.0472928E-1,2.9642459E-2,-3.312664E-1,-3.6217768E-2,8.5925706E-2,3.4773302E-1,-3.1869435E-1,3.8399234E-2,-2.7728963E-1,-5.068856E-4,5.0763184E-1,-7.8670576E-2,-2.3436038E-1,-3.320213E-1,7.92377E-2,-1.965925E-1,-3.2855928E-1,-2.3948476E-2],"categories":[],"categories_nodes":[],"categories_segments":[],"categories_sizes":[],"default_left":[0,0,0,0,0,0,0,0,0,0,0,0,0,0,0,0,0,0,0,0,0,0,0,0,0,0,0,0,0,0,0,0,0,0,0,0,0,0,0,0,0,0,0,0,0,0,0,0,0,0,0,0,0,0,0,0,0,0,0,0,0,0,0],"id":4,"left_children":[1,-1,3,5,7,9,11,13,15,17,19,21,23,25,27,29,31,33,35,37,39,41,43,45,47,49,51,53,55,57,59,-1,61,-1,-1,-1,-1,-1,-1,-1,-1,-1,-1,-1,-1,-1,-1,-1,-1,-1,-1,-1,-1,-1,-1,-1,-1,-1,-1,-1,-1,-1,-1],"loss_changes":[4.3314805E4,0E0,7.547783E3,9.843749E2,7.13541E2,2.0039716E2,9.5550446E2,5.862793E2,2.6109818E1,9.7162134E2,4.1939514E1,1.3991296E2,1.3920275E3,3.651797E2,2.7722603E1,1.0053627E1,3.0855062E1,7.256482E1,3.4519043E0,1.8465271E1,1.5537842E1,8.222864E1,9.103153E2,1.8994843E3,3.814493E2,2.7832422E2,4.8809235E1,1.3966209E1,3.3709213E1,6.96785E-1,9.056652E0,0E0,1.730814E1,0E0,0E0,0E0,0E0,0E0,0E0,0E0,0E0,0E0,0E0,0E0,0E0,0E0,0E0,0E0,0E0,0E0,0E0,0E0,0E0,0E0,0E0,0E0,0E0,0E0,0E0,0E0,0E0,0E0,0E0],"parents":[2147483647,0,0,2,2,3,3,4,4,5,5,6,6,7,7,8,8,9,9,10,10,11,11,12,12,13,13,14,14,15,15,16,16,17,17,18,18,19,19,20,20,21,21,22,22,23,23,24,24,25,25,26,26,27,27,28,28,29,29,30,30,32,32],"right_children":[2,-1,4,6,8,10,12,14,16,18,20,22,24,26,28,30,32,34,36,38,40,42,44,46,48,50,52,54,56,58,60,-1,62,-1,-1,-1,-1,-1,-1,-1,-1,-1,-1,-1,-1,-1,-1,-1,-1,-1,-1,-1,-1,-1,-1,-1,-1,-1,-1,-1,-1,-1,-1],"split_conditions":[0E0,-3.47763E-1,6.7297325E-2,-6.3726187E-1,4.151585E0,-6.418953E-1,-6.4083815E-1,4.1587577E0,5.073035E-3,-7.1039325E-1,1.9329735E0,-7.1600604E-1,4.654585E-1,1E0,4.473973E-2,-3.933994E-2,1.833512E-1,2.7121623E0,4.149587E0,-6.266231E-1,5.014774E0,-5E-1,-6.469139E-1,5E-1,4.6782047E-1,-6.218914E-1,-7.1600604E-1,1.5605128E-2,5.2126084E-2,-4.4322085E-1,-5.3333336E-1,6.4095545E-1,1.8829148E-1,-2.406927E-1,-4.763171E-1,4.638037E-1,7.982807E-1,-5.300261E-1,-2.6629126E-1,-4.906897E-1,2.9233253E-1,5.4630095E-1,-2.8927222E-1,5.1366997E-1,-2.8614008E-1,4.0472928E-1,2.9642459E-2,-3.312664E-1,-3.6217768E-2,8.5925706E-2,3.4773302E-1,-3.1869435E-1,3.8399234E-2,-2.7728963E-1,-5.068856E-4,5.0763184E-1,-7.8670576E-2,-2.3436038E-1,-3.320213E-1,7.92377E-2,-1.965925E-1,-3.2855928E-1,-2.3948476E-2],"split_indices":[20,0,24,13,19,13,12,18,13,13,1,12,12,5,1,23,13,23,18,1,19,17,12,17,12,23,12,19,1,1,9,0,13,0,0,0,0,0,0,0,0,0,0,0,0,0,0,0,0,0,0,0,0,0,0,0,0,0,0,0,0,0,0],"split_type":[0,0,0,0,0,0,0,0,0,0,0,0,0,0,0,0,0,0,0,0,0,0,0,0,0,0,0,0,0,0,0,0,0,0,0,0,0,0,0,0,0,0,0,0,0,0,0,0,0,0,0,0,0,0,0,0,0,0,0,0,0,0,0],"sum_hessian":[5.053582E4,1.9657604E4,3.0878219E4,1.0226021E4,2.0652197E4,1.45966E3,8.766361E3,2.0377123E4,2.7507397E2,1.0032099E3,4.5645016E2,1.365269E3,7.4010923E3,2.0143234E4,2.3388911E2,1.5760573E2,1.1746824E2,8.1698627E2,1.8622359E2,2.5099144E2,2.0545874E2,6.8864166E2,6.7662744E2,5.05561E3,2.3454827E3,1.9888756E4,2.544788E2,1.2508089E2,1.08808235E2,7.915903E1,7.844669E1,4.6252356E0,1.12843E2,6.733858E2,1.4360048E2,1.8231195E2,3.9116392E0,2.7327559E1,2.2366388E2,2.0376454E2,1.69419E0,9.880539E0,6.787611E2,1.7035002E2,5.0627744E2,2.0296615E3,3.0259482E3,5.0069144E2,1.8447913E3,3.7320685E2,1.9515549E4,4.0009113E1,2.144697E2,1.0568712E2,1.9393766E1,8.672147E0,1.00136086E2,2.1855497E1,5.7303528E1,1.2176806E1,6.626989E1,1.9522194E1,9.332081E1],"tree_param":{"num_deleted":"0","num_feature":"26","num_nodes":"63","size_leaf_vector":"1"}},{"base_weights":[1.1812939E-3,-3.3372378E-1,6.526584E-1,4.7762855E-4,1.0135174E0,-5.257927E-1,1.4069831E-1,1.0401971E0,-4.419862E-1,-2.9558226E-1,-1.2737255E0,2.911674E-1,-4.6316925E-1,1.0636911E0,-3.6030424E-1,-4.987923E-1,6.0487074E-1,-5.859434E-1,1.4958589E0,-2.568215E0,-1.1969529E0,6.876049E-1,-1.6877128E-1,-1.1214504E0,-1.768755E-1,1.0872891E0,-7.261064E-2,-1.0368297E0,-2.5250027E-1,-3.644625E-1,-8.8855547E-1,-4.9321842E-1,8.0402625E-1,-1.1706666E-1,-3.0580252E-1,4.4184643E-1,6.669926E-1,-5.2475154E-1,-9.241817E-1,-3.0458388E-1,-4.496725E-1,4.6366903E-1,6.0987964E-2,-1.5943809E-1,8.534949E-2,-3.9466676E-1,-2.32772E-1,5.263059E-1,-2.0487386E-1,5.0314628E-2,3.339267E-1,-1.2528281E-1,1.3274871E-1,-3.3250904E-1,2.0174962E-2,6.3577116E-1,-9.826231E-2,8.295938E-3,-1.6837858E-1,-2.7770412E-1,2.0178123E-1,-3.4822095E-2,-1.8723834E-1,-3.1144563E-2,3.11971E-1],"categories":[],"categories_nodes":[],"categories_segments":[],"categories_sizes":[],"default_left":[0,0,0,0,0,0,0,0,0,0,0,0,0,0,0,0,0,0,0,0,0,0,0,0,0,0,0,0,0,0,0,0,0,0,0,0,0,0,0,0,0,0,0,0,0,0,0,0,0,0,0,0,0,0,0,0,0,0,0,0,0,0,0,0,0],"id":5,"left_children":[1,-1,3,5,7,9,11,13,15,17,19,21,23,25,27,29,31,33,35,37,39,41,43,45,47,49,51,53,55,57,59,61,63,-1,-1,-1,-1,-1,-1,-1,-1,-1,-1,-1,-1,-1,-1,-1,-1,-1,-1,-1,-1,-1,-1,-1,-1,-1,-1,-1,-1,-1,-1,-1,-1],"loss_changes":[2.9634385E4,0E0,6.065128E3,6.775813E2,6.447324E2,3.3224158E2,6.5892E2,5.3647266E2,1.8103188E1,7.699041E2,4.2079895E1,1.0585209E3,2.7243317E2,4.2976172E2,1.9397518E1,1.45709915E1,3.864872E0,1.0758002E2,1.8591309E-1,4.9206085E0,2.2109985E1,1.2951675E3,4.4203494E2,2.8374939E1,9.8760266E2,3.7225195E2,5.828693E1,2.9752617E0,4.231024E1,1.6472841E1,4.808407E0,7.836467E-2,3.0641222E0,0E0,0E0,0E0,0E0,0E0,0E0,0E0,0E0,0E0,0E0,0E0,0E0,0E0,0E0,0E0,0E0,0E0,0E0,0E0,0E0,0E0,0E0,0E0,0E0,0E0,0E0,0E0,0E0,0E0,0E0,0E0,0E0],"parents":[2147483647,0,0,2,2,3,3,4,4,5,5,6,6,7,7,8,8,9,9,10,10,11,11,12,12,13,13,14,14,15,15,16,16,17,17,18,18,19,19,20,20,21,21,22,22,23,23,24,24,25,25,26,26,27,27,28,28,29,29,30,30,31,31,32,32],"right_children":[2,-1,4,6,8,10,12,14,16,18,20,22,24,26,28,30,32,34,36,38,40,42,44,46,48,50,52,54,56,58,60,62,64,-1,-1,-1,-1,-1,-1,-1,-1,-1,-1,-1,-1,-1,-1,-1,-1,-1,-1,-1,-1,-1,-1,-1,-1,-1,-1,-1,-1,-1,-1,-1,-1],"split_conditions":[0E0,-3.3372378E-1,6.329016E-2,-5.2063423E-1,4.151585E0,-5.253041E-1,5.77831E-1,4.1587577E0,6.666667E-1,-6.3726187E-1,-6.235129E-1,3.846154E-1,5.801777E-1,1E0,-7.1600604E-1,4.6666667E-1,-5.2063423E-1,-6.418953E-1,4.149587E0,3.326086E-2,2.380432E0,5E-1,2.0169154E-2,1.7152622E-2,6.4847124E-1,-6.218914E-1,-1.820624E-1,6.28676E-1,-6.488357E-1,-3.0769232E-1,1.0191332E-1,6.841794E-2,-6.4083815E-1,-1.1706666E-1,-3.0580252E-1,4.4184643E-1,6.669926E-1,-5.2475154E-1,-9.241817E-1,-3.0458388E-1,-4.496725E-1,4.6366903E-1,6.0987964E-2,-1.5943809E-1,8.534949E-2,-3.9466676E-1,-2.32772E-1,5.263059E-1,-2.0487386E-1,5.0314628E-2,3.339267E-1,-1.2528281E-1,1.3274871E-1,-3.3250904E-1,2.0174962E-2,6.3577116E-1,-9.826231E-2,8.295938E-3,-1.6837858E-1,-2.7770412E-1,2.0178123E-1,-3.4822095E-2,-1.8723834E-1,-3.1144563E-2,3.11971E-1],"split_indices":[20,0,24,13,19,13,12,18,8,13,1,6,12,5,12,9,13,13,18,24,23,17,24,18,12,23,13,1,12,6,24,24,12,0,0,0,0,0,0,0,0,0,0,0,0,0,0,0,0,0,0,0,0,0,0,0,0,0,0,0,0,0,0,0,0],"split_type":[0,0,0,0,0,0,0,0,0,0,0,0,0,0,0,0,0,0,0,0,0,0,0,0,0,0,0,0,0,0,0,0,0,0,0,0,0,0,0,0,0,0,0,0,0,0,0,0,0,0,0,0,0,0,0,0,0,0,0,0,0,0,0,0,0],"sum_hessian":[4.0845914E4,1.5075722E4,2.5770193E4,9.1800625E3,1.6590133E4,1.9307822E3,7.24928E3,1.6291786E4,2.9834644E2,1.4774307E3,4.5335156E2,5.8036655E3,1.4456143E3,1.60232295E4,2.6855643E2,2.83487E2,1.4859454E1,1.2719438E3,2.0548682E2,2.3564806E1,4.2978677E2,3.116741E3,2.6869248E3,4.372709E2,1.0083433E3,1.5697282E4,3.2594733E2,3.572787E1,2.3282857E2,2.1226581E2,7.122118E1,2.0545692E0,1.2804885E1,8.7754694E2,3.9439685E2,2.0211084E2,3.375977E0,1.07673E1,1.2797506E1,2.7106253E2,1.5872424E2,1.1237773E3,1.9929636E3,1.492506E3,1.1944188E3,2.781923E2,1.5907861E2,2.0884512E2,7.994982E2,4.2859363E2,1.5268688E4,1.9531921E2,1.3062813E2,3.355026E1,2.1776109E0,6.305204E0,2.2652336E2,7.122069E1,1.4104512E2,6.996446E1,1.2567257E0,1.015532E0,1.0390372E0,2.756308E0,1.0048577E1],"tree_param":{"num_deleted":"0","num_feature":"26","num_nodes":"65","size_leaf_vector":"1"}},{"base_weights":[2.1528997E-3,-3.2414225E-1,5.783542E-1,3.1629354E-2,9.8934877E-1,9.375811E-2,-9.518028E-1,1.0125275E0,-2.9827034E-1,2.0813467E-1,-4.397887E-1,-2.1040337E0,-8.5809916E-1,1.0333836E0,-2.976512E-1,-5.311234E-1,6.8962455E-2,3.4715176E-1,-2.0510404E-1,-1.5404996E0,-3.4732738E-1,-1.559569E0,-7.990281E-1,-5.5961496E-1,-1.2650516E0,1.7584217E-1,1.0587938E0,-5.655138E-1,9.084439E-2,-8.7486446E-1,-2.1899058E-1,1.1301068E0,-4.6353692E-1,2.2260007E-2,3.9498815E-1,-1.46543E-1,2.566058E-2,-6.0843974E-1,-1.5665516E-1,-1.9031045E-1,1.6891776E-3,-1.2071204E-1,-4.8198515E-1,-1.1761342E-1,-3.1451905E-1,-4.201828E-1,-2.04592E-1,-6.9766325E-1,1.1244703E-1,3.2412258E-1,-2.3839942E-3,-2.3869182E-1,4.499227E-3,-2.6907063E-1,1.5362397E-1,-3.7206016E-2,-2.8041545E-1,2.864739E-1,-1.1650865E-1,-4.1362207E-2,6.520289E-1,1.6466302E-1,-2.3940648E-1],"categories":[],"categories_nodes":[],"categories_segments":[],"categories_sizes":[],"default_left":[0,0,0,0,0,0,0,0,0,0,0,0,0,0,0,0,0,0,0,0,0,0,0,0,0,0,0,0,0,0,0,0,0,0,0,0,0,0,0,0,0,0,0,0,0,0,0,0,0,0,0,0,0,0,0,0,0,0,0,0,0,0,0],"id":6,"left_children":[1,-1,3,5,7,9,11,13,15,17,19,21,23,25,27,29,31,33,35,37,39,41,-1,43,45,47,49,51,53,55,57,59,61,-1,-1,-1,-1,-1,-1,-1,-1,-1,-1,-1,-1,-1,-1,-1,-1,-1,-1,-1,-1,-1,-1,-1,-1,-1,-1,-1,-1,-1,-1],"loss_changes":[2.0556383E4,0E0,4.832514E3,5.640573E2,3.6671973E2,5.2995935E2,5.7422638E1,3.2985938E2,1.8666891E1,4.108588E2,1.5549045E2,8.201935E0,6.1119934E1,2.585E2,1.9797546E1,1.4125961E1,4.879423E1,1.415897E3,1.4834134E2,5.7788605E1,1.4341882E2,6.0417175E-1,0E0,2.3785965E1,1.6005035E1,1.7151707E2,2.6585352E2,1.5034355E1,3.303783E1,2.7230911E0,1.4541413E1,3.8445713E1,1.9940298E1,0E0,0E0,0E0,0E0,0E0,0E0,0E0,0E0,0E0,0E0,0E0,0E0,0E0,0E0,0E0,0E0,0E0,0E0,0E0,0E0,0E0,0E0,0E0,0E0,0E0,0E0,0E0,0E0,0E0,0E0],"parents":[2147483647,0,0,2,2,3,3,4,4,5,5,6,6,7,7,8,8,9,9,10,10,11,11,12,12,13,13,14,14,15,15,16,16,17,17,18,18,19,19,20,20,21,21,23,23,24,24,25,25,26,26,27,27,28,28,29,29,30,30,31,31,32,32],"right_children":[2,-1,4,6,8,10,12,14,16,18,20,22,24,26,28,30,32,34,36,38,40,42,-1,44,46,48,50,52,54,56,58,60,62,-1,-1,-1,-1,-1,-1,-1,-1,-1,-1,-1,-1,-1,-1,-1,-1,-1,-1,-1,-1,-1,-1,-1,-1,-1,-1,-1,-1,-1,-1],"split_conditions":[0E0,-3.2414225E-1,6.841794E-2,1E0,4.151585E0,1E0,-6.235129E-1,4.1587577E0,1.8829148E-1,2.0757926E0,-6.218914E-1,3.326086E-2,1E0,-6.218914E-1,2E-1,-4.082303E-2,5E-1,1.5605128E-2,2.1314118E0,1.7152622E-2,2.1781474E-2,-4.6239004E-2,-7.990281E-1,4.151585E0,1E0,-7.1600604E-1,1E0,7.5E-1,-1.4034444E-1,7.000591E-2,-7.610852E-3,-6.4083815E-1,-6.923077E-1,2.2260007E-2,3.9498815E-1,-1.46543E-1,2.566058E-2,-6.0843974E-1,-1.5665516E-1,-1.9031045E-1,1.6891776E-3,-1.2071204E-1,-4.8198515E-1,-1.1761342E-1,-3.1451905E-1,-4.201828E-1,-2.04592E-1,-6.9766325E-1,1.1244703E-1,3.2412258E-1,-2.3839942E-3,-2.3869182E-1,4.499227E-3,-2.6907063E-1,1.5362397E-1,-3.7206016E-2,-2.8041545E-1,2.864739E-1,-1.1650865E-1,-4.1362207E-2,6.520289E-1,1.6466302E-1,-2.3940648E-1],"split_indices":[20,0,24,3,19,4,1,18,13,19,23,24,15,23,9,1,17,19,19,18,24,24,0,19,0,12,5,2,23,24,1,12,6,0,0,0,0,0,0,0,0,0,0,0,0,0,0,0,0,0,0,0,0,0,0,0,0,0,0,0,0,0,0],"split_type":[0,0,0,0,0,0,0,0,0,0,0,0,0,0,0,0,0,0,0,0,0,0,0,0,0,0,0,0,0,0,0,0,0,0,0,0,0,0,0,0,0,0,0,0,0,0,0,0,0,0,0,0,0,0,0,0,0,0,0,0,0,0,0],"sum_hessian":[3.2950895E4,1.1445334E4,2.150556E4,9.229334E3,1.2276228E4,8.681764E3,5.4756964E2,1.2059358E4,2.1686908E2,7.149693E3,1.5320712E3,3.956784E1,5.080018E2,1.1870607E4,1.8875127E2,1.3244363E2,8.442544E1,5.3500493E3,1.7996434E3,1.1750969E2,1.4145615E3,2.1971071E1,1.759677E1,2.944264E2,2.1357541E2,3.4184802E2,1.1528759E4,1.1145136E2,7.729991E1,6.217243E1,7.027122E1,2.7834883E1,5.6590553E1,4.1755244E3,1.1745249E3,9.1086835E2,8.887751E2,7.878897E1,3.872071E1,7.7968805E2,6.348735E2,1.2315748E0,2.0739496E1,2.2059973E2,7.382666E1,1.7215067E2,4.1424747E1,2.4402153E1,3.174459E2,1.1299785E4,2.2897447E2,7.95469E1,3.1904469E1,2.2772327E1,5.452758E1,4.816986E0,5.7355442E1,8.275598E0,6.1995617E1,1.2956419E1,1.4878464E1,1.3894353E1,4.26962E1],"tree_param":{"num_deleted":"0","num_feature":"26","num_nodes":"63","size_leaf_vector":"1"}},{"base_weights":[2.7423634E-3,-3.174421E-1,5.029991E-1,7.1196154E-2,9.973387E-1,-1.1580964E-1,4.1635466E-1,1.0133278E0,-2.0579316E-1,-1.4119725E-2,-6.5685374E-1,5.333089E-1,-5.1887554E-1,1.875908E-1,1.0321345E0,-6.147979E-1,1.3017684E-1,7.91996E-2,-6.167727E-1,-1.5105857E0,-5.8883595E-1,6.6317564E-1,-4.0529984E-1,-4.1955388E-1,-1.0116111E0,-1.8307234E-1,1.2328984E0,1.045703E0,-1.10490456E-1,-6.759578E-1,2.6726946E-1,-2.9231757E-1,7.060813E-1,4.5342013E-2,-2.3843664E-1,-2.780621E-1,-1.3058874E-1,-3.3584306E-1,-5.2844095E-1,-2.606191E-1,-1.13591716E-1,2.587963E-1,-2.405251E-2,-8.475593E-2,-2.898366E-1,-1.686712E-1,5.4611015E-1,-1.4335623E-1,-3.183447E-1,-5.340042E-1,3.336895E-2,-4.1070175E-1,4.1132414E-1,3.174258E-1,5.553169E-3,-2.66409E-1,4.1541424E-2,-4.1665755E-2,-2.288301E-1,3.8121548E-1,-1.6520056E-1,2.8325045E-1,-1.7198187E-1],"categories":[],"categories_nodes":[],"categories_segments":[],"categories_sizes":[],"default_left":[0,0,0,0,0,0,0,0,0,0,0,0,0,0,0,0,0,0,0,0,0,0,0,0,0,0,0,0,0,0,0,0,0,0,0,0,0,0,0,0,0,0,0,0,0,0,0,0,0,0,0,0,0,0,0,0,0,0,0,0,0,0,0],"id":7,"left_children":[1,-1,3,5,7,9,11,13,15,17,19,21,23,25,27,29,31,33,35,37,39,41,43,45,47,49,51,53,55,57,-1,59,61,-1,-1,-1,-1,-1,-1,-1,-1,-1,-1,-1,-1,-1,-1,-1,-1,-1,-1,-1,-1,-1,-1,-1,-1,-1,-1,-1,-1,-1,-1],"loss_changes":[1.4293286E4,0E0,3.9066128E3,6.3066614E2,1.643584E2,3.4867288E2,3.758236E2,1.3058301E2,1.557255E1,3.0013266E2,5.733426E1,3.7232526E2,1.8277573E1,7.3358185E1,1.2776465E2,5.3005676E0,1.5468112E1,2.9068362E2,3.986609E1,5.2253723E0,5.4404327E1,3.9771655E2,2.53152E1,1.0321471E2,1.169281E0,6.609482E1,1.9688072E1,1.0347949E2,1.9002403E1,2.2064266E0,0E0,1.5595562E1,8.715353E0,0E0,0E0,0E0,0E0,0E0,0E0,0E0,0E0,0E0,0E0,0E0,0E0,0E0,0E0,0E0,0E0,0E0,0E0,0E0,0E0,0E0,0E0,0E0,0E0,0E0,0E0,0E0,0E0,0E0,0E0],"parents":[2147483647,0,0,2,2,3,3,4,4,5,5,6,6,7,7,8,8,9,9,10,10,11,11,12,12,13,13,14,14,15,15,16,16,17,17,18,18,19,19,20,20,21,21,22,22,23,23,24,24,25,25,26,26,27,27,28,28,29,29,31,31,32,32],"right_children":[2,-1,4,6,8,10,12,14,16,18,20,22,24,26,28,30,32,34,36,38,40,42,44,46,48,50,52,54,56,58,-1,60,62,-1,-1,-1,-1,-1,-1,-1,-1,-1,-1,-1,-1,-1,-1,-1,-1,-1,-1,-1,-1,-1,-1,-1,-1,-1,-1,-1,-1,-1,-1],"split_conditions":[0E0,-3.174421E-1,7.8008264E-2,4.529543E-2,4.151585E0,1E0,4.151585E0,-6.218914E-1,0E0,8E-1,-6.218914E-1,4.1587577E0,2.0793788E0,1.7152622E-2,4.1587577E0,7.692308E-1,1.8829148E-1,4.1587577E0,-9.813454E-3,0E0,-1.4365421E-2,1E0,1E0,1.7152622E-2,-6E-1,-6.4083815E-1,-7.1600604E-1,1E0,-2E-1,-4E-1,2.6726946E-1,-3.3333334E-1,5E-1,4.5342013E-2,-2.3843664E-1,-2.780621E-1,-1.3058874E-1,-3.3584306E-1,-5.2844095E-1,-2.606191E-1,-1.13591716E-1,2.587963E-1,-2.405251E-2,-8.475593E-2,-2.898366E-1,-1.686712E-1,5.4611015E-1,-1.4335623E-1,-3.183447E-1,-5.340042E-1,3.336895E-2,-4.1070175E-1,4.1132414E-1,3.174258E-1,5.553169E-3,-2.66409E-1,4.1541424E-2,-4.1665755E-2,-2.288301E-1,3.8121548E-1,-1.6520056E-1,2.8325045E-1,-1.7198187E-1],"split_indices":[20,0,24,24,19,2,19,23,8,3,23,18,18,18,18,6,13,18,24,8,24,5,4,18,3,12,12,5,3,3,0,0,4,0,0,0,0,0,0,0,0,0,0,0,0,0,0,0,0,0,0,0,0,0,0,0,0,0,0,0,0,0,0],"split_type":[0,0,0,0,0,0,0,0,0,0,0,0,0,0,0,0,0,0,0,0,0,0,0,0,0,0,0,0,0,0,0,0,0,0,0,0,0,0,0,0,0,0,0,0,0,0,0,0,0,0,0,0,0,0,0,0,0,0,0,0,0,0,0],"sum_hessian":[2.6930191E4,8.629244E3,1.8300947E4,9.768958E3,8.531989E3,6.336517E3,3.4324407E3,8.420245E3,1.1174391E2,5.334851E3,1.0016659E3,3.051294E3,3.8114676E2,1.8774991E2,8.232495E3,5.0020184E1,6.1723732E1,4.620281E3,7.145705E2,7.2349945E1,9.29316E2,2.6806853E3,3.7060855E2,3.1874765E2,6.23991E1,1.3921095E2,4.853895E1,8.1359663E3,9.6528984E1,4.859728E1,1.422908E0,3.588802E1,2.583571E1,4.26966E3,3.506206E2,2.6228326E2,4.5228723E2,3.0408144E1,4.1941803E1,3.9723376E2,5.3208215E2,2.113394E3,5.672913E2,3.0527814E2,6.5330414E1,3.0036343E2,1.8384222E1,6.203562E0,5.6195538E1,2.0877464E1,1.1833349E2,1.9986186E0,4.6540333E1,8.0390254E3,9.694105E1,2.2789028E1,7.373996E1,7.123765E0,4.147351E1,4.534642E0,3.1353378E1,2.2002972E1,3.8327396E0],"tree_param":{"num_deleted":"0","num_feature":"26","num_nodes":"63","size_leaf_vector":"1"}},{"base_weights":[2.1225503E-3,-3.126765E-1,4.3241388E-1,5.9667908E-2,9.754955E-1,1.3023777E-1,-5.8482206E-1,9.920449E-1,-1.3078524E-1,-5.9242755E-2,5.1803493E-1,-7.02348E-1,5.920041E-2,1.6914423E-1,1.0145186E0,-9.034482E-1,7.139998E-3,-5.27495E-1,6.976323E-2,1.2413348E0,-4.5747258E-2,-5.4994303E-1,-9.5003664E-1,3.9825353E-1,-8.263344E-1,-1.2541631E0,4.0166843E-1,1.0295633E0,-6.526856E-2,-4.6329054E-1,-3.0449435E-1,6.051607E-1,-1.13615796E-1,-1.0151047E-1,-3.454313E-1,6.356177E-2,-1.5275761E-1,3.6371356E-1,6.2210464E-1,-1.2417696E-1,4.1088247E-1,-1.2298908E-1,-2.542509E-1,-2.9537377E-1,-5.057693E-2,-9.717374E-3,-2.6733413E-1,-6.129622E-2,-8.9293724E-1,-2.3814625E-1,2.014265E-1,3.126627E-1,2.6702536E-2,-2.939526E-1,3.0767692E-2,-2.3451348E-1,8.003754E-2,-1.5760781E-1,4.3634698E-2],"categories":[],"categories_nodes":[],"categories_segments":[],"categories_sizes":[],"default_left":[0,0,0,0,0,0,0,0,0,0,0,0,0,0,0,0,0,0,0,0,0,0,0,0,0,0,0,0,0,0,0,0,0,0,0,0,0,0,0,0,0,0,0,0,0,0,0,0,0,0,0,0,0,0,0,0,0,0,0],"id":8,"left_children":[1,-1,3,5,7,9,11,13,15,17,19,21,23,25,27,29,31,33,35,37,39,41,43,-1,45,47,49,51,53,55,-1,-1,57,-1,-1,-1,-1,-1,-1,-1,-1,-1,-1,-1,-1,-1,-1,-1,-1,-1,-1,-1,-1,-1,-1,-1,-1,-1,-1],"loss_changes":[9.973176E3,0E0,3.1816067E3,4.2402432E2,1.1724658E2,6.1742487E2,6.9684204E1,1.1638916E2,1.014849E1,3.410506E2,1.1247109E3,2.8853516E1,1.6161346E2,5.6353615E1,9.973047E1,2.37813E-1,2.0070953E1,1.4351324E2,3.6431982E2,2.6603638E1,8.0871796E2,1.9817886E1,7.7985535E0,0E0,4.331215E0,4.2679264E1,4.7556152E1,7.187402E1,1.3184733E1,1.314096E0,0E0,0E0,8.402873E0,0E0,0E0,0E0,0E0,0E0,0E0,0E0,0E0,0E0,0E0,0E0,0E0,0E0,0E0,0E0,0E0,0E0,0E0,0E0,0E0,0E0,0E0,0E0,0E0,0E0,0E0],"parents":[2147483647,0,0,2,2,3,3,4,4,5,5,6,6,7,7,8,8,9,9,10,10,11,11,12,12,13,13,14,14,15,15,16,16,17,17,18,18,19,19,20,20,21,21,22,22,24,24,25,25,26,26,27,27,28,28,29,29,32,32],"right_children":[2,-1,4,6,8,10,12,14,16,18,20,22,24,26,28,30,32,34,36,38,40,42,44,-1,46,48,50,52,54,56,-1,-1,58,-1,-1,-1,-1,-1,-1,-1,-1,-1,-1,-1,-1,-1,-1,-1,-1,-1,-1,-1,-1,-1,-1,-1,-1,-1,-1],"split_conditions":[0E0,-3.126765E-1,7.938288E-2,4.151585E0,4.151585E0,1.5605128E-2,5.014774E0,-6.218914E-1,-7.1600604E-1,-5.2063423E-1,2.0757926E0,3.0769232E-1,6.227378E0,-6.3726187E-1,4.1587577E0,-2.5E-1,-6.488357E-1,-5.253041E-1,5.77831E-1,4.1587577E0,2.1314118E0,1E0,2.892774E0,3.9825353E-1,-7.692308E-1,-2.8380208E0,-6.4083815E-1,1E0,-2.6393855E-1,1.549747E-1,-3.0449435E-1,6.051607E-1,-3.5647422E-1,-1.0151047E-1,-3.454313E-1,6.356177E-2,-1.5275761E-1,3.6371356E-1,6.2210464E-1,-1.2417696E-1,4.1088247E-1,-1.2298908E-1,-2.542509E-1,-2.9537377E-1,-5.057693E-2,-9.717374E-3,-2.6733413E-1,-6.129622E-2,-8.9293724E-1,-2.3814625E-1,2.014265E-1,3.126627E-1,2.6702536E-2,-2.939526E-1,3.0767692E-2,-2.3451348E-1,8.003754E-2,-1.5760781E-1,4.3634698E-2],"split_indices":[20,0,24,19,19,19,19,23,12,13,19,6,19,13,18,2,12,13,12,18,19,10,1,0,6,14,12,5,1,1,0,0,13,0,0,0,0,0,0,0,0,0,0,0,0,0,0,0,0,0,0,0,0,0,0,0,0,0,0],"split_type":[0,0,0,0,0,0,0,0,0,0,0,0,0,0,0,0,0,0,0,0,0,0,0,0,0,0,0,0,0,0,0,0,0,0,0,0,0,0,0,0,0,0,0,0,0,0,0,0,0,0,0,0,0,0,0,0,0,0,0],"sum_hessian":[2.2190861E4,6.4746226E3,1.5716239E4,9.320317E3,6.3959224E3,8.401206E3,9.1911096E2,6.3017544E3,9.4168106E1,5.6442373E3,2.7569688E3,7.7719257E2,1.419184E2,1.6775444E2,6.134E3,1.3422792E1,8.0745316E1,1.2184711E3,4.4257666E3,1.207112E3,1.5498566E3,4.831354E2,2.9405716E2,5.8143295E1,8.377511E1,2.2940332E1,1.4481412E2,6.0497554E3,8.4244576E1,3.755559E0,9.667233E0,3.6859162E0,7.70594E1,9.3622797E2,2.8224307E2,3.5540337E3,8.7173267E2,1.1689039E3,3.820813E1,1.2304799E3,3.1937674E2,3.3018576E2,1.5294968E2,2.8136017E2,1.2696981E1,6.4328866E0,7.734222E1,1.4947537E1,7.9927955E0,2.6302816E1,1.1851129E2,5.96939E3,8.0365524E1,1.2312021E1,7.1932556E1,2.5657885E0,1.1897703E0,2.9363203E1,4.7696198E1],"tree_param":{"num_deleted":"0","num_feature":"26","num_nodes":"59","size_leaf_vector":"1"}},{"base_weights":[3.0808449E-3,-3.0924413E-1,3.706646E-1,5.566245E-2,9.6047497E-1,-1.1658556E-1,3.1181E-1,7.045951E-2,9.816845E-1,-2.9561715E-2,-6.395544E-1,-5.1109046E-1,4.4885978E-1,1.8509054E-1,-6.7677176E-1,9.9887717E-1,-2.1840049E-2,-7.133401E-1,4.432462E-2,4.8080513E-1,-7.8238255E-1,-1.0217391E0,3.8988975E-1,5.7240504E-1,-3.8324186E-1,-6.5717064E-2,1.0606029E0,1.0156299E0,-5.2378997E-2,-8.096403E-1,9.963297E-2,-2.723226E-1,-1.125061E-1,-1.5223216E-1,4.7626946E-2,-3.40643E-1,-1.3099067E-1,-7.8875554E-1,-2.303589E-1,3.766851E-1,-1.5056306E-1,2.4528357E-1,-3.7931543E-2,4.6903443E-1,-1.22219674E-1,1.4682814E-1,-2.2006088E-1,3.6239246E-1,-3.2424018E-1,3.0848712E-1,2.3831958E-2,5.7756115E-2,-2.596329E-1,-2.6574608E-2,-2.6318413E-1,2.7427283E-1,-3.327583E-2],"categories":[],"categories_nodes":[],"categories_segments":[],"categories_sizes":[],"default_left":[0,0,0,0,0,0,0,0,0,0,0,0,0,0,0,0,0,0,0,0,0,0,0,0,0,0,0,0,0,0,0,0,0,0,0,0,0,0,0,0,0,0,0,0,0,0,0,0,0,0,0,0,0,0,0,0,0],"id":9,"left_children":[1,-1,3,5,7,9,11,13,15,17,19,21,23,25,-1,27,29,31,33,-1,35,37,39,41,43,45,47,49,51,53,55,-1,-1,-1,-1,-1,-1,-1,-1,-1,-1,-1,-1,-1,-1,-1,-1,-1,-1,-1,-1,-1,-1,-1,-1,-1,-1],"loss_changes":[7.016416E3,0E0,2.5304E3,3.917986E2,8.943652E1,2.416368E2,4.0289655E2,3.0136013E1,7.992383E1,2.3007707E2,2.438392E2,2.3513768E2,3.1491974E2,2.3594324E1,0E0,8.024072E1,7.639133E0,2.8867874E1,2.5960196E2,0E0,8.6522064E1,1.3098663E2,1.436783E2,4.5692993E2,1.9275879E1,3.1581549E1,8.852552E0,5.303955E1,1.4577052E1,4.4226646E-1,1.1991457E1,0E0,0E0,0E0,0E0,0E0,0E0,0E0,0E0,0E0,0E0,0E0,0E0,0E0,0E0,0E0,0E0,0E0,0E0,0E0,0E0,0E0,0E0,0E0,0E0,0E0,0E0],"parents":[2147483647,0,0,2,2,3,3,4,4,5,5,6,6,7,7,8,8,9,9,10,10,11,11,12,12,13,13,15,15,16,16,17,17,18,18,20,20,21,21,22,22,23,23,24,24,25,25,26,26,27,27,28,28,29,29,30,30],"right_children":[2,-1,4,6,8,10,12,14,16,18,20,22,24,26,-1,28,30,32,34,-1,36,38,40,42,44,46,48,50,52,54,56,-1,-1,-1,-1,-1,-1,-1,-1,-1,-1,-1,-1,-1,-1,-1,-1,-1,-1,-1,-1,-1,-1,-1,-1,-1,-1],"split_conditions":[0E0,-3.0924413E-1,8.115038E-2,3.8020927E-2,-2.612407E0,7.692308E-1,-6.218914E-1,1.7215167E0,4.151585E0,-7.1039325E-1,5E-1,1.7152622E-2,4.151585E0,1.7152622E-2,-6.7677176E-1,4.1587577E0,-7.1600604E-1,1.5605128E-2,-6.4083815E-1,4.8080513E-1,-1.4365421E-2,-6.4083815E-1,2.0793788E0,1E0,-6.1456203E-1,-7.692308E-2,2.0793788E0,1E0,5.501039E-1,-4E-1,-5.5811924E-1,-2.723226E-1,-1.125061E-1,-1.5223216E-1,4.7626946E-2,-3.40643E-1,-1.3099067E-1,-7.8875554E-1,-2.303589E-1,3.766851E-1,-1.5056306E-1,2.4528357E-1,-3.7931543E-2,4.6903443E-1,-1.22219674E-1,1.4682814E-1,-2.2006088E-1,3.6239246E-1,-3.2424018E-1,3.0848712E-1,2.3831958E-2,5.7756115E-2,-2.596329E-1,-2.6574608E-2,-2.6318413E-1,2.7427283E-1,-3.327583E-2],"split_indices":[20,0,24,24,14,6,23,19,19,13,17,18,19,18,0,18,12,19,12,0,24,12,18,5,23,6,18,5,12,3,12,0,0,0,0,0,0,0,0,0,0,0,0,0,0,0,0,0,0,0,0,0,0,0,0,0,0],"split_type":[0,0,0,0,0,0,0,0,0,0,0,0,0,0,0,0,0,0,0,0,0,0,0,0,0,0,0,0,0,0,0,0,0,0,0,0,0,0,0,0,0,0,0,0,0,0,0,0,0,0,0,0,0,0,0,0,0],"sum_hessian":[1.8460166E4,4.841312E3,1.36188545E4,8.878289E3,4.7405654E3,5.3088584E3,3.5694302E3,1.1044132E2,4.630124E3,4.552383E3,7.5647595E2,5.0920932E2,3.060221E3,1.06132126E2,4.3091946E0,4.55214E3,7.798374E1,4.430976E2,4.109285E3,4.4689E1,7.117869E2,3.2492023E2,1.8428911E2,2.6648696E3,3.953512E2,8.321772E1,2.2914402E1,4.480769E3,7.137103E1,9.661291E0,6.832246E1,2.803326E2,1.6276495E2,7.05257E2,3.404028E3,3.5102182E2,3.607651E2,4.3041553E1,2.8187866E2,9.330276E1,9.098635E1,1.972573E3,6.9229675E2,4.064867E0,3.9128632E2,4.5588272E1,3.762945E1,2.1846796E1,1.0676061E0,4.420885E3,5.9884193E1,5.5436474E1,1.5934561E1,1.026645E0,8.634646E0,1.3345954E1,5.4976498E1],"tree_param":{"num_deleted":"0","num_feature":"26","num_nodes":"57","size_leaf_vector":"1"}},{"base_weights":[2.5729607E-3,-3.0674714E-1,3.081529E-1,4.42838E-2,9.3536127E-1,1.1764082E-1,-6.2696075E-1,1.0784966E-1,9.642317E-1,-6.375938E-2,4.938858E-1,-3.770263E-1,-6.98492E-1,-1.5985005E0,2.1659315E-1,9.853732E-1,-1.6168222E-2,-8.1270957E-1,2.1573244E-2,1.290778E0,-6.7602076E-2,-6.031228E-1,5.7096833E-1,-8.8163376E-1,-5.6906635E-1,-2.412614E-2,-5.5950534E-1,2.2408534E-2,9.457902E-1,1.0053883E0,-1.3708109E-2,-1.8073215E-1,4.677285E-1,-1.4927517E-1,-4.2768E-1,4.4542156E-2,-1.4208607E-1,3.755464E-1,4.9233642E-1,-1.00808494E-1,3.6566493E-1,-2.214625E-1,-5.5221193E-2,-3.180913E-1,-2.1336426E-1,7.353815E-1,-1.9235356E-1,-3.5142535E-1,6.131566E-2,3.384225E-1,-3.002417E-1,3.0673838E-1,2.9317723E-3,2.1298431E-1,-7.8601815E-2,3.6689865E-3,-2.8807288E-1,4.9874642E-1,-1.1059098E-2],"categories":[],"categories_nodes":[],"categories_segments":[],"categories_sizes":[],"default_left":[0,0,0,0,0,0,0,0,0,0,0,0,0,0,0,0,0,0,0,0,0,0,0,0,0,0,0,0,0,0,0,0,0,0,0,0,0,0,0,0,0,0,0,0,0,0,0,0,0,0,0,0,0,0,0,0,0,0,0],"id":10,"left_children":[1,-1,3,5,7,9,11,13,15,17,19,21,23,25,27,29,31,33,35,37,39,41,-1,43,45,-1,-1,47,49,51,53,55,57,-1,-1,-1,-1,-1,-1,-1,-1,-1,-1,-1,-1,-1,-1,-1,-1,-1,-1,-1,-1,-1,-1,-1,-1,-1,-1],"loss_changes":[4.926896E3,0E0,2.0052942E3,4.2008307E2,8.561548E1,5.2489844E2,1.4763153E1,2.2999685E1,7.1875244E1,3.3167953E2,1.1194749E3,9.868957E1,1.49599E1,2.857582E0,1.6354952E1,6.787744E1,5.9906025E0,1.0181268E2,2.9288763E2,1.2059937E1,5.0755154E2,9.650974E0,0E0,7.414688E0,8.5430466E1,0E0,0E0,2.0303385E1,9.750395E0,5.6544434E1,1.2339673E1,8.445047E0,1.1576366E1,0E0,0E0,0E0,0E0,0E0,0E0,0E0,0E0,0E0,0E0,0E0,0E0,0E0,0E0,0E0,0E0,0E0,0E0,0E0,0E0,0E0,0E0,0E0,0E0,0E0,0E0],"parents":[2147483647,0,0,2,2,3,3,4,4,5,5,6,6,7,7,8,8,9,9,10,10,11,11,12,12,13,13,14,14,15,15,16,16,17,17,18,18,19,19,20,20,21,21,23,23,24,24,27,27,28,28,29,29,30,30,31,31,32,32],"right_children":[2,-1,4,6,8,10,12,14,16,18,20,22,24,26,28,30,32,34,36,38,40,42,-1,44,46,-1,-1,48,50,52,54,56,58,-1,-1,-1,-1,-1,-1,-1,-1,-1,-1,-1,-1,-1,-1,-1,-1,-1,-1,-1,-1,-1,-1,-1,-1,-1,-1],"split_conditions":[0E0,-3.0674714E-1,8.158522E-2,4.1587577E0,-6.218914E-1,1.7152622E-2,-5E-1,-7.1039325E-1,4.151585E0,-6.218914E-1,2.0793788E0,-3.5647422E-1,-3.1713724E-2,-6.666667E-1,1.7152622E-2,4.1587577E0,3.6039189E-1,5E-1,1E0,1E0,2.191566E0,-5.2063423E-1,5.7096833E-1,5E-1,1.4847122E-1,-2.412614E-2,-5.5950534E-1,0E0,1.985559E0,1E0,-5E-1,3.6029455E-1,5E-1,-1.4927517E-1,-4.2768E-1,4.4542156E-2,-1.4208607E-1,3.755464E-1,4.9233642E-1,-1.00808494E-1,3.6566493E-1,-2.214625E-1,-5.5221193E-2,-3.180913E-1,-2.1336426E-1,7.353815E-1,-1.9235356E-1,-3.5142535E-1,6.131566E-2,3.384225E-1,-3.002417E-1,3.0673838E-1,2.9317723E-3,2.1298431E-1,-7.8601815E-2,3.6689865E-3,-2.8807288E-1,4.9874642E-1,-1.1059098E-2],"split_indices":[20,0,24,18,23,18,17,13,19,23,18,13,12,9,18,18,13,2,5,5,18,13,0,4,12,0,0,4,18,5,17,13,17,0,0,0,0,0,0,0,0,0,0,0,0,0,0,0,0,0,0,0,0,0,0,0,0,0,0],"split_type":[0,0,0,0,0,0,0,0,0,0,0,0,0,0,0,0,0,0,0,0,0,0,0,0,0,0,0,0,0,0,0,0,0,0,0,0,0,0,0,0,0,0,0,0,0,0,0,0,0,0,0,0,0,0,0,0,0,0,0],"sum_hessian":[1.5726874E4,3.6111108E3,1.2115764E4,8.528753E3,3.5870103E3,7.6892563E3,8.3949634E2,1.2108523E2,3.465925E3,5.1885264E3,2.5007305E3,1.8819655E2,6.512998E2,6.433538E0,1.14651695E2,3.392758E3,7.3167076E1,5.2982416E2,4.658702E3,1.0331427E3,1.4675878E3,1.7188858E2,1.6307955E1,2.672789E2,3.8402087E2,1.1552105E0,5.2783275E0,9.135473E1,2.3296965E1,3.3261182E3,6.6639755E1,5.5066525E1,1.8100554E1,3.511088E2,1.7871535E2,3.7089336E3,9.497685E2,9.3387286E2,9.926979E1,1.2148475E3,2.5274019E2,1.2941031E2,4.2478275E1,1.2793165E2,1.3934726E2,8.185555E0,3.758353E2,1.1364282E1,7.999045E1,2.1686653E1,1.6103125E0,3.2700166E3,5.6101685E1,1.6549002E1,5.009075E1,4.4928993E1,1.0137529E1,4.6932616E0,1.3407293E1],"tree_param":{"num_deleted":"0","num_feature":"26","num_nodes":"59","size_leaf_vector":"1"}},{"base_weights":[4.08832E-3,-3.0491388E-1,2.5797063E-1,3.481383E-2,8.975837E-1,-2.782619E-1,1.46445E-1,5.7145125E-1,9.9422306E-1,-6.4277256E-1,5.3721152E-2,2.2980481E-1,-5.0866246E-1,2.4835017E-1,8.1492287E-1,1.000438E0,-2.3546861E-1,-8.672549E-1,-2.9651016E-1,-5.82111E-1,4.36131E-1,3.2991946E-1,-4.8017615E-1,-4.253741E-1,-8.0752903E-1,4.3496647E-1,-9.6728605E-1,-2.0016208E-1,9.0532213E-1,4.7432116E-1,1.0081817E0,5.736539E-1,-7.2487545E-1,-2.8369504E-1,-6.424764E-2,4.0711126E-1,-1.7649058E-1,1.4145722E-2,-2.2977127E-1,1.6016872E-1,-2.9659683E-1,1.5068886E-1,-6.5230176E-2,-2.0589891E-1,-7.854486E-2,-1.8543047E-1,-3.1780522E-2,-1.4811973E-1,-2.6850432E-1,4.7040632E-1,9.473483E-2,-3.6773708E-1,2.6093113E-1,3.3866686E-1,-1.5268192E-1,2.9435518E-1,5.86921E-2,-3.971965E-1,2.0201851E-1,3.0326575E-1,-1.0958854E-1,-2.2343323E-1,4.8564377E-1,-3.034365E-1,1.7150857E-1],"categories":[],"categories_nodes":[],"categories_segments":[],"categories_sizes":[],"default_left":[0,0,0,0,0,0,0,0,0,0,0,0,0,0,0,0,0,0,0,0,0,0,0,0,0,0,0,0,0,0,0,0,0,0,0,0,0,0,0,0,0,0,0,0,0,0,0,0,0,0,0,0,0,0,0,0,0,0,0,0,0,0,0,0,0],"id":11,"left_children":[1,-1,3,5,7,9,11,13,15,17,19,21,23,25,27,29,31,33,35,37,39,41,43,45,47,49,51,53,55,57,59,61,63,-1,-1,-1,-1,-1,-1,-1,-1,-1,-1,-1,-1,-1,-1,-1,-1,-1,-1,-1,-1,-1,-1,-1,-1,-1,-1,-1,-1,-1,-1,-1,-1],"loss_changes":[3.4978079E3,0E0,1.5430957E3,2.8018893E2,8.756323E1,2.5503813E2,3.2284027E2,5.0265213E1,1.6710693E1,7.7822845E1,2.6863257E2,3.7284497E2,1.6269592E1,6.3289047E1,3.3712906E1,8.260986E0,5.0290494E0,3.0972809E1,1.9215756E2,4.802768E1,9.661386E1,4.3373215E2,2.9007843E1,3.219816E1,3.5207214E0,3.2041195E1,1.8727734E1,1.3173368E1,1.7882233E1,1.2706703E1,8.217529E0,8.025192E0,3.43966E0,0E0,0E0,0E0,0E0,0E0,0E0,0E0,0E0,0E0,0E0,0E0,0E0,0E0,0E0,0E0,0E0,0E0,0E0,0E0,0E0,0E0,0E0,0E0,0E0,0E0,0E0,0E0,0E0,0E0,0E0,0E0,0E0],"parents":[2147483647,0,0,2,2,3,3,4,4,5,5,6,6,7,7,8,8,9,9,10,10,11,11,12,12,13,13,14,14,15,15,16,16,17,17,18,18,19,19,20,20,21,21,22,22,23,23,24,24,25,25,26,26,27,27,28,28,29,29,30,30,31,31,32,32],"right_children":[2,-1,4,6,8,10,12,14,16,18,20,22,24,26,28,30,32,34,36,38,40,42,44,46,48,50,52,54,56,58,60,62,64,-1,-1,-1,-1,-1,-1,-1,-1,-1,-1,-1,-1,-1,-1,-1,-1,-1,-1,-1,-1,-1,-1,-1,-1,-1,-1,-1,-1,-1,-1,-1,-1],"split_conditions":[0E0,-3.0491388E-1,8.071262E-2,-1.4365421E-2,9.4624616E-2,3.0792665E0,4.1587577E0,-1.820624E-1,4.1587577E0,1.7152622E-2,-6.4629234E-2,4.151585E0,1E0,5.77831E-1,-7.1600604E-1,-6.218914E-1,0E0,2.1314118E0,2.0793788E0,-3.3333334E-1,7.0212287E-1,1E0,4.3349203E-2,5E-1,-6.1995727E-1,-1.5384616E-1,6.666667E-1,5.3846157E-1,4.151585E0,-6.3726187E-1,1E0,0E0,1.8829148E-1,-2.8369504E-1,-6.424764E-2,4.0711126E-1,-1.7649058E-1,1.4145722E-2,-2.2977127E-1,1.6016872E-1,-2.9659683E-1,1.5068886E-1,-6.5230176E-2,-2.0589891E-1,-7.854486E-2,-1.8543047E-1,-3.1780522E-2,-1.4811973E-1,-2.6850432E-1,4.7040632E-1,9.473483E-2,-3.6773708E-1,2.6093113E-1,3.3866686E-1,-1.5268192E-1,2.9435518E-1,5.86921E-2,-3.971965E-1,2.0201851E-1,3.0326575E-1,-1.0958854E-1,-2.2343323E-1,4.8564377E-1,-3.034365E-1,1.7150857E-1],"split_indices":[20,0,24,24,24,23,18,13,18,18,24,19,4,12,12,23,0,19,18,0,13,5,24,4,12,6,8,6,19,13,5,9,13,0,0,0,0,0,0,0,0,0,0,0,0,0,0,0,0,0,0,0,0,0,0,0,0,0,0,0,0,0,0,0,0],"split_type":[0,0,0,0,0,0,0,0,0,0,0,0,0,0,0,0,0,0,0,0,0,0,0,0,0,0,0,0,0,0,0,0,0,0,0,0,0,0,0,0,0,0,0,0,0,0,0,0,0,0,0,0,0,0,0,0,0,0,0,0,0,0,0,0,0],"sum_hessian":[1.3498932E4,2.688725E3,1.0810207E4,8.0149116E3,2.7952954E3,2.10627E3,5.9086416E3,6.405432E2,2.1547522E3,1.0035053E3,1.1027646E3,5.2422373E3,6.6640454E2,2.761268E2,3.6441638E2,2.1441023E3,1.0649841E1,6.078989E2,3.9560638E2,4.1395694E2,6.888077E2,4.594851E3,6.4738605E2,5.2306085E2,1.4334373E2,2.3993568E2,3.6191124E1,2.97003E1,3.347161E2,3.2003498E1,2.1120989E3,3.948974E0,6.7008677E0,5.423494E2,6.5549545E1,5.8791504E1,3.3681488E2,9.3743904E1,3.20213E2,6.451637E2,4.364398E1,3.4944382E3,1.100413E3,3.318981E2,3.154879E2,3.2565073E2,1.974101E2,3.269942E1,1.1064431E2,2.1679255E1,2.1825644E2,3.2018353E1,4.172769E0,5.0986247E0,2.4601677E1,3.0204614E2,3.2669945E1,2.6265097E0,2.9376987E1,2.1082122E3,3.8867981E0,1.8732884E0,2.0756855E0,5.66798E0,1.0328871E0],"tree_param":{"num_deleted":"0","num_feature":"26","num_nodes":"65","size_leaf_vector":"1"}},{"base_weights":[1.2950919E-3,-3.0355427E-1,2.0947222E-1,4.0556386E-2,9.3519455E-1,-9.103508E-2,3.0539346E-1,9.523831E-1,-3.090595E-1,-7.7669275E-1,-4.4493333E-2,1.7035888E-1,8.766099E-1,9.739689E-1,-4.441284E-2,-9.389724E-1,4.4328682E-2,-8.4732366E-1,9.263968E-1,2.9770961E-2,-5.0117743E-1,-4.404095E-1,2.9619256E-1,9.214398E-1,-4.6917E-1,1.5428199E-1,1.0012757E0,5.8503914E-1,-2.4012342E-1,-3.075434E-1,-4.364271E-2,-6.810665E-1,4.2070523E-1,-2.4351958E-2,-3.1015572E-1,-2.5359845E-1,3.8184515E-1,-8.660695E-2,4.5726888E-2,-8.930944E-2,-2.2370471E-1,-3.0487862E-1,-9.374747E-2,-1.8479956E-2,1.6614377E-1,7.816329E-3,2.9695943E-1,4.025371E-1,-2.6233536E-1,-4.476881E-1,1.2770261E-1,3.0356103E-1,3.3001553E-2,-2.1921371E-1,2.9113376E-1,-1.7420812E-1,2.7102243E-2,6.31607E-2,-2.763215E-1,2.2476146E-1,-2.4197239E-1],"categories":[],"categories_nodes":[],"categories_segments":[],"categories_sizes":[],"default_left":[0,0,0,0,0,0,0,0,0,0,0,0,0,0,0,0,0,0,0,0,0,0,0,0,0,0,0,0,0,0,0,0,0,0,0,0,0,0,0,0,0,0,0,0,0,0,0,0,0,0,0,0,0,0,0,0,0,0,0,0,0],"id":12,"left_children":[1,-1,3,5,7,9,11,13,15,17,19,21,23,25,27,29,31,33,35,37,39,41,43,45,47,49,51,53,55,-1,-1,57,59,-1,-1,-1,-1,-1,-1,-1,-1,-1,-1,-1,-1,-1,-1,-1,-1,-1,-1,-1,-1,-1,-1,-1,-1,-1,-1,-1,-1],"loss_changes":[2.4752065E3,0E0,1.1933721E3,2.752832E2,3.9605103E1,1.683711E2,2.0209479E2,3.9058594E1,5.78496E0,4.112845E1,1.6765341E2,1.6320999E2,3.0663055E1,3.957263E1,4.9930286E0,4.8797798E-1,5.0598016E0,4.6011444E1,9.566063E0,1.661435E2,3.4177216E1,2.6413368E1,1.6226288E2,2.9704742E1,1.3515564E1,2.673394E1,1.6105713E1,5.59431E0,3.51405E0,0E0,0E0,1.5536604E0,5.494174E0,0E0,0E0,0E0,0E0,0E0,0E0,0E0,0E0,0E0,0E0,0E0,0E0,0E0,0E0,0E0,0E0,0E0,0E0,0E0,0E0,0E0,0E0,0E0,0E0,0E0,0E0,0E0,0E0],"parents":[2147483647,0,0,2,2,3,3,4,4,5,5,6,6,7,7,8,8,9,9,10,10,11,11,12,12,13,13,14,14,15,15,16,16,17,17,18,18,19,19,20,20,21,21,22,22,23,23,24,24,25,25,26,26,27,27,28,28,31,31,32,32],"right_children":[2,-1,4,6,8,10,12,14,16,18,20,22,24,26,28,30,32,34,36,38,40,42,44,46,48,50,52,54,56,-1,-1,58,60,-1,-1,-1,-1,-1,-1,-1,-1,-1,-1,-1,-1,-1,-1,-1,-1,-1,-1,-1,-1,-1,-1,-1,-1,-1,-1,-1,-1],"split_conditions":[0E0,-3.0355427E-1,8.865722E-2,4.715772E-2,4.1587577E0,-6.235129E-1,6.666667E-1,4.151585E0,0E0,1E0,1E0,-6.4083815E-1,4.1587577E0,-6.218914E-1,-2E-1,5.073035E-3,-7.762442E-2,-6.923077E-1,-1.9720906E-2,-3.5647422E-1,5E-1,-6.235129E-1,-1.820624E-1,-6.218914E-1,1E0,-6.3726187E-1,1E0,-6.666667E-2,1.5384616E-1,-3.075434E-1,-4.364271E-2,-6E-1,6.666667E-1,-2.4351958E-2,-3.1015572E-1,-2.5359845E-1,3.8184515E-1,-8.660695E-2,4.5726888E-2,-8.930944E-2,-2.2370471E-1,-3.0487862E-1,-9.374747E-2,-1.8479956E-2,1.6614377E-1,7.816329E-3,2.9695943E-1,4.025371E-1,-2.6233536E-1,-4.476881E-1,1.2770261E-1,3.0356103E-1,3.3001553E-2,-2.1921371E-1,2.9113376E-1,-1.7420812E-1,2.7102243E-2,6.31607E-2,-2.763215E-1,2.2476146E-1,-2.4197239E-1],"split_indices":[20,0,24,24,18,1,8,19,3,5,5,12,18,23,3,13,23,6,24,13,17,1,13,23,10,13,5,9,6,0,0,9,0,0,0,0,0,0,0,0,0,0,0,0,0,0,0,0,0,0,0,0,0,0,0,0,0,0,0,0,0],"split_type":[0,0,0,0,0,0,0,0,0,0,0,0,0,0,0,0,0,0,0,0,0,0,0,0,0,0,0,0,0,0,0,0,0,0,0,0,0,0,0,0,0,0,0,0,0,0,0,0,0,0,0,0,0,0,0,0,0,0,0,0,0],"sum_hessian":[1.1733664E4,1.9993756E3,9.734288E3,7.8972227E3,1.8370659E3,5.2762373E3,2.6209854E3,1.8122651E3,2.4800714E1,3.3438318E2,4.941854E3,2.1209053E3,5.0008002E2,1.7738745E3,3.8390625E1,8.31759E0,1.6483126E1,3.2155026E2,1.2832921E1,4.251436E3,6.904181E2,3.6188705E2,1.7590182E3,4.842638E2,1.5816222E1,5.74034E1,1.7164711E3,8.633599E0,2.9757025E1,7.239465E0,1.0781244E0,5.3542595E0,1.1128866E1,6.323855E1,2.583117E2,1.8632703E0,1.0969651E1,1.1817411E3,3.0696948E3,3.7803302E2,3.123851E2,6.4514656E1,2.973724E2,7.3666736E2,1.02235077E3,3.447795E1,4.4978583E2,2.4697254E0,1.3346497E1,7.486045E0,4.9917355E1,1.6961737E3,2.0297396E1,1.7530065E0,6.880593E0,1.4281534E1,1.5475491E1,1.1616385E0,4.1926208E0,9.086319E0,2.0425472E0],"tree_param":{"num_deleted":"0","num_feature":"26","num_nodes":"61","size_leaf_vector":"1"}},{"base_weights":[6.0154183E-4,-3.0253214E-1,1.6581064E-1,3.4590524E-2,9.3814564E-1,-5.731072E-1,8.276743E-2,9.5885843E-1,3.109791E-2,-9.900507E-1,-3.983273E-1,1.4836711E0,5.540551E-2,1.694383E-1,9.842095E-1,-3.9848328E-1,4.364021E-1,-1.0618585E0,-3.515301E-1,1.7596378E0,-5.707178E-1,5.4199106E-1,1.3246557E0,1.15267985E-1,-4.6711424E-1,4.6966335E-1,-6.511388E-1,9.9970865E-1,-2.8403828E-1,-7.944373E-1,3.2543573E-1,-2.3805559E-1,7.069859E-1,2.4122249E-1,-3.246985E-1,-2.758273E-1,1.0432632E-1,2.622045E-1,5.47959E-1,-2.6387867E-1,-9.287174E-2,3.7471843E-1,5.2291447E-1,2.2765534E-2,4.4498944E-1,-7.21301E-2,-3.344001E-1,-3.1921268E-1,1.8698113E-1,2.6161543E-1,-3.7082392E-1,3.0250627E-1,2.7092641E-2,-2.613169E-1,5.1546138E-2,-4.587194E-2,-2.8922027E-1,-1.6051312E-1,3.468002E-1,2.6582602E-1,-2.2775947E-1,2.640899E-1,-9.09984E-2],"categories":[],"categories_nodes":[],"categories_segments":[],"categories_sizes":[],"default_left":[0,0,0,0,0,0,0,0,0,0,0,0,0,0,0,0,0,0,0,0,0,0,0,0,0,0,0,0,0,0,0,0,0,0,0,0,0,0,0,0,0,0,0,0,0,0,0,0,0,0,0,0,0,0,0,0,0,0,0,0,0,0,0],"id":13,"left_children":[1,-1,3,5,7,9,11,13,15,17,19,21,23,25,27,29,31,33,35,37,39,-1,41,43,45,47,49,51,53,55,57,59,61,-1,-1,-1,-1,-1,-1,-1,-1,-1,-1,-1,-1,-1,-1,-1,-1,-1,-1,-1,-1,-1,-1,-1,-1,-1,-1,-1,-1,-1,-1],"loss_changes":[1.7611826E3,0E0,9.200261E2,2.272666E2,2.4739258E1,4.115854E1,2.7558987E2,2.562793E1,5.478576E0,7.3182526E0,1.5109491E2,4.6805725E0,2.2073164E2,1.0483304E1,2.4827515E1,4.6479354E0,3.116339E0,6.610962E0,7.647801E0,1.8621826E-1,2.992472E1,0E0,8.6050415E-1,3.4096564E2,1.06208984E2,7.925595E0,1.1310862E1,9.609009E0,4.392062E0,9.6145105E-1,4.9950547E0,3.8205814E0,2.3298168E0,0E0,0E0,0E0,0E0,0E0,0E0,0E0,0E0,0E0,0E0,0E0,0E0,0E0,0E0,0E0,0E0,0E0,0E0,0E0,0E0,0E0,0E0,0E0,0E0,0E0,0E0,0E0,0E0,0E0,0E0],"parents":[2147483647,0,0,2,2,3,3,4,4,5,5,6,6,7,7,8,8,9,9,10,10,11,11,12,12,13,13,14,14,15,15,16,16,17,17,18,18,19,19,20,20,22,22,23,23,24,24,25,25,26,26,27,27,28,28,29,29,30,30,31,31,32,32],"right_children":[2,-1,4,6,8,10,12,14,16,18,20,22,24,26,28,30,32,34,36,38,40,-1,42,44,46,48,50,52,54,56,58,60,62,-1,-1,-1,-1,-1,-1,-1,-1,-1,-1,-1,-1,-1,-1,-1,-1,-1,-1,-1,-1,-1,-1,-1,-1,-1,-1,-1,-1,-1,-1],"split_conditions":[0E0,-3.0253214E-1,9.1091715E-2,-7.1600604E-1,4.151585E0,-1.820624E-1,-6.469139E-1,-6.218914E-1,5.073035E-3,1E0,5.3846157E-1,6.1206073E-3,6.4847124E-1,3.3333334E-1,4.1587577E0,3.3333334E-1,0E0,-7.1755415E-1,5E-1,-2.6666668E-1,5.073035E-3,5.4199106E-1,1E0,5.801777E-1,-3.0769232E-1,-7.1600604E-1,-2.3076923E-1,1E0,0E0,-3.004822E-1,1.3049284E-1,-6.666667E-1,-7.610852E-3,2.4122249E-1,-3.246985E-1,-2.758273E-1,1.0432632E-1,2.622045E-1,5.47959E-1,-2.6387867E-1,-9.287174E-2,3.7471843E-1,5.2291447E-1,2.2765534E-2,4.4498944E-1,-7.21301E-2,-3.344001E-1,-3.1921268E-1,1.8698113E-1,2.6161543E-1,-3.7082392E-1,3.0250627E-1,2.7092641E-2,-2.613169E-1,5.1546138E-2,-4.587194E-2,-2.8922027E-1,-1.6051312E-1,3.468002E-1,2.6582602E-1,-2.2775947E-1,2.640899E-1,-9.09984E-2],"split_indices":[20,0,24,12,19,13,12,23,13,16,6,24,12,0,18,9,8,12,2,9,13,0,5,12,6,12,6,5,9,1,1,8,1,0,0,0,0,0,0,0,0,0,0,0,0,0,0,0,0,0,0,0,0,0,0,0,0,0,0,0,0,0,0],"split_type":[0,0,0,0,0,0,0,0,0,0,0,0,0,0,0,0,0,0,0,0,0,0,0,0,0,0,0,0,0,0,0,0,0,0,0,0,0,0,0,0,0,0,0,0,0,0,0,0,0,0,0,0,0,0,0,0,0,0,0,0,0,0,0],"sum_hessian":[1.0562795E4,1.485395E3,9.0774E3,7.760014E3,1.3173857E3,5.692071E2,7.190807E3,1.2879185E3,2.9467209E1,1.6675137E2,4.0245572E2,1.3673784E2,7.0540693E3,4.0311817E1,1.2476067E3,1.4313348E1,1.5153862E1,1.4929832E2,1.7453049E1,2.9090967E1,3.7336478E2,4.1694164E1,9.504368E1,6.329688E3,7.243813E2,2.9826735E1,1.0485084E1,1.232753E3,1.4853663E1,9.189601E0,5.123747E0,4.373266E0,1.0780596E1,1.2046753E0,1.4809366E2,9.457629E0,7.995419E0,3.0307803E0,2.6060186E1,1.6996509E2,2.0339967E2,8.387475E1,1.1168927E1,6.1535938E3,1.760943E2,5.3757166E2,1.868096E2,2.1757445E0,2.765099E1,2.7730935E0,7.7119904E0,1.221036E3,1.1716948E1,6.0946555E0,8.759007E0,2.3193555E0,6.8702455E0,2.6913104E0,2.4324362E0,1.1634164E0,3.2098498E0,9.311881E0,1.4687145E0],"tree_param":{"num_deleted":"0","num_feature":"26","num_nodes":"63","size_leaf_vector":"1"}},{"base_weights":[-3.3358287E-4,-3.0174798E-1,1.2871228E-1,2.5194377E-2,9.173268E-1,-1.351097E-1,1.8849196E-1,1.3254836E-1,9.474375E-1,5.8014754E-2,-4.440367E-1,-3.6127767E-1,3.0414513E-1,3.1087115E-1,-9.212695E-1,9.750925E-1,1.1723824E-2,-4.579956E-2,4.153354E-1,-6.084357E-1,-1.298461E-1,-5.7649773E-1,1.6342407E-1,4.2838967E-1,-3.365342E-1,-2.738081E-1,4.5783627E-1,1.8720356E-1,-4.398402E-1,9.9370295E-1,-2.3517308E-1,-1.9460489E-1,5.9943473E-1,4.2277524E-1,-2.8811233E-2,-2.3436555E-1,-8.5231274E-2,3.6430258E-1,-1.3496464E-1,-2.5435987E-1,3.816986E-2,3.291016E-1,-8.5480824E-2,1.8122818E-1,-9.27466E-2,1.0180245E-2,-1.3155599E-1,-2.875987E-1,1.796856E-1,3.0170235E-1,1.9505972E-2,-2.3696545E-1,3.680008E-2,-2.0423213E-1,1.885444E-2,3.004684E-2,3.716978E-1],"categories":[],"categories_nodes":[],"categories_segments":[],"categories_sizes":[],"default_left":[0,0,0,0,0,0,0,0,0,0,0,0,0,0,0,0,0,0,0,0,0,0,0,0,0,0,0,0,0,0,0,0,0,0,0,0,0,0,0,0,0,0,0,0,0,0,0,0,0,0,0,0,0,0,0,0,0],"id":14,"left_children":[1,-1,3,5,7,9,11,13,15,17,19,21,23,25,27,29,31,33,-1,35,37,39,41,43,45,-1,47,-1,-1,49,51,53,55,-1,-1,-1,-1,-1,-1,-1,-1,-1,-1,-1,-1,-1,-1,-1,-1,-1,-1,-1,-1,-1,-1,-1,-1],"loss_changes":[1.2592083E3,0E0,7.021018E2,1.9907108E2,2.3456177E1,2.289841E2,2.3963367E2,7.434399E0,2.4854126E1,3.253583E2,7.6177826E1,7.4083466E1,2.4793613E2,6.402356E0,5.76237E0,2.125531E1,3.584319E0,1.6035248E2,0E0,5.407611E1,2.192562E2,8.887906E1,8.041049E1,3.381237E2,1.9139797E1,0E0,6.646344E0,0E0,0E0,1.0155884E1,3.0630553E0,2.786511E0,2.3269289E0,0E0,0E0,0E0,0E0,0E0,0E0,0E0,0E0,0E0,0E0,0E0,0E0,0E0,0E0,0E0,0E0,0E0,0E0,0E0,0E0,0E0,0E0,0E0,0E0],"parents":[2147483647,0,0,2,2,3,3,4,4,5,5,6,6,7,7,8,8,9,9,10,10,11,11,12,12,13,13,14,14,15,15,16,16,17,17,19,19,20,20,21,21,22,22,23,23,24,24,26,26,29,29,30,30,31,31,32,32],"right_children":[2,-1,4,6,8,10,12,14,16,18,20,22,24,26,28,30,32,34,-1,36,38,40,42,44,46,-1,48,-1,-1,50,52,54,56,-1,-1,-1,-1,-1,-1,-1,-1,-1,-1,-1,-1,-1,-1,-1,-1,-1,-1,-1,-1,-1,-1,-1,-1],"split_conditions":[0E0,-3.0174798E-1,9.1091715E-2,2.4922043E-2,-6.218914E-1,5E-1,-6.218914E-1,6.666667E-1,4.151585E0,3.6039189E-1,1.5605128E-2,1.7152622E-2,4.151585E0,-6.3726187E-1,-3.0769232E-1,4.1587577E0,3.6039189E-1,-4.6153846E-1,4.153354E-1,1.7152622E-2,2.0757926E0,1.5605128E-2,2.0793788E0,4.1587577E0,-4.4322085E-1,-2.738081E-1,-7.1600604E-1,1.8720356E-1,-4.398402E-1,1E0,0E0,6.666667E-2,6.666667E-1,4.2277524E-1,-2.8811233E-2,-2.3436555E-1,-8.5231274E-2,3.6430258E-1,-1.3496464E-1,-2.5435987E-1,3.816986E-2,3.291016E-1,-8.5480824E-2,1.8122818E-1,-9.27466E-2,1.0180245E-2,-1.3155599E-1,-2.875987E-1,1.796856E-1,3.0170235E-1,1.9505972E-2,-2.3696545E-1,3.680008E-2,-2.0423213E-1,1.885444E-2,3.004684E-2,3.716978E-1],"split_indices":[20,0,24,24,23,17,23,0,19,13,19,18,19,13,6,18,13,6,0,18,19,19,18,18,1,0,12,0,0,5,9,9,0,0,0,0,0,0,0,0,0,0,0,0,0,0,0,0,0,0,0,0,0,0,0,0,0],"split_type":[0,0,0,0,0,0,0,0,0,0,0,0,0,0,0,0,0,0,0,0,0,0,0,0,0,0,0,0,0,0,0,0,0,0,0,0,0,0,0,0,0,0,0,0,0,0,0,0,0,0,0,0,0,0,0,0,0],"sum_hessian":[9.702529E3,1.102822E3,8.599707E3,7.6027593E3,9.9694824E2,3.8366316E3,3.7661277E3,3.7037533E1,9.599107E2,2.3612917E3,1.4753397E3,6.541991E2,3.1119285E3,3.2280212E1,4.757322E0,9.3231415E2,2.7596565E1,2.1907937E3,1.7049825E2,9.6793506E2,5.0740472E2,4.6384308E2,1.9035602E2,2.6067437E3,5.0518472E2,2.9027727E0,2.937744E1,1.2022839E0,3.555038E0,9.183711E2,1.3943032E1,2.0920755E1,6.6758103E0,7.2213295E1,2.1185803E3,6.3058923E2,3.373458E2,9.7038315E1,4.103664E2,3.3460852E2,1.2923456E2,6.1290165E1,1.2906586E2,2.1053665E3,5.013774E2,1.0919513E2,3.959896E2,2.1366463E0,2.7240793E1,9.066014E2,1.1769735E1,4.994051E0,8.94898E0,6.673809E0,1.4246945E1,4.398596E0,2.2772143E0],"tree_param":{"num_deleted":"0","num_feature":"26","num_nodes":"57","size_leaf_vector":"1"}},{"base_weights":[1.241121E-3,-3.0112708E-1,1.0380414E-1,2.259426E-2,9.04619E-1,8.576518E-2,-3.7513337E-1,9.361881E-1,-1.3382083E-2,-3.0906966E-1,1.4795455E-1,-2.1644765E-1,-6.521314E-1,1.1898157E-1,9.7033733E-1,1.2109484E-1,-2.5882953E-1,-1.6612168E-1,-9.4526654E-1,1.4892516E0,1.0540222E-1,-9.524342E-1,-9.136773E-2,-3.880058E-1,-1.1836782E0,4.6526286E-1,-4.7069418E-1,9.899734E-1,-1.125075E-1,-3.4683414E-2,5.235948E-1,-8.509801E-2,4.2922682E-1,-4.282767E-1,-2.5721765E-1,4.3414572E-1,5.9993297E-1,-2.156833E-1,4.9174804E-2,1.2408315E-2,-3.623403E-1,4.3368988E-2,-1.5257679E-1,-2.1384372E-1,4.05413E-2,-2.9622507E-1,-5.6034344E-1,-1.401135E-1,2.0478459E-1,-2.5288758E-1,2.0244114E-1,3.010506E-1,-3.5853937E-2,-2.504616E-1,5.9618294E-2,-1.4467646E-1,1.1813699E-1],"categories":[],"categories_nodes":[],"categories_segments":[],"categories_sizes":[],"default_left":[0,0,0,0,0,0,0,0,0,0,0,0,0,0,0,0,0,0,0,0,0,0,0,0,0,0,0,0,0,0,0,0,0,0,0,0,0,0,0,0,0,0,0,0,0,0,0,0,0,0,0,0,0,0,0,0,0],"id":15,"left_children":[1,-1,3,5,7,9,11,13,15,17,19,21,23,25,27,29,-1,31,33,35,37,39,41,43,45,47,49,51,53,55,-1,-1,-1,-1,-1,-1,-1,-1,-1,-1,-1,-1,-1,-1,-1,-1,-1,-1,-1,-1,-1,-1,-1,-1,-1,-1,-1],"loss_changes":[9.120883E2,0E0,5.221579E2,1.8321857E2,2.143634E1,1.5455643E2,4.3792526E1,1.9829224E1,3.0243177E0,7.7743E1,3.1016003E2,5.8549423E1,5.058046E1,6.3053923E0,1.4695129E1,5.8662143E0,0E0,1.3191174E2,5.42778E0,6.975708E-1,2.543614E2,2.3504341E1,5.37738E1,4.1616703E1,1.4293671E1,4.2261105E0,5.483394E0,1.0233093E1,3.1142788E0,4.3931937E0,0E0,0E0,0E0,0E0,0E0,0E0,0E0,0E0,0E0,0E0,0E0,0E0,0E0,0E0,0E0,0E0,0E0,0E0,0E0,0E0,0E0,0E0,0E0,0E0,0E0,0E0,0E0],"parents":[2147483647,0,0,2,2,3,3,4,4,5,5,6,6,7,7,8,8,9,9,10,10,11,11,12,12,13,13,14,14,15,15,17,17,18,18,19,19,20,20,21,21,22,22,23,23,24,24,25,25,26,26,27,27,28,28,29,29],"right_children":[2,-1,4,6,8,10,12,14,16,18,20,22,24,26,28,30,-1,32,34,36,38,40,42,44,46,48,50,52,54,56,-1,-1,-1,-1,-1,-1,-1,-1,-1,-1,-1,-1,-1,-1,-1,-1,-1,-1,-1,-1,-1,-1,-1,-1,-1,-1,-1],"split_conditions":[0E0,-3.0112708E-1,9.190739E-2,8E-1,4.151585E0,-6.4083815E-1,1E0,-6.218914E-1,3.0438423E-1,6.923077E-1,-5.345415E-1,-6.235129E-1,5E-1,2.5E-1,4.1587577E0,2.5089377E-1,-2.5882953E-1,1.8829148E-1,-6.183657E-1,4.151585E0,-5.303093E-1,-3.3333334E-1,1E0,-1.820624E-1,-5.9666405E-3,-3.3333334E-1,1.7152622E-2,1E0,0E0,1.8829148E-1,5.235948E-1,-8.509801E-2,4.2922682E-1,-4.282767E-1,-2.5721765E-1,4.3414572E-1,5.9993297E-1,-2.156833E-1,4.9174804E-2,1.2408315E-2,-3.623403E-1,4.3368988E-2,-1.5257679E-1,-2.1384372E-1,4.05413E-2,-2.9622507E-1,-5.6034344E-1,-1.401135E-1,2.0478459E-1,-2.5288758E-1,2.0244114E-1,3.010506E-1,-3.5853937E-2,-2.504616E-1,5.9618294E-2,-1.4467646E-1,1.1813699E-1],"split_indices":[20,0,24,3,19,12,15,23,1,6,12,1,17,2,18,1,0,13,23,19,12,0,5,13,24,8,18,5,3,13,0,0,0,0,0,0,0,0,0,0,0,0,0,0,0,0,0,0,0,0,0,0,0,0,0,0,0],"split_type":[0,0,0,0,0,0,0,0,0,0,0,0,0,0,0,0,0,0,0,0,0,0,0,0,0,0,0,0,0,0,0,0,0,0,0,0,0,0,0,0,0,0,0,0,0,0,0,0,0,0,0,0,0,0,0,0,0],"sum_hessian":[8.846718E3,8.184153E2,8.0283027E3,7.290053E3,7.3824927E2,6.2915527E3,9.985005E2,7.1368646E2,2.4562773E1,8.5558014E2,5.4359727E3,6.3595703E2,3.625435E2,2.8806978E1,6.848795E2,2.1945696E1,2.6170778E0,6.996385E2,1.5594167E2,1.6610669E2,5.2698657E3,9.141931E1,5.445377E2,2.433519E2,1.191916E2,1.8282024E1,1.0524953E1,6.727655E2,1.2114039E1,2.0918097E1,1.0275984E0,6.5243805E2,4.720041E1,2.1682993E1,1.3425868E2,1.569951E2,9.111589E0,3.485255E2,4.9213403E3,1.8860214E1,7.25591E1,3.4825787E2,1.9627983E2,1.4991248E2,9.343943E1,9.451953E1,2.4672066E1,3.2391744E0,1.504285E1,8.142812E0,2.3821418E0,6.6475525E2,8.010209E0,3.1411366E0,8.972902E0,1.0169646E1,1.074845E1],"tree_param":{"num_deleted":"0","num_feature":"26","num_nodes":"57","size_leaf_vector":"1"}},{"base_weights":[-2.7908717E-4,-3.006112E-1,7.886556E-2,1.9440811E-2,9.340847E-1,9.072592E-2,-3.3641022E-1,9.5766586E-1,6.1932895E-2,4.1153718E-2,1.4244136E0,-8.2923275E-1,-1.020886E-1,2.623066E-1,9.798354E-1,3.235184E-1,-5.5612683E-1,1.0352514E-1,-7.8684175E-1,1.3369995E0,5.537528E-1,-1.0744925E0,-3.4969914E-1,4.0519476E-1,-3.808823E-1,-2.4149938E-1,4.615901E-1,9.939633E-1,-5.0912056E-2,-3.2938048E-1,7.7424407E-1,-3.586967E-2,-2.1967758E-1,1.1018881E-2,4.152077E-1,-5.426574E-1,-2.1558549E-1,3.8340092E-1,6.5151596E-1,-5.886106E-1,-2.8292656E-1,4.1074154E-1,-1.4863819E-1,-4.3079145E-2,-2.4571836E-1,-2.0372327E-1,1.8381739E-1,3.004585E-1,-1.9151835E-1,1.9524144E-1,-2.0904273E-1,9.444122E-2,-1.8263447E-1,6.113938E-2,3.6917353E-1],"categories":[],"categories_nodes":[],"categories_segments":[],"categories_sizes":[],"default_left":[0,0,0,0,0,0,0,0,0,0,0,0,0,0,0,0,0,0,0,0,0,0,0,0,0,0,0,0,0,0,0,0,0,0,0,0,0,0,0,0,0,0,0,0,0,0,0,0,0,0,0,0,0,0,0],"id":16,"left_children":[1,-1,3,5,7,9,11,13,15,17,19,21,23,25,27,29,31,33,35,37,-1,39,41,-1,43,-1,45,47,49,51,53,-1,-1,-1,-1,-1,-1,-1,-1,-1,-1,-1,-1,-1,-1,-1,-1,-1,-1,-1,-1,-1,-1,-1,-1],"loss_changes":[6.585381E2,0E0,3.911988E2,1.8264153E2,1.0226196E1,3.9650345E2,1.3867786E2,7.2486267E0,2.4814026E0,2.9879855E2,5.4497986E0,4.514914E1,3.3082086E2,3.8616562E0,6.916321E0,3.3844407E0,2.662282E-1,4.60104E2,2.6960602E1,6.1691895E0,0E0,2.7961334E1,3.3866333E1,0E0,7.110544E1,0E0,2.9093523E0,6.383301E0,3.7739434E0,1.0996062E0,1.4645786E0,0E0,0E0,0E0,0E0,0E0,0E0,0E0,0E0,0E0,0E0,0E0,0E0,0E0,0E0,0E0,0E0,0E0,0E0,0E0,0E0,0E0,0E0,0E0,0E0],"parents":[2147483647,0,0,2,2,3,3,4,4,5,5,6,6,7,7,8,8,9,9,10,10,11,11,12,12,13,13,14,14,15,15,16,16,17,17,18,18,19,19,21,21,22,22,24,24,26,26,27,27,28,28,29,29,30,30],"right_children":[2,-1,4,6,8,10,12,14,16,18,20,22,24,26,28,30,32,34,36,38,-1,40,42,-1,44,-1,46,48,50,52,54,-1,-1,-1,-1,-1,-1,-1,-1,-1,-1,-1,-1,-1,-1,-1,-1,-1,-1,-1,-1,-1,-1,-1,-1],"split_conditions":[0E0,-3.006112E-1,9.607082E-2,5.77831E-1,4.151585E0,4.6782047E-1,5.801777E-1,-6.218914E-1,4.3787074E-1,4.654585E-1,1E0,1.7152622E-2,6.4847124E-1,-6.4083815E-1,4.1587577E0,-6.4083815E-1,-4.6153846E-1,3.2834706E-1,-6.266231E-1,4.151585E0,5.537528E-1,-6.218914E-1,2.0793788E0,4.0519476E-1,1E0,-2.4149938E-1,-6.3726187E-1,1E0,0E0,-3.9244446E-1,1.3333334E-1,-3.586967E-2,-2.1967758E-1,1.1018881E-2,4.152077E-1,-5.426574E-1,-2.1558549E-1,3.8340092E-1,6.5151596E-1,-5.886106E-1,-2.8292656E-1,4.1074154E-1,-1.4863819E-1,-4.3079145E-2,-2.4571836E-1,-2.0372327E-1,1.8381739E-1,3.004585E-1,-1.9151835E-1,1.9524144E-1,-2.0904273E-1,9.444122E-2,-1.8263447E-1,6.113938E-2,3.6917353E-1],"split_indices":[20,0,24,12,19,12,12,23,12,12,5,18,12,12,18,12,6,12,1,19,0,23,18,0,15,0,13,5,0,1,9,0,0,0,0,0,0,0,0,0,0,0,0,0,0,0,0,0,0,0,0,0,0,0,0],"split_type":[0,0,0,0,0,0,0,0,0,0,0,0,0,0,0,0,0,0,0,0,0,0,0,0,0,0,0,0,0,0,0,0,0,0,0,0,0,0,0,0,0,0,0,0,0,0,0,0,0,0,0,0,0,0,0],"sum_hessian":[8.30409E3,6.0717883E2,7.6969106E3,7.197796E3,4.9911484E2,5.9971704E3,1.2006255E3,4.8587964E2,1.3235215E1,5.7832427E3,2.1392809E2,3.8608246E2,8.14543E2,1.5408745E1,4.704709E2,9.634219E0,3.6009963E0,5.378932E3,4.043104E2,1.8063316E2,3.3294918E1,2.5461682E2,1.3146564E2,1.3053046E2,6.840126E2,1.9461688E0,1.3462576E1,4.6414478E2,6.326097E0,4.044614E0,5.589606E0,1.5178024E0,2.0831938E0,5.113236E3,2.6569617E2,2.3703802E1,3.8060657E2,1.7107307E2,9.56009E0,3.1038946E1,2.2357788E2,9.620968E0,1.2184467E2,4.445857E2,2.3942686E2,1.1663678E0,1.2296207E1,4.6238837E2,1.7564315E0,3.0283895E0,3.2977076E0,1.1852356E0,2.859378E0,3.127116E0,2.4624896E0],"tree_param":{"num_deleted":"0","num_feature":"26","num_nodes":"55","size_leaf_vector":"1"}},{"base_weights":[1.0481749E-3,-3.0015266E-1,6.2550224E-2,1.6365374E-2,9.143672E-1,-4.8681006E-1,6.640789E-2,9.4467664E-1,4.292264E-2,-2.0303766E-1,-6.654198E-1,1.4328399E0,3.7209425E-2,1.9798954E-1,9.7275674E-1,2.221581E-1,-1.9102167E-1,1.5420392E0,-5.675684E-1,5.3854746E-1,-6.96613E-1,4.946206E-1,1.3290068E0,-7.3139787E-1,8.47247E-2,6.389256E-1,-2.407075E-1,9.9090976E-1,-4.6822682E-2,-2.7649352E-1,4.8445863E-1,4.0983936E-1,5.7253885E-1,4.2872372E-1,-2.596712E-1,6.402912E-1,-2.158706E-1,3.6790168E-1,5.2953726E-1,-1.5152009E-1,-3.2361236E-1,4.3443462E-1,1.261702E-2,-8.333814E-2,2.5054172E-1,-2.3968132E-1,1.0911046E-1,2.9994628E-1,-1.6244555E-1,1.4388289E-1,-1.8003961E-1,7.009922E-2,-1.9246228E-1,1.9390021E-1,-7.0903726E-2],"categories":[],"categories_nodes":[],"categories_segments":[],"categories_sizes":[],"default_left":[0,0,0,0,0,0,0,0,0,0,0,0,0,0,0,0,0,0,0,0,0,0,0,0,0,0,0,0,0,0,0,0,0,0,0,0,0,0,0,0,0,0,0,0,0,0,0,0,0,0,0,0,0,0,0],"id":17,"left_children":[1,-1,3,5,7,9,11,13,15,17,19,21,23,25,27,29,-1,31,33,-1,35,-1,37,39,41,43,45,47,49,51,53,-1,-1,-1,-1,-1,-1,-1,-1,-1,-1,-1,-1,-1,-1,-1,-1,-1,-1,-1,-1,-1,-1,-1,-1],"loss_changes":[4.806047E2,0E0,2.891768E2,1.75635E2,9.944702E0,3.1844528E1,2.5305359E2,7.466461E0,1.8169924E0,1.5683324E2,3.0937881E1,7.8344727E-1,2.2693512E2,2.9576347E0,6.557556E0,1.6545055E0,0E0,1.4073181E-1,1.2234008E2,0E0,2.6403671E1,0E0,2.078247E0,2.789383E1,3.403341E2,1.5815103E0,2.987143E0,5.261841E0,2.3584802E0,1.0147483E0,1.084036E0,0E0,0E0,0E0,0E0,0E0,0E0,0E0,0E0,0E0,0E0,0E0,0E0,0E0,0E0,0E0,0E0,0E0,0E0,0E0,0E0,0E0,0E0,0E0,0E0],"parents":[2147483647,0,0,2,2,3,3,4,4,5,5,6,6,7,7,8,8,9,9,10,10,11,11,12,12,13,13,14,14,15,15,17,17,18,18,20,20,22,22,23,23,24,24,25,25,26,26,27,27,28,28,29,29,30,30],"right_children":[2,-1,4,6,8,10,12,14,16,18,20,22,24,26,28,30,-1,32,34,-1,36,-1,38,40,42,44,46,48,50,52,54,-1,-1,-1,-1,-1,-1,-1,-1,-1,-1,-1,-1,-1,-1,-1,-1,-1,-1,-1,-1,-1,-1,-1,-1],"split_conditions":[0E0,-3.0015266E-1,9.607082E-2,-7.1039325E-1,4.151585E0,-7.1518767E-1,-6.418953E-1,-6.218914E-1,5.406777E-1,-3.4541477E-2,-2.1755418E-1,6.1206073E-3,-6.3726187E-1,0E0,4.1587577E0,-6.4083815E-1,-1.9102167E-1,2.1946156E0,7.692308E-2,5.3854746E-1,0E0,4.946206E-1,1E0,1.9329735E0,-5.253041E-1,9.829588E-2,5E-1,1E0,0E0,1.0045616E-1,7.5E-1,4.0983936E-1,5.7253885E-1,4.2872372E-1,-2.596712E-1,6.402912E-1,-2.158706E-1,3.6790168E-1,5.2953726E-1,-1.5152009E-1,-3.2361236E-1,4.3443462E-1,1.261702E-2,-8.333814E-2,2.5054172E-1,-2.3968132E-1,1.0911046E-1,2.9994628E-1,-1.6244555E-1,1.4388289E-1,-1.8003961E-1,7.009922E-2,-1.9246228E-1,1.9390021E-1,-7.0903726E-2],"split_indices":[20,0,24,13,19,13,13,23,12,12,12,24,13,0,18,12,0,23,6,0,6,0,5,1,13,24,4,5,0,24,2,0,0,0,0,0,0,0,0,0,0,0,0,0,0,0,0,0,0,0,0,0,0,0,0],"split_type":[0,0,0,0,0,0,0,0,0,0,0,0,0,0,0,0,0,0,0,0,0,0,0,0,0,0,0,0,0,0,0,0,0,0,0,0,0,0,0,0,0,0,0,0,0,0,0,0,0,0,0,0,0,0,0],"sum_hessian":[7.8002856E3,4.5039322E2,7.3498926E3,6.972849E3,3.7704324E2,6.299545E2,6.3428945E3,3.64289E2,1.2754256E1,2.441653E2,3.857892E2,1.3169614E2,6.2111987E3,1.3494825E1,3.5079416E2,1.0625349E1,2.128907E0,4.1632504E1,2.0253279E2,4.121583E0,3.8166763E2,3.7936886E1,9.3759254E1,3.607827E2,5.850416E3,6.50261E0,6.992215E0,3.4468536E2,6.1088023E0,3.6439106E0,6.981438E0,3.1323433E1,1.0309072E1,2.580967E1,1.7672311E2,2.3301976E0,3.7933743E2,7.897857E1,1.4780681E1,2.199212E2,1.4086153E2,1.7653598E2,5.67388E3,1.0731273E0,5.429483E0,3.467653E0,3.5245621E0,3.430381E2,1.6472788E0,3.1986887E0,2.9101138E0,1.6699898E0,1.9739208E0,5.7854753E0,1.1959629E0],"tree_param":{"num_deleted":"0","num_feature":"26","num_nodes":"55","size_leaf_vector":"1"}},{"base_weights":[1.3854757E-3,-2.9970956E-1,4.8593424E-2,1.3086763E-2,8.8813597E-1,6.743537E-2,-3.4259596E-1,9.2823625E-1,1.051714E-2,4.596227E-3,1.3629612E0,-9.8994225E-2,-9.780929E-1,1.6256467E-1,9.6410763E-1,5.3307617E-1,-1.5951197E-1,6.756393E-2,-5.913498E-1,1.320819E0,2.3056269E0,-4.3122932E-1,1.3327287E0,-7.6856816E-1,-1.364047E0,-2.0477192E-1,3.507259E-1,9.875476E-1,-4.4063162E-2,-4.242013E-2,2.8004298E-1,-3.6522028E-1,4.637202E-1,-1.7118758E-3,4.0964425E-1,4.2149636E-1,-2.0399098E-1,4.4605276E-1,3.5157457E-1,7.823762E-1,2.5590995E-1,-3.8405564E-2,-3.173676E-1,5.433606E-1,3.5551086E-1,-2.6045942E-1,8.063715E-2,-2.7682418E-1,-4.503443E-1,1.7718449E-1,-8.5803546E-2,2.994315E-1,-1.3855888E-1,1.7870562E-1,-1.1044373E-1,-2.5060138E-1,3.8439818E-2,-6.0073573E-2,2.8454268E-1],"categories":[],"categories_nodes":[],"categories_segments":[],"categories_sizes":[],"default_left":[0,0,0,0,0,0,0,0,0,0,0,0,0,0,0,0,0,0,0,0,0,0,0,0,0,0,0,0,0,0,0,0,0,0,0,0,0,0,0,0,0,0,0,0,0,0,0,0,0,0,0,0,0,0,0,0,0,0,0],"id":18,"left_children":[1,-1,3,5,7,9,11,13,15,17,19,21,23,25,27,29,31,33,35,37,39,41,43,45,47,-1,49,51,53,-1,-1,55,57,-1,-1,-1,-1,-1,-1,-1,-1,-1,-1,-1,-1,-1,-1,-1,-1,-1,-1,-1,-1,-1,-1,-1,-1,-1,-1],"loss_changes":[3.5118478E2,0E0,2.1166136E2,1.3173926E2,1.0129868E1,4.8124432E2,1.3974341E2,7.410492E0,1.2934729E0,2.1164531E2,7.818451E0,3.117162E2,1.9184479E1,2.3914325E0,6.258194E0,1.0959224E0,1.5836518E0,4.851072E2,9.630957E1,4.786621E0,2.3249893E0,1.0088755E2,6.577133E0,1.7230095E1,3.8630524E0,0E0,1.9605159E0,4.394348E0,1.6566645E0,0E0,0E0,2.1604404E0,1.212853E0,0E0,0E0,0E0,0E0,0E0,0E0,0E0,0E0,0E0,0E0,0E0,0E0,0E0,0E0,0E0,0E0,0E0,0E0,0E0,0E0,0E0,0E0,0E0,0E0,0E0,0E0],"parents":[2147483647,0,0,2,2,3,3,4,4,5,5,6,6,7,7,8,8,9,9,10,10,11,11,12,12,13,13,14,14,15,15,16,16,17,17,18,18,19,19,20,20,21,21,22,22,23,23,24,24,26,26,27,27,28,28,31,31,32,32],"right_children":[2,-1,4,6,8,10,12,14,16,18,20,22,24,26,28,30,32,34,36,38,40,42,44,46,48,-1,50,52,54,-1,-1,56,58,-1,-1,-1,-1,-1,-1,-1,-1,-1,-1,-1,-1,-1,-1,-1,-1,-1,-1,-1,-1,-1,-1,-1,-1,-1,-1],"split_conditions":[0E0,-2.9970956E-1,9.607082E-2,7.0212287E-1,4.151585E0,6.364619E-1,1.4847122E-1,-6.218914E-1,9.793148E-2,6.2883055E-1,4.1587577E0,-3.1713724E-2,2.0601244E0,-6.4083815E-1,4.1587577E0,2.5E-1,1.22205116E-1,5.1366794E-1,-6.923077E-1,3.2004166E-2,1.5605128E-2,1E0,3.5300713E-3,1.3545951E0,-5.3333336E-1,-2.0477192E-1,3.3333334E-1,1E0,0E0,-4.242013E-2,2.8004298E-1,1.8829148E-1,4E-1,-1.7118758E-3,4.0964425E-1,4.2149636E-1,-2.0399098E-1,4.4605276E-1,3.5157457E-1,7.823762E-1,2.5590995E-1,-3.8405564E-2,-3.173676E-1,5.433606E-1,3.5551086E-1,-2.6045942E-1,8.063715E-2,-2.7682418E-1,-4.503443E-1,1.7718449E-1,-8.5803546E-2,2.994315E-1,-1.3855888E-1,1.7870562E-1,-1.1044373E-1,-2.5060138E-1,3.8439818E-2,-6.0073573E-2,2.8454268E-1],"split_indices":[20,0,24,13,19,13,12,23,24,13,18,12,1,12,18,2,1,13,6,24,19,15,24,1,9,0,0,5,17,0,0,13,9,0,0,0,0,0,0,0,0,0,0,0,0,0,0,0,0,0,0,0,0,0,0,0,0,0,0],"split_type":[0,0,0,0,0,0,0,0,0,0,0,0,0,0,0,0,0,0,0,0,0,0,0,0,0,0,0,0,0,0,0,0,0,0,0,0,0,0,0,0,0,0,0,0,0,0,0,0,0,0,0,0,0,0,0,0,0,0,0],"sum_hessian":[7.4339727E3,3.3408014E2,7.0998926E3,6.8127764E3,2.8711627E2,5.9104634E3,9.0231305E2,2.7451538E2,1.2600872E1,5.637997E3,2.7246603E2,6.53114E2,2.4919904E2,1.2532935E1,2.6198245E2,2.569302E0,1.003157E1,5.1000156E3,5.379814E2,2.6310498E2,9.361034E0,5.3066956E2,1.22444466E2,1.6345485E2,8.574418E1,1.8037382E0,1.0729197E1,2.5604974E2,5.932697E0,1.1980437E0,1.3712584E0,7.85341E0,2.1781604E0,4.828436E3,2.7157993E2,2.2235264E1,5.1574615E2,1.2015282E2,1.4295218E2,7.090172E0,2.2708626E0,3.5844174E2,1.722278E2,2.622409E1,9.622037E1,1.4928072E2,1.4174136E1,2.2156664E1,6.3587517E1,7.845764E0,2.8834329E0,2.5450731E2,1.5424416E0,1.7130399E0,4.219657E0,3.6664515E0,4.1869583E0,1.1668502E0,1.0113102E0],"tree_param":{"num_deleted":"0","num_feature":"26","num_nodes":"59","size_leaf_vector":"1"}},{"base_weights":[3.880836E-3,-2.992421E-1,4.0411104E-2,1.5178877E-2,9.373534E-1,2.834029E-1,-5.2278057E-2,9.671734E-1,-1.3482329E-1,3.655129E-1,-2.3888853E-1,-4.749231E-1,1.4956071E-3,9.8005027E-1,-5.786798E-3,2.0844473E-1,-1.8123327E-1,4.373E-1,-2.8329983E-1,-4.200118E-1,1.8265165E-1,-2.3427938E-1,-7.996514E-1,-1.8614991E-1,1.1754179E-1,3.9907643E-1,2.9815876E-1,-9.1951795E-2,1.057146E-1,-1.5414242E-1,2.0149902E-1,1.5493086E-1,-7.328523E-2,3.6839627E-2,-2.4117917E-1,-2.5380832E-1,-3.6035415E-2,3.9500564E-1,-8.459676E-2,-1.8427676E-1,7.295957E-2,-3.3039612E-1,-2.0489894E-1,2.6312904E-3,-1.4921287E-1,4.5766398E-1,1.08983815E-2,2.3344071E-1,-5.637929E-2,-1.6739982E-1,1.02381386E-1],"categories":[],"categories_nodes":[],"categories_segments":[],"categories_sizes":[],"default_left":[0,0,0,0,0,0,0,0,0,0,0,0,0,0,0,0,0,0,0,0,0,0,0,0,0,0,0,0,0,0,0,0,0,0,0,0,0,0,0,0,0,0,0,0,0,0,0,0,0,0,0],"id":19,"left_children":[1,-1,3,5,7,9,11,13,15,17,19,21,23,25,27,29,-1,31,33,35,37,39,41,43,45,47,-1,-1,-1,49,-1,-1,-1,-1,-1,-1,-1,-1,-1,-1,-1,-1,-1,-1,-1,-1,-1,-1,-1,-1,-1],"loss_changes":[2.5859967E2,0E0,1.5434749E2,1.20064674E2,6.0966034E0,5.72743E1,1.2051069E2,2.281845E0,1.0807437E0,5.381349E1,1.39544735E1,4.658136E1,1.02475105E2,1.0422516E0,4.706808E-1,8.033574E-1,0E0,5.6128754E1,2.4506428E1,1.617999E1,2.9522362E1,6.2773228E1,8.197891E0,1.0909377E2,3.324415E2,1.4445742E0,0E0,0E0,0E0,8.2078195E-1,0E0,0E0,0E0,0E0,0E0,0E0,0E0,0E0,0E0,0E0,0E0,0E0,0E0,0E0,0E0,0E0,0E0,0E0,0E0,0E0,0E0],"parents":[2147483647,0,0,2,2,3,3,4,4,5,5,6,6,7,7,8,8,9,9,10,10,11,11,12,12,13,13,14,14,15,15,17,17,18,18,19,19,20,20,21,21,22,22,23,23,24,24,25,25,29,29],"right_children":[2,-1,4,6,8,10,12,14,16,18,20,22,24,26,28,30,-1,32,34,36,38,40,42,44,46,48,-1,-1,-1,50,-1,-1,-1,-1,-1,-1,-1,-1,-1,-1,-1,-1,-1,-1,-1,-1,-1,-1,-1,-1,-1],"split_conditions":[0E0,-2.992421E-1,1.00828126E-1,-3.3333334E-1,4.151585E0,1E0,-4.6239004E-2,4.149587E0,3.3333334E-1,4.151585E0,1.7152622E-2,1E0,-1.820624E-1,-6.218914E-1,1.0649861E-1,1.8829148E-1,-1.8123327E-1,4.1587577E0,2.5E-1,-6.666667E-2,2.0793788E0,-1.820624E-1,0E0,0E0,-6.5323967E-3,0E0,2.9815876E-1,-9.1951795E-2,1.057146E-1,4.6666667E-1,2.0149902E-1,1.5493086E-1,-7.328523E-2,3.6839627E-2,-2.4117917E-1,-2.5380832E-1,-3.6035415E-2,3.9500564E-1,-8.459676E-2,-1.8427676E-1,7.295957E-2,-3.3039612E-1,-2.0489894E-1,2.6312904E-3,-1.4921287E-1,4.5766398E-1,1.08983815E-2,2.3344071E-1,-5.637929E-2,-1.6739982E-1,1.02381386E-1],"split_indices":[20,0,24,0,19,5,24,18,0,19,18,11,13,23,24,13,0,18,2,9,18,13,4,17,13,0,0,0,0,9,0,0,0,0,0,0,0,0,0,0,0,0,0,0,0,0,0,0,0,0,0],"split_type":[0,0,0,0,0,0,0,0,0,0,0,0,0,0,0,0,0,0,0,0,0,0,0,0,0,0,0,0,0,0,0,0,0,0,0,0,0,0,0,0,0,0,0,0,0,0,0,0,0,0,0],"sum_hessian":[7.067375E3,2.4782343E2,6.819552E3,6.6339463E3,1.8560516E2,1.3324849E3,5.301462E3,1.8067798E2,4.9271936E0,1.1517216E3,1.8076328E2,5.974952E2,4.7039663E3,1.7831079E2,2.3671856E0,3.1666923E0,1.7605011E0,1.037279E3,1.1444249E2,1.2643958E2,5.4323692E1,3.4416736E2,2.533278E2,1.7972412E3,2.9067253E3,4.834952E0,1.7347585E2,1.3652015E0,1.0019841E0,2.1505625E0,1.0161296E0,9.295902E2,1.07688866E2,6.472236E1,4.972013E1,5.1483414E1,7.495617E1,1.5255738E1,3.9067955E1,1.9149187E2,1.5267549E2,6.828985E1,1.8503796E2,1.1057084E3,6.9153284E2,1.5754707E2,2.7491782E3,2.740002E0,2.0949502E0,1.1151621E0,1.0354005E0],"tree_param":{"num_deleted":"0","num_feature":"26","num_nodes":"51","size_leaf_vector":"1"}},{"base_weights":[2.595703E-3,-2.9870877E-1,3.0511176E-2,-3.0384025E-1,8.934291E-2,-1.9829562E-1,-8.0393165E-1,1.3199787E0,5.3266663E-2,-2.866117E-1,3.8026398E-1,-6.311149E-1,-1.1305182E0,4.0478796E-1,2.9407054E-1,-6.256628E-1,1.06417276E-1,-4.5166102E-1,1.5937768E-2,-1.2529296E0,-4.6872196E-1,-3.495682E-1,1.1611062E-1,-1.4059525E0,-5.4853237E-1,1.329729E0,5.4782256E-2,-4.1308586E-2,-1.9283798E-1,-1.86582E-1,4.074488E-1,-2.7957708E-3,-4.0528545E-1,3.2075677E-2,-1.9269179E-1,-2.6820345E-2,-4.7522023E-1,-8.5059434E-2,-2.7756175E-1,3.837789E-1,6.302506E-1,4.268097E-2,-7.4463606E-2],"categories":[],"categories_nodes":[],"categories_segments":[],"categories_sizes":[],"default_left":[0,0,0,0,0,0,0,0,0,0,0,0,0,0,0,0,0,0,0,0,0,0,0,0,0,0,0,0,0,0,0,0,0,0,0,0,0,0,0,0,0,0,0],"id":20,"left_children":[1,-1,3,5,7,9,11,13,15,17,-1,19,21,-1,-1,23,25,27,29,31,33,-1,-1,35,37,39,41,-1,-1,-1,-1,-1,-1,-1,-1,-1,-1,-1,-1,-1,-1,-1,-1],"loss_changes":[1.893944E2,0E0,1.3007286E2,5.2066147E1,2.4956158E2,1.06305115E2,9.00013E0,2.7182007E-1,1.9722556E2,3.859065E1,0E0,1.1006371E1,3.5214462E0,0E0,0E0,2.3110977E1,3.20041E2,2.9914154E1,2.3517557E2,2.8127975E0,9.325003E0,0E0,0E0,8.079086E0,3.594818E1,5.297882E0,1.2896184E2,0E0,0E0,0E0,0E0,0E0,0E0,0E0,0E0,0E0,0E0,0E0,0E0,0E0,0E0,0E0,0E0],"parents":[2147483647,0,0,2,2,3,3,4,4,5,5,6,6,7,7,8,8,9,9,11,11,12,12,15,15,16,16,17,17,18,18,19,19,20,20,23,23,24,24,25,25,26,26],"right_children":[2,-1,4,6,8,10,12,14,16,18,-1,20,22,-1,-1,24,26,28,30,32,34,-1,-1,36,38,40,42,-1,-1,-1,-1,-1,-1,-1,-1,-1,-1,-1,-1,-1,-1,-1,-1],"split_conditions":[0E0,-2.9870877E-1,-6.4083815E-1,6.923077E-1,-5.345415E-1,1.8829148E-1,2.0601244E0,9.539199E-2,-5.303093E-1,-7.1600604E-1,3.8026398E-1,-6.0875016E-1,1E0,4.0478796E-1,2.9407054E-1,-6.218914E-1,-3.8809487E-1,-7.1755415E-1,-3.5647422E-1,1.2618341E-2,-4.034697E-1,-3.495682E-1,1.1611062E-1,-7.5E-1,1E0,4.1587577E0,5.77831E-1,-4.1308586E-2,-1.9283798E-1,-1.86582E-1,4.074488E-1,-2.7957708E-3,-4.0528545E-1,3.2075677E-2,-1.9269179E-1,-2.6820345E-2,-4.7522023E-1,-8.5059434E-2,-2.7756175E-1,3.837789E-1,6.302506E-1,4.268097E-2,-7.4463606E-2],"split_indices":[20,0,12,6,12,13,1,24,12,12,0,1,5,0,0,23,12,12,13,24,1,0,0,2,15,18,12,0,0,0,0,0,0,0,0,0,0,0,0,0,0,0,0],"split_type":[0,0,0,0,0,0,0,0,0,0,0,0,0,0,0,0,0,0,0,0,0,0,0,0,0,0,0,0,0,0,0,0,0,0,0,0,0,0,0,0,0,0,0],"sum_hessian":[6.7940874E3,1.8387361E2,6.610214E3,9.884587E2,5.621755E3,8.173524E2,1.7110626E2,1.5909528E2,5.4626597E3,7.7166455E2,4.5687836E1,1.1381325E2,5.7293015E1,1.4372282E2,1.53724575E1,3.9581903E2,5.066841E3,4.9896964E2,2.7269495E2,2.2177717E1,9.163554E1,5.62389E1,1.0541141E0,3.4056664E1,3.6176236E2,2.0420331E2,4.862637E3,1.8946423E2,3.095054E2,1.8521173E2,8.748321E1,1.7003487E0,2.0477367E1,2.131953E1,7.0316E1,4.2374125E0,2.981925E1,2.1338934E2,1.48373E2,1.9415555E2,1.0047757E1,3.7735732E3,1.0890643E3],"tree_param":{"num_deleted":"0","num_feature":"26","num_nodes":"43","size_leaf_vector":"1"}},{"base_weights":[2.2825422E-3,-2.9806316E-1,2.3725161E-2,-6.287633E-2,2.2453919E-1,1.0029747E-3,-4.138469E-1,1.3910411E-1,8.289276E-1,-4.6983507E-2,3.920826E-1,-2.4746673E-1,-8.7259096E-1,4.808003E-2,6.566063E-1,9.1736734E-1,9.890779E-2,1.749351E-2,-5.519683E-1,-4.5391607E-1,1.2792633E0,-6.9078094E-1,-1.1132762E0,-2.1915972E-2,8.9890325E-1,-3.215521E-3,7.631201E-1,9.512895E-1,-2.793122E-1,3.3572322E-1,-1.3207631E-1,-1.2315287E-2,3.9111996E-1,3.9530936E-1,-1.8268305E-1,-8.000272E-2,-2.8848407E-1,4.3675956E-1,3.359888E-1,-2.2996512E-1,2.0699646E-1,-3.6881083E-1,-1.8112999E-1,-4.7233734E-2,6.1994538E-2,2.8280917E-1,-4.5992963E-2,8.897162E-2,-3.0343425E-1,-1.7178018E-2,2.5239328E-1,9.415313E-2,3.0795527E-1,2.879464E-1,-2.611487E-1,-1.4702635E-1,3.127053E-1],"categories":[],"categories_nodes":[],"categories_segments":[],"categories_sizes":[],"default_left":[0,0,0,0,0,0,0,0,0,0,0,0,0,0,0,0,0,0,0,0,0,0,0,0,0,0,0,0,0,0,0,0,0,0,0,0,0,0,0,0,0,0,0,0,0,0,0,0,0,0,0,0,0,0,0,0,0],"id":21,"left_children":[1,-1,3,5,7,9,11,13,15,17,-1,19,21,23,25,27,29,31,33,35,37,39,41,43,45,47,49,51,53,-1,55,-1,-1,-1,-1,-1,-1,-1,-1,-1,-1,-1,-1,-1,-1,-1,-1,-1,-1,-1,-1,-1,-1,-1,-1,-1,-1],"loss_changes":[1.392614E2,0E0,1.1104133E2,1.00023636E2,9.92253E1,2.3665677E2,5.221801E1,7.942517E1,1.5279739E1,1.1861135E2,0E0,1.5991939E2,7.21463E0,8.551342E1,1.772947E1,8.880737E0,6.4738393E0,2.4336317E2,4.473935E1,4.214572E1,7.090759E-2,1.1678284E1,3.805008E0,4.1152195E1,5.1741104E0,1.1197493E1,1.39794235E1,9.585129E0,5.6873026E0,0E0,1.0090607E1,0E0,0E0,0E0,0E0,0E0,0E0,0E0,0E0,0E0,0E0,0E0,0E0,0E0,0E0,0E0,0E0,0E0,0E0,0E0,0E0,0E0,0E0,0E0,0E0,0E0,0E0],"parents":[2147483647,0,0,2,2,3,3,4,4,5,5,6,6,7,7,8,8,9,9,11,11,12,12,13,13,14,14,15,15,16,16,17,17,18,18,19,19,20,20,21,21,22,22,23,23,24,24,25,25,26,26,27,27,28,28,30,30],"right_children":[2,-1,4,6,8,10,12,14,16,18,-1,20,22,24,26,28,30,32,34,36,38,40,42,44,46,48,50,52,54,-1,56,-1,-1,-1,-1,-1,-1,-1,-1,-1,-1,-1,-1,-1,-1,-1,-1,-1,-1,-1,-1,-1,-1,-1,-1,-1,-1],"split_conditions":[0E0,-2.9806316E-1,5.2204046E-2,7.0212287E-1,6.666667E-1,6.364619E-1,1.4847122E-1,6.850525E-1,4.151585E0,6.2883055E-1,3.920826E-1,-3.1713724E-2,2.0601244E0,1.00828126E-1,-6.3726187E-1,4.1587577E0,1E0,5.1366794E-1,-6.923077E-1,2.2938337E0,1.0609517E-2,1.6320475E0,1E0,1.7152622E-2,4.151585E0,4.149587E0,-7.1600604E-1,-6.218914E-1,1E0,3.3572322E-1,1E0,-1.2315287E-2,3.9111996E-1,3.9530936E-1,-1.8268305E-1,-8.000272E-2,-2.8848407E-1,4.3675956E-1,3.359888E-1,-2.2996512E-1,2.0699646E-1,-3.6881083E-1,-1.8112999E-1,-4.7233734E-2,6.1994538E-2,2.8280917E-1,-4.5992963E-2,8.897162E-2,-3.0343425E-1,-1.7178018E-2,2.5239328E-1,9.415313E-2,3.0795527E-1,2.879464E-1,-2.611487E-1,-1.4702635E-1,3.127053E-1],"split_indices":[20,0,24,13,8,13,12,23,19,13,0,12,1,24,13,18,10,13,6,23,24,1,2,18,19,18,12,23,10,0,2,0,0,0,0,0,0,0,0,0,0,0,0,0,0,0,0,0,0,0,0,0,0,0,0,0,0],"split_type":[0,0,0,0,0,0,0,0,0,0,0,0,0,0,0,0,0,0,0,0,0,0,0,0,0,0,0,0,0,0,0,0,0,0,0,0,0,0,0,0,0,0,0,0,0,0,0,0,0,0,0,0,0,0,0,0,0],"sum_hessian":[6.5197227E3,1.364711E2,6.383252E3,4.460387E3,1.9228647E3,3.7744126E3,6.859745E2,1.6857946E3,2.3707022E2,3.6415679E3,1.328447E2,5.045284E2,1.8144609E2,1.4345608E3,2.5123372E2,2.1122437E2,2.5845856E1,3.2301091E3,4.1145856E2,4.4505002E2,5.9478405E1,1.0557008E2,7.587601E1,1.326413E3,1.0814785E2,3.5054028E1,2.1617969E2,2.0560127E2,5.6230946E0,4.0617623E0,2.1784092E1,3.090414E3,1.3969516E2,1.15134E1,3.9994516E2,3.262524E2,1.1879761E2,2.4347492E1,3.5130913E1,1.005E2,5.0700793E0,6.0645023E1,1.5230985E1,8.328667E2,4.9354633E2,1.0392644E2,4.221413E0,2.7564E1,7.490027E0,1.8834572E1,1.9734512E2,2.2248692E1,1.8335258E2,1.6148254E0,4.008269E0,1.7141418E1,4.6426754E0],"tree_param":{"num_deleted":"0","num_feature":"26","num_nodes":"57","size_leaf_vector":"1"}},{"base_weights":[4.382545E-3,-4.002598E-1,4.5172684E-2,-5.6677145E-1,-8.182342E-2,3.8489428E-1,2.1397823E-2,-2.383618E-1,-7.4232143E-1,3.6472273E-1,-3.5992348E-1,-5.8354527E-1,5.9521668E-2,-6.694256E-1,1.5334927E-2,4.790852E-1,-7.602403E-1,-4.2901248E-1,-2.6599312E-1,-4.004664E-1,-9.063298E-1,1.3064842E0,2.6040802E-2,-4.5337084E-1,-5.160416E-1,1.5343364E-1,-3.273121E-1,-5.708038E-1,-1.046033E0,-1.4712597E-1,-1.0977445E0,-5.8733416E-1,-1.0992219E-1,-9.678262E-1,6.9939345E-1,1.2403818E0,2.0666838E0,-6.610153E-1,7.539647E-2,-6.636553E-2,-3.1364393E-1,8.750212E-2,-2.674567E-1,-1.9495939E-1,6.0152322E-2,-2.8234872E-1,-5.281167E-1,2.0753609E-2,-1.973769E-1,-3.4581307E-1,-9.2853054E-2,-2.1660498E-1,-2.3253534E-3,3.5794097E-1,-7.348496E-2,-2.628868E-1,-4.3601853E-1,-1.8893276E-1,4.061561E-1,3.5839427E-1,4.7784996E-1,3.00569E-1,7.4528414E-1,4.250734E-1,-2.0359641E-1,4.074636E-1,8.697133E-3],"categories":[],"categories_nodes":[],"categories_segments":[],"categories_sizes":[],"default_left":[0,0,0,0,0,0,0,0,0,0,0,0,0,0,0,0,0,0,0,0,0,0,0,0,0,0,0,0,0,0,0,0,0,0,0,0,0,0,0,0,0,0,0,0,0,0,0,0,0,0,0,0,0,0,0,0,0,0,0,0,0,0,0,0,0,0,0],"id":22,"left_children":[1,3,5,7,9,-1,11,13,15,-1,17,19,21,23,25,-1,27,-1,29,31,33,35,37,-1,39,41,-1,43,45,47,49,51,53,55,57,59,61,63,65,-1,-1,-1,-1,-1,-1,-1,-1,-1,-1,-1,-1,-1,-1,-1,-1,-1,-1,-1,-1,-1,-1,-1,-1,-1,-1,-1,-1],"loss_changes":[1.0309013E2,3.0280807E1,1.6694469E2,2.1465866E1,7.172642E1,0E0,1.2844528E2,1.4472091E1,1.1448593E1,0E0,1.6050047E1,1.9149094E1,2.1867827E2,5.5491505E0,1.3036026E1,0E0,1.2557892E1,0E0,1.4816819E1,1.1471443E1,1.2398598E1,4.3188934E0,1.730841E2,0E0,6.477542E0,1.1203222E1,0E0,9.175274E0,5.509323E0,1.4818776E1,4.5726967E-1,1.0070221E1,1.5141827E1,3.8265915E0,5.166416E0,1.6851807E-1,1.715374E0,1.350061E1,2.834226E2,0E0,0E0,0E0,0E0,0E0,0E0,0E0,0E0,0E0,0E0,0E0,0E0,0E0,0E0,0E0,0E0,0E0,0E0,0E0,0E0,0E0,0E0,0E0,0E0,0E0,0E0,0E0,0E0],"parents":[2147483647,0,0,1,1,2,2,3,3,4,4,6,6,7,7,8,8,10,10,11,11,12,12,13,13,14,14,16,16,18,18,19,19,20,20,21,21,22,22,24,24,25,25,27,27,28,28,29,29,30,30,31,31,32,32,33,33,34,34,35,35,36,36,37,37,38,38],"right_children":[2,4,6,8,10,-1,12,14,16,-1,18,20,22,24,26,-1,28,-1,30,32,34,36,38,-1,40,42,-1,44,46,48,50,52,54,56,58,60,62,64,66,-1,-1,-1,-1,-1,-1,-1,-1,-1,-1,-1,-1,-1,-1,-1,-1,-1,-1,-1,-1,-1,-1,-1,-1,-1,-1,-1,-1],"split_conditions":[-7.1039325E-1,1.5605128E-2,-6.418953E-1,-2.5E-1,2.0757926E0,3.8489428E-1,-6.3726187E-1,0E0,0E0,3.6472273E-1,-6.183657E-1,1.9329735E0,-5.253041E-1,-6.235129E-1,2.7121623E0,4.790852E-1,2.056728E0,-4.2901248E-1,2.7121623E0,1.7152622E-2,2.1314118E0,4.151585E0,-5.2063423E-1,-4.5337084E-1,-5E-1,6.895355E-2,-3.273121E-1,1E0,1.8351018E-2,1.5384616E-1,1.25E0,5.230796E-1,2.0793788E0,1.8351018E-2,3.3333334E-1,4.149587E0,2.7928036E-2,-1.5384616E-1,-3.7335935E-1,-6.636553E-2,-3.1364393E-1,8.750212E-2,-2.674567E-1,-1.9495939E-1,6.0152322E-2,-2.8234872E-1,-5.281167E-1,2.0753609E-2,-1.973769E-1,-3.4581307E-1,-9.2853054E-2,-2.1660498E-1,-2.3253534E-3,3.5794097E-1,-7.348496E-2,-2.628868E-1,-4.3601853E-1,-1.8893276E-1,4.061561E-1,3.5839427E-1,4.7784996E-1,3.00569E-1,7.4528414E-1,4.250734E-1,-2.0359641E-1,4.074636E-1,8.697133E-3],"split_indices":[13,19,13,2,19,0,13,8,6,0,23,1,13,1,23,0,23,0,23,18,19,19,13,0,2,24,0,16,24,6,2,23,18,24,9,18,24,6,13,0,0,0,0,0,0,0,0,0,0,0,0,0,0,0,0,0,0,0,0,0,0,0,0,0,0,0,0],"split_type":[0,0,0,0,0,0,0,0,0,0,0,0,0,0,0,0,0,0,0,0,0,0,0,0,0,0,0,0,0,0,0,0,0,0,0,0,0,0,0,0,0,0,0,0,0,0,0,0,0,0,0,0,0,0,0,0,0,0,0,0,0,0,0,0,0,0,0],"sum_hessian":[6.2437407E3,5.709588E2,5.6727817E3,3.744024E2,1.965564E2,1.05906944E2,5.566875E3,1.3124118E2,2.4316124E2,3.4096508E1,1.6245988E2,3.2918076E2,5.2376943E3,4.801639E1,8.322479E1,1.1785791E0,2.4198265E2,1.19615345E1,1.5049835E2,2.1147548E2,1.1770527E2,1.3596034E2,5.101734E3,6.036103E0,4.198029E1,7.475512E1,8.469679E0,1.473257E2,9.465695E1,1.3270947E2,1.7788874E1,1.2807846E2,8.339701E1,1.1374625E2,3.9590173E0,1.2750492E2,8.455425E0,3.4109702E2,4.7606367E3,2.787541E1,1.41048765E1,6.665767E1,8.097449E0,1.3377136E2,1.3554342E1,8.4560585E1,1.0096368E1,9.383725E1,3.8872227E1,1.6197018E1,1.5918573E0,1.0372848E2,2.4349989E1,7.0947013E0,7.630231E1,9.806433E1,1.5681916E1,1.3186451E0,2.6403723E0,1.1674552E2,1.0759399E1,3.3395205E0,5.1159053E0,2.2034507E0,3.3889355E2,1.6521735E2,4.5954194E3],"tree_param":{"num_deleted":"0","num_feature":"26","num_nodes":"67","size_leaf_vector":"1"}},{"base_weights":[4.297964E-3,-2.9713637E-1,2.0781707E-2,-3.367838E-1,6.812405E-2,-2.4087362E-1,-9.866418E-1,1.166651E-1,-3.2428244E-1,-1.20572604E-1,-8.0800295E-1,-6.768311E-1,-1.49601E0,5.681074E-3,4.206086E-1,-2.4585181E-1,-7.50731E-1,-1.9348042E-1,4.1354346E-1,-1.0108223E0,-2.3847789E-1,-9.0104896E-1,3.1953448E-1,-7.356446E-1,-4.95109E-1,8.197693E-2,-2.6549295E-1,1.1711928E0,2.457351E-2,4.5802364E-1,-2.8445375E-1,-9.784098E-1,-4.9111262E-1,-2.0050174E-3,-1.7462507E-1,-3.241849E-1,1.946627E-1,3.0374476E-1,-1.786105E-1,2.6371327E-1,-2.9380178E-1,-8.2481705E-2,-2.7939743E-1,1.4049387E-1,-3.6417644E-2,-9.5101185E-2,1.13204226E-1,3.4449273E-1,4.4312227E-1,-3.9772887E-2,3.4726703E-1,-1.1556386E-1,1.8209942E-2,-1.5637608E-2,-3.0478367E-1,-1.931939E-1,1.2424964E-1],"categories":[],"categories_nodes":[],"categories_segments":[],"categories_sizes":[],"default_left":[0,0,0,0,0,0,0,0,0,0,0,0,0,0,0,0,0,0,0,0,0,0,0,0,0,0,0,0,0,0,0,0,0,0,0,0,0,0,0,0,0,0,0,0,0,0,0,0,0,0,0,0,0,0,0,0,0],"id":23,"left_children":[1,-1,3,5,7,9,11,13,15,17,19,21,23,25,27,29,31,33,-1,35,37,39,-1,41,-1,43,45,47,49,-1,51,53,55,-1,-1,-1,-1,-1,-1,-1,-1,-1,-1,-1,-1,-1,-1,-1,-1,-1,-1,-1,-1,-1,-1,-1,-1],"loss_changes":[9.926743E1,0E0,1.0082862E2,4.3169502E1,1.0022064E2,4.1397026E1,1.3070557E1,1.579109E2,1.9189495E1,5.523326E1,1.2032906E1,2.3346447E1,2.6501312E0,7.098988E1,3.721759E2,3.401461E1,4.8096466E0,3.487422E1,0E0,9.741768E0,1.3644865E1,8.013412E0,0E0,4.074626E-1,0E0,2.1044398E2,2.5067692E1,1.3308716E0,1.462726E2,0E0,1.6756145E1,1.5698318E0,6.331319E0,0E0,0E0,0E0,0E0,0E0,0E0,0E0,0E0,0E0,0E0,0E0,0E0,0E0,0E0,0E0,0E0,0E0,0E0,0E0,0E0,0E0,0E0,0E0,0E0],"parents":[2147483647,0,0,2,2,3,3,4,4,5,5,6,6,7,7,8,8,9,9,10,10,11,11,12,12,13,13,14,14,15,15,16,16,17,17,19,19,20,20,21,21,23,23,25,25,26,26,27,27,28,28,30,30,31,31,32,32],"right_children":[2,-1,4,6,8,10,12,14,16,18,20,22,24,26,28,30,32,34,-1,36,38,40,-1,42,-1,44,46,48,50,-1,52,54,56,-1,-1,-1,-1,-1,-1,-1,-1,-1,-1,-1,-1,-1,-1,-1,-1,-1,-1,-1,-1,-1,-1,-1,-1],"split_conditions":[0E0,-2.9713637E-1,-6.218914E-1,6.1538464E-1,4.1587577E0,1E0,1E0,1.7152622E-2,7.0212287E-1,6.666667E-1,1.5605128E-2,-5.303093E-1,-9.813454E-3,1E0,2.0793788E0,-6.923077E-1,2E-1,5E-1,4.1354346E-1,1E0,2.018598E0,-5E-1,3.1953448E-1,-6.301007E-1,-4.95109E-1,1E0,1.6000346E0,4.151585E0,2.191566E0,4.5802364E-1,1.5605128E-2,-9.3333334E-1,6.387825E-2,-2.0050174E-3,-1.7462507E-1,-3.241849E-1,1.946627E-1,3.0374476E-1,-1.786105E-1,2.6371327E-1,-2.9380178E-1,-8.2481705E-2,-2.7939743E-1,1.4049387E-1,-3.6417644E-2,-9.5101185E-2,1.13204226E-1,3.4449273E-1,4.4312227E-1,-3.9772887E-2,3.4726703E-1,-1.1556386E-1,1.8209942E-2,-1.5637608E-2,-3.0478367E-1,-1.931939E-1,1.2424964E-1],"split_indices":[20,0,23,6,18,10,11,18,13,8,19,12,24,5,18,6,3,2,0,5,19,17,0,1,0,15,23,19,18,0,19,9,24,0,0,0,0,0,0,0,0,0,0,0,0,0,0,0,0,0,0,0,0,0,0,0,0],"split_type":[0,0,0,0,0,0,0,0,0,0,0,0,0,0,0,0,0,0,0,0,0,0,0,0,0,0,0,0,0,0,0,0,0,0,0,0,0,0,0,0,0,0,0,0,0,0,0,0,0,0,0,0,0,0,0,0,0],"sum_hessian":[6.0516543E3,9.7682365E1,5.9539717E3,6.954311E2,5.258541E3,6.0718896E2,8.824215E1,4.6802876E3,5.7825336E2,5.0193066E2,1.052583E2,5.6317295E1,3.1924852E1,3.4291592E3,1.2511282E3,4.89756E2,8.849735E1,4.7948154E2,2.2449123E1,7.704586E1,2.8212442E1,5.0322655E1,5.9946394E0,6.3601017E0,2.556475E1,2.6767446E3,7.524147E2,4.314558E2,8.1967236E2,9.616494E0,4.801395E2,4.567386E1,4.282349E1,3.2451038E2,1.5497118E2,7.427149E1,2.7743685E0,5.8544974E0,2.2357944E1,1.6891147E0,4.863354E1,2.6130438E0,3.7470582E0,9.226683E2,1.7540763E3,6.970655E2,5.534918E1,4.058477E2,2.5608128E1,7.206044E2,9.906803E1,3.715566E2,1.0858289E2,1.8717855E0,4.3802074E1,3.6883854E1,5.939639E0],"tree_param":{"num_deleted":"0","num_feature":"26","num_nodes":"57","size_leaf_vector":"1"}},{"base_weights":[5.5407556E-3,5.246545E-2,-3.6516032E-1,-5.599672E-2,3.5987493E-1,-4.2961794E-1,3.5666314E-1,4.648091E-2,-2.3789911E-1,1.1635231E0,-3.526875E-2,7.596841E-1,-4.5818245E-1,6.9676197E-1,-4.1831547E-1,-3.337521E-2,3.7780598E-1,-6.9906783E-1,-1.2538457E-1,1.141807E0,4.2818984E-1,-2.0779979E-1,1.1904176E0,1.7251202E0,-1.0316106E-1,-6.6906023E-1,-2.77194E-1,-1.7992269E-1,1.3156083E0,-8.026654E-1,1.1714761E0,3.5900366E-2,-6.166315E-1,-4.324106E-1,-1.1027236E0,3.5619885E-1,-2.5422463E-1,3.3577546E-1,3.9461038E-1,-6.293018E-1,6.4452845E-3,3.9754474E-1,3.2383794E-1,7.140003E-1,7.405344E-1,-5.937792E-1,2.9624766E-1,-7.9535526E-1,-3.0148023E-1,-1.5330525E-1,-6.236519E-1,-2.8691214E-1,3.7551305E-1,1.4661676E0,-1.900239E-1,-2.3623848E-2,-9.605367E-1,1.04448244E-1,4.8691702E-1,-1.8223982E-2,3.8521162E-1,-1.5351129E-1,-2.884187E-1,-4.572213E-1,-8.4244646E-2,1.8146501E-1,-3.3743414E-1,-2.192448E-1,-3.271052E-2,-1.9948237E-1,6.493911E-3,-2.5548208E-1,5.2779846E-2,7.401154E-2,2.539974E-1,6.0959473E-2,-2.5430462E-1,-2.4550359E-1,-9.79324E-3,1.2380988E-1,-1.982861E-1,1.1715034E-2,-1.4553633E-1,-2.6150951E-2,-2.234001E-1,2.8732103E-1,-1.9179347E-1,4.523972E-1,1.0991106E-1,1.742198E-1,-1.8650426E-1,-8.690791E-2,-3.0648383E-1],"categories":[],"categories_nodes":[],"categories_segments":[],"categories_sizes":[],"default_left":[0,0,0,0,0,0,0,0,0,0,0,0,0,0,0,0,0,0,0,0,0,0,0,0,0,0,0,0,0,0,0,0,0,0,0,0,0,0,0,0,0,0,0,0,0,0,0,0,0,0,0,0,0,0,0,0,0,0,0,0,0,0,0,0,0,0,0,0,0,0,0,0,0,0,0,0,0,0,0,0,0,0,0,0,0,0,0,0,0,0,0,0,0],"id":24,"left_children":[1,3,5,7,9,11,13,15,17,19,21,23,25,27,29,31,-1,33,35,37,-1,39,41,43,45,47,49,51,53,55,57,59,61,63,65,-1,67,-1,-1,69,71,-1,-1,-1,73,75,-1,77,79,81,83,-1,85,87,-1,89,91,-1,-1,-1,-1,-1,-1,-1,-1,-1,-1,-1,-1,-1,-1,-1,-1,-1,-1,-1,-1,-1,-1,-1,-1,-1,-1,-1,-1,-1,-1,-1,-1,-1,-1,-1,-1],"loss_changes":[1.0058885E2,1.7115874E2,3.0383713E1,7.075298E1,4.25185E2,2.0626892E1,1.44743185E1,2.3523352E2,7.0879875E1,8.982544E-1,1.9024721E2,1.2154278E1,2.2086685E1,2.0730124E1,1.1350611E1,9.211614E1,0E0,2.8372665E1,1.8645955E2,1.4361572E-1,0E0,7.120584E1,2.291565E-1,2.6488552E0,5.1536064E0,1.2239517E1,1.3456608E1,7.479502E0,7.4617043E0,1.7377071E0,8.193197E-1,2.4594589E2,8.263519E0,2.6554651E1,4.6719513E0,0E0,6.933276E1,0E0,0E0,6.178955E0,7.631715E1,0E0,0E0,0E0,1.0422945E-2,1.4899096E0,0E0,3.470787E0,1.8334229E1,1.4947946E1,5.3132095E0,0E0,6.7235503E0,4.1200638E-1,0E0,1.6033237E0,1.906538E-1,0E0,0E0,0E0,0E0,0E0,0E0,0E0,0E0,0E0,0E0,0E0,0E0,0E0,0E0,0E0,0E0,0E0,0E0,0E0,0E0,0E0,0E0,0E0,0E0,0E0,0E0,0E0,0E0,0E0,0E0,0E0,0E0,0E0,0E0,0E0,0E0],"parents":[2147483647,0,0,1,1,2,2,3,3,4,4,5,5,6,6,7,7,8,8,9,9,10,10,11,11,12,12,13,13,14,14,15,15,17,17,18,18,19,19,21,21,22,22,23,23,24,24,25,25,26,26,27,27,28,28,29,29,30,30,31,31,32,32,33,33,34,34,36,36,39,39,40,40,44,44,45,45,47,47,48,48,49,49,50,50,52,52,53,53,55,55,56,56],"right_children":[2,4,6,8,10,12,14,16,18,20,22,24,26,28,30,32,-1,34,36,38,-1,40,42,44,46,48,50,52,54,56,58,60,62,64,66,-1,68,-1,-1,70,72,-1,-1,-1,74,76,-1,78,80,82,84,-1,86,88,-1,90,92,-1,-1,-1,-1,-1,-1,-1,-1,-1,-1,-1,-1,-1,-1,-1,-1,-1,-1,-1,-1,-1,-1,-1,-1,-1,-1,-1,-1,-1,-1,-1,-1,-1,-1,-1,-1],"split_conditions":[4.151585E0,1.5605128E-2,2.0601244E0,3.1901193E-1,2.0757926E0,-6.1456203E-1,1.3988712E-1,1.549296E-1,3.2834706E-1,4.1587577E0,2.1314118E0,-6.666667E-1,4.4332884E-2,-3.714669E-1,1.0609517E-2,1.4847122E-1,3.7780598E-1,1E0,4.654585E-1,1E0,4.2818984E-1,-9.813454E-3,1.4712044E-2,3.068976E-2,4.3349203E-2,1.7152622E-2,4E-1,2.892774E0,7.5E-1,2.3976773E-1,5.801777E-1,-3.1713724E-2,1E0,-6.266231E-1,0E0,3.5619885E-1,4.6782047E-1,3.3577546E-1,3.9461038E-1,2.191566E0,-6.218914E-1,3.9754474E-1,3.2383794E-1,7.140003E-1,6.137531E-1,0E0,2.9624766E-1,1E0,0E0,5E-1,-4E-1,-2.8691214E-1,5.3846157E-1,1E0,-1.900239E-1,6.439266E-1,-6.1538464E-1,1.04448244E-1,4.8691702E-1,-1.8223982E-2,3.8521162E-1,-1.5351129E-1,-2.884187E-1,-4.572213E-1,-8.4244646E-2,1.8146501E-1,-3.3743414E-1,-2.192448E-1,-3.271052E-2,-1.9948237E-1,6.493911E-3,-2.5548208E-1,5.2779846E-2,7.401154E-2,2.539974E-1,6.0959473E-2,-2.5430462E-1,-2.4550359E-1,-9.79324E-3,1.2380988E-1,-1.982861E-1,1.1715034E-2,-1.4553633E-1,-2.6150951E-2,-2.234001E-1,2.8732103E-1,-1.9179347E-1,4.523972E-1,1.0991106E-1,1.742198E-1,-1.8650426E-1,-8.690791E-2,-3.0648383E-1],"split_indices":[19,19,1,12,19,23,12,12,12,18,19,8,24,12,24,12,0,15,12,5,0,24,24,24,24,18,9,1,2,12,12,12,5,1,17,0,12,0,0,18,23,0,0,0,12,4,0,5,4,17,3,0,6,10,0,13,6,0,0,0,0,0,0,0,0,0,0,0,0,0,0,0,0,0,0,0,0,0,0,0,0,0,0,0,0,0,0,0,0,0,0,0,0],"split_type":[0,0,0,0,0,0,0,0,0,0,0,0,0,0,0,0,0,0,0,0,0,0,0,0,0,0,0,0,0,0,0,0,0,0,0,0,0,0,0,0,0,0,0,0,0,0,0,0,0,0,0,0,0,0,0,0,0,0,0,0,0,0,0,0,0,0,0,0,0,0,0,0,0,0,0,0,0,0,0,0,0,0,0,0,0,0,0,0,0,0,0,0,0],"sum_hessian":[5.780517E3,5.131777E3,6.4874054E2,3.7939788E3,1.3377979E3,5.959299E2,5.281072E1,2.4272776E3,1.3667013E3,4.4032166E2,8.9747626E2,1.3376951E1,5.825529E2,3.6773582E1,1.6037134E1,2.278249E3,1.4902858E2,2.6702405E2,1.0996772E3,4.1175177E2,2.8569883E1,7.874614E2,1.100148E2,5.8415313E0,7.53542E0,2.678141E2,3.147388E2,1.5510291E1,2.1263292E1,1.3313547E1,2.7235866E0,2.0372191E3,2.4102985E2,1.620465E2,1.0497756E2,9.755028E1,1.00212695E3,3.709879E2,4.0763874E1,2.6471957E2,5.227419E2,4.474276E1,6.527204E1,2.6570067E0,3.1845248E0,5.5116434E0,2.0237765E0,1.9846178E2,6.935231E1,2.3289954E2,8.1839264E1,6.167215E0,9.343077E0,1.9968494E1,1.2947985E0,2.43707E0,1.0876477E1,1.5920204E0,1.131566E0,1.8916913E3,1.4552782E2,1.8669452E2,5.433533E1,1.865504E1,1.4339145E2,1.0017283E0,1.0397583E2,2.330608E2,7.6906616E2,2.5095808E2,1.3761472E1,8.5559814E1,4.3718207E2,1.1513927E0,2.033132E0,1.3799157E0,4.1317277E0,1.9258388E2,5.8778944E0,2.3170504E1,4.618181E1,1.4799081E2,8.490873E1,1.5379486E1,6.645978E1,5.972688E0,3.3703883E0,1.8879396E1,1.0890963E0,1.226559E0,1.2105108E0,1.3868481E0,9.489629E0],"tree_param":{"num_deleted":"0","num_feature":"26","num_nodes":"93","size_leaf_vector":"1"}},{"base_weights":[8.8438885E-3,3.1257167E-2,-6.770469E-1,1.0575976E-2,1.7468222E0,-4.4033015E-1,-1.0910935E0,